tree
version=v4
num_class=1
num_tree_per_iteration=1
label_index=0
max_feature_idx=22
objective=binary sigmoid:1
feature_names=num_products_click sum_discount_price_click max_discount_price_click days_since_last_click days_since_first_click num_products_favorite sum_discount_price_favorite max_discount_price_favorite days_since_last_favorite days_since_first_favorite num_products_order sum_discount_price_order max_discount_price_order days_since_last_order days_since_first_order num_products_to_cart sum_discount_price_to_cart max_discount_price_to_cart days_since_last_to_cart days_since_first_to_cart num_search days_since_last_search days_since_first_search
feature_infos=[1:10406] [0:7064905] [12:840000] [0:120] [0:120] [1:2360] [0:7902041] [12:131033] [0:120] [0:120] [1:1993] [0:365603] [9:93990] [0:120] [0:120] [1:3880] [0:7083281] [12:167590] [0:120] [0:120] [0:2140] [0:120] [0:120]
tree_sizes=3510 3546 3535 3542 3545 3540 3544 3553 3551 3563 3560 3552 3544 3565 3541 3561 3548 3558 3555 3557 3558 3565 3563 3584 3562 3566 3570 3566 3570 3568 3562 3588 3567 3559 3592 3563 3572 3583 3581 3574 3584 3577 3577 3577 3579 3543 3579 3576 3552 3559 3575 3578 3554 3590 3561 3550 3567 3566 3562 3548 3555 3556 3545 3523 3558 3565 3525 3550 3534 3574 3551 3528 3530 3481 3469 3552 3522 3490 3534 3468 3578 3452 3535 3535 3542 3477 3485 3491 3562 3482 3484 3570 3482 3529 3497 3463 3464 3485 3442 3461 3418 3507 3422 3419 3542 3466 3453 3483 3476 3506 3541 3496 3456 3486 3492 3535 3441 3471 3475 3431 3491 3448 3481 3482 3451 3442 3440 3463 3495 3481 3448 3388 3437 3469 3467 3527 3431 3478 3556 3398 3442 3439 3462 3515 3573 3490 3538 3467 3531 3499 3517 3480 3462 3501 3481 3417 3444 3462 3429 3402 3444 3466 3449 3459 3431 3505 3528 3529 3481 3513 3482 3443 3443 3520 3489 3452 3489 3439 3440 3409 3447 3457 3441 3421 3494 3427 3510 3489 3507 3448 3452 3468 3505 3532 3391 3435 3415 3404

Tree=0
num_leaves=31
num_cat=0
split_feature=13 16 16 13 11 10 13 22 15 13 16 17 0 20 18 16 14 10 20 11 10 14 11 0 11 20 2 20 16 1
split_gain=246037 18762.5 18751 3406.9 2886.69 2280.45 2157.29 1352.19 1262.79 946.009 649.766 532.644 610.609 482.622 473.857 566.395 372.631 348.573 341.746 308.487 280.333 272.818 261.221 239.021 238.801 220.869 215.788 208.824 192.185 179.56
threshold=40.500000000000007 10953.500000000002 709.50000000000011 12.500000000000002 1857.5000000000002 7.5000000000000009 118.50000000000001 39.500000000000007 113.50000000000001 13.500000000000002 3961.5000000000005 122.50000000000001 1.5000000000000002 8.5000000000000018 17.500000000000004 4998.5000000000009 12.500000000000002 49.500000000000007 6.5000000000000009 6414.5000000000009 21.500000000000004 38.500000000000007 1075.5000000000002 8.5000000000000018 5940.5000000000009 14.500000000000002 1188.5000000000002 18.500000000000004 18437.500000000004 83.500000000000014
decision_type=8 10 10 10 10 10 8 10 10 10 10 10 10 10 10 10 10 10 8 10 10 10 10 10 10 8 10 8 10 10
left_child=1 5 6 8 7 10 29 -4 16 20 22 12 18 23 26 -16 -3 21 -8 -6 -7 28 -1 -9 -10 -14 -15 -13 -5 -2
right_child=2 3 4 17 19 9 11 13 24 -11 -12 27 25 14 15 -17 -18 -19 -20 -21 -22 -23 -24 -25 -26 -27 -28 -29 -30 -31
leaf_value=-0.57493925956294412 -0.59596288670946329 -0.46123038913716569 -0.68323521300506829 -0.48871034231375499 -0.58936006122795637 -0.48468637283231719 -0.69369333546074941 -0.64694701510115615 -0.41243599654531249 -0.52563060945710727 -0.52162375697011543 -0.68002499483651613 -0.71579173366238347 -0.66684170718202951 -0.63903544656837441 -0.603329854827937 -0.41589867162940419 -0.43645932806775878 -0.70803448726018392 -0.53936890984184982 -0.44260613458022402 -0.50830240355642731 -0.5457517847279526 -0.67439727501110558 -0.37404238864462824 -0.7366944013086123 -0.63914519723794927 -0.70405403990128523 -0.45260614224866996 -0.64377293553444948
leaf_weight=7257.7561068981886 1312.7870314568281 2245.6460331380367 8907.5031171441078 2436.2884909361601 4537.6523318141699 5025.4527843296528 19587.325263664126 10245.166388645768 1889.2373575866222 5739.4008736163378 5588.560399889946 9734.2988771796227 12489.229388326406 4180.3390657156706 9900.291242569685 8059.2233316153288 9419.0490715205669 2750.4075584113598 109549.7597617954 1695.6549805104733 2311.2288478016853 2139.3566438555717 5309.4942161142826 4594.6415362805128 11367.989405214787 8492.522203668952 8600.6207740455866 5754.7789129167795 3734.1497783660889 1955.9509104341269
leaf_count=32093 5805 9930 39388 10773 20065 22222 86613 45303 8354 25379 24712 43044 55226 18485 43778 35637 41650 12162 484417 7498 10220 9460 23478 20317 50268 37553 38031 25447 16512 8649
internal_value=-0.638623 -0.470351 -0.687884 -0.421127 -0.640225 -0.527061 -0.70502 -0.6476 -0.400628 -0.49522 -0.549993 -0.706608 -0.70843 -0.640636 -0.633487 -0.623013 -0.424626 -0.467317 -0.705859 -0.575761 -0.47143 -0.47753 -0.562608 -0.655446 -0.379514 -0.724252 -0.648204 -0.688953 -0.466861 -0.624572
internal_weight=296812 67214 229598 35982.1 60721.1 31231.9 168877 54487.8 24921.9 13076.1 18155.8 165608 150119 45580.3 30740.5 17959.5 11664.7 11060.2 129137 6233.31 7336.68 8309.79 12567.3 14839.8 13257.2 20981.8 12781 15489.1 6170.44 3268.74
internal_count=1312469 297213 1015256 159109 268502 138104 746754 240939 110202 57821 80283 732300 663809 201551 135931 79415 51580 48907 571030 27563 32442 36745 55571 65620 58622 92779 56516 68491 27285 14454
is_linear=0
shrinkage=1


Tree=1
num_leaves=31
num_cat=0
split_feature=13 16 16 13 11 11 12 20 16 13 13 13 0 20 16 18 4 0 14 16 16 19 2 10 20 14 15 11 15 10
split_gain=192779 14710.8 14227.2 2912.85 1739.48 1530.04 1451.33 1348.96 1009.87 670.511 532.036 484.894 418.595 475.199 386.559 662.246 325.568 297.41 269.051 266.027 258.522 250.732 247.917 213.707 204.674 200.947 173.543 165.104 161.348 159.18
threshold=47.500000000000007 545.50000000000011 9740.5000000000018 11.500000000000002 1857.5000000000002 2034.5000000000002 119.50000000000001 2.5000000000000004 26382.500000000004 12.500000000000002 17.500000000000004 24.500000000000004 4.5000000000000009 10.500000000000002 3185.5000000000005 22.500000000000004 1.0000000180025095e-35 13.500000000000002 11.500000000000002 18080.500000000004 1966.5000000000002 55.500000000000007 1188.5000000000002 34.500000000000007 15.500000000000002 12.500000000000002 9.5000000000000018 633.50000000000011 7.5000000000000009 22.500000000000004
decision_type=8 10 10 10 10 10 10 10 10 10 10 10 10 8 10 10 10 10 10 10 10 8 10 10 10 10 8 10 8 10
left_child=2 6 5 8 7 10 12 -3 18 25 20 19 13 26 17 22 -15 27 -4 -5 -1 -12 -16 -10 -17 -7 -2 -9 -14 -6
right_child=1 4 3 11 29 9 -8 14 23 -11 21 -13 28 16 15 24 -18 -19 -20 -21 -22 -23 -24 -25 -26 -27 -28 -29 -30 -31
leaf_value=0.071604667810357223 -0.036622449857379641 -0.04016965501423992 0.14480948323476256 0.13592653183350076 0.038549602284747381 0.11123348567097165 0.016957849681043489 -0.0095121303075051383 0.19757447760478553 0.095056640580877261 0.032788133813359939 0.11892890661587024 -0.065729724046374338 -0.062715565736822354 -0.028791554613941901 0.0065845816051693226 -0.078417155342701217 -0.036776736908006764 0.18470084029771427 0.17091978603672153 0.10447535403304463 0.067954198044186315 -4.4469061039263742e-05 0.22386488933570217 0.033535157673019754 0.15043221383818745 -0.054780057457069702 0.028334611373017071 -0.091734068746471775 0.076275614217456933
leaf_weight=4640.6889977902174 6619.0056445747614 11774.930757269263 2087.6301043331623 3485.2633401602507 3622.9737466573715 1799.6425486952066 2294.5187514871359 14485.174062848091 4249.543777808547 6866.893725708127 3330.5125865191221 4936.902713239193 3696.7257160395384 100826.96709743142 4327.5860423892736 4580.4381654560566 15195.672980353236 4087.1550320237875 8893.2016802728176 5767.6706700772047 4939.2420125305653 5182.329069674015 9779.0333651453257 11349.781253352761 7323.1242342442274 4785.0764721333981 25706.026465669274 1252.3072474002838 6729.4204923808575 1617.8613167107105
leaf_count=20057 29709 52660 8810 14788 15767 7668 10104 64374 17727 29464 14428 20949 16645 455976 19277 20267 68944 18166 37149 24253 21160 22370 43252 47043 32123 20263 115934 5552 30596 6994
internal_value=-0.00014984 -0.0459936 0.141804 0.180819 -0.00496147 0.0913773 -0.0620047 -0.00997919 0.200349 0.116919 0.0723873 0.144236 -0.0631458 -0.0617846 -0.00222328 0.00579425 -0.064772 -0.0127424 0.177117 0.157739 0.0885522 0.054196 -0.00886341 0.216703 0.0231647 0.139719 -0.051062 -0.00650048 -0.0825139 0.0501957
internal_weight=296233 223919 72314.4 40770 62850.6 31544.4 161068 57609.7 26580.2 13451.6 18092.8 14189.8 158774 148348 45834.8 26010.2 116023 19824.6 10980.8 9252.93 9579.93 8512.84 14106.6 15599.3 11903.6 6584.72 32325 15737.5 10426.1 5240.84
internal_count=1312469 1006340 306129 170719 278432 135410 727908 255671 110729 57395 78015 59990 717804 670563 203011 114919 524920 88092 45959 39041 41217 36798 62529 64770 52390 27931 145643 69926 47241 22761
is_linear=0
shrinkage=0.1


Tree=2
num_leaves=31
num_cat=0
split_feature=13 16 16 13 16 11 13 22 10 13 11 17 0 20 18 16 20 16 14 10 0 13 14 13 10 20 11 13 19 20
split_gain=153544 12760.2 10684.1 1797.45 1694.13 1481.35 1450.92 988.168 696.464 619.59 435.279 411.049 500.303 330.967 338.461 368.558 269.648 242.055 228.665 225.338 214.449 214.19 211.579 204.163 184.577 183.685 171.963 166.626 158.165 151.313
threshold=44.500000000000007 709.50000000000011 12241.500000000002 14.500000000000002 4201.5000000000009 1857.5000000000002 118.50000000000001 39.500000000000007 28.500000000000004 12.500000000000002 1502.5000000000002 122.50000000000001 1.5000000000000002 10.500000000000002 11.500000000000002 4284.5000000000009 6.5000000000000009 39539.000000000007 40.500000000000007 14.500000000000002 9.5000000000000018 30.500000000000004 15.500000000000002 9.5000000000000018 2.5000000000000004 14.500000000000002 3777.5000000000005 7.5000000000000009 73.500000000000014 18.500000000000004
decision_type=8 10 10 10 10 10 8 10 10 10 10 10 10 10 10 10 8 10 10 10 10 10 10 10 10 8 10 10 10 8
left_child=2 6 4 8 10 7 -2 -3 18 19 23 12 16 20 -15 -16 -8 -10 22 -6 -9 -5 -4 -1 -12 -14 -7 -26 -11 -13
right_child=1 5 3 21 9 26 11 13 17 28 24 29 25 14 15 -17 -18 -19 -20 -21 -22 -23 -24 -25 27 -27 -28 -29 -30 -31
leaf_value=0.072621919880668989 0.011458176325520868 -0.038372539666045785 0.13940554950401571 0.13292882898677782 0.11204086999046137 0.028207651216325041 -0.046006311848992613 -0.0051000770310721194 0.17471080567042474 0.065867793928294699 0.052453515348447326 -0.034307010406213805 -0.06622444135582263 -0.01008277892484437 -0.0034637864358628388 0.025313062165474871 -0.058987212020216243 0.1979183343521862 0.10462991794884575 0.14386965658133496 -0.029386454230385772 0.095944699801551625 0.17119691741305773 0.043315076924794797 0.11710930138939511 -0.085841388499093008 0.06287265946217202 0.080532312513547075 0.097106799858775336 -0.055146564786429902
leaf_weight=3461.9960153847933 3090.550213649869 8649.4175605773926 3445.5768402218819 7542.9054235816002 4762.4959993362427 2775.9069132059813 18888.846507996321 12372.290588602424 8357.7216752022505 2129.1635934859514 1467.6467516422272 9479.1730648726225 11886.321987941861 9412.4664613455534 7659.8840768486261 10622.689454570413 104722.13461090624 9722.238360658288 857.90391175448895 4173.5284047275782 5148.8737525939941 1976.1717260330915 5334.4019269049168 7585.0702617764473 1828.6047756671906 7976.2470046132803 2953.7860164195299 3905.4030765593052 6787.4311968833208 5509.0759419649839
leaf_count=14656 13581 39205 14054 30937 19715 11951 86613 55085 33806 8925 6184 43044 55226 41859 33967 46391 484417 39141 3484 17068 23086 8175 21625 32340 7586 37553 12572 16389 28387 25447
internal_value=-0.000229468 -0.0418117 0.12516 0.162742 0.0863955 -0.00226253 -0.0564011 -0.00740454 0.175617 0.108297 0.0649692 -0.0577246 -0.0593707 -0.00148066 0.0053243 0.0132564 -0.0570036 0.18719 0.153906 0.126906 -0.012237 0.125251 0.158721 0.0524994 0.0840975 -0.0741021 0.0460782 0.0921969 0.0896473 -0.0419668
internal_weight=294486 221148 73338.3 37236.9 36101.3 59595.3 161552 53865.6 27717.8 17852.6 18248.7 158462 143474 45216.2 27695 18282.6 123611 18080 9637.88 8936.02 17521.2 9519.08 8779.98 11047.1 7201.65 19862.6 5729.69 5734.01 8916.59 14988.2
internal_count=1312469 1009997 302472 151222 151250 264116 745881 239593 112110 74095 77155 732300 663809 200388 122217 80358 571030 72947 39163 36783 78171 39112 35679 46996 30159 92779 24523 23975 37312 68491
is_linear=0
shrinkage=0.1


Tree=3
num_leaves=31
num_cat=0
split_feature=13 16 16 13 22 13 16 11 14 0 11 20 19 13 4 20 16 18 10 10 10 16 19 0 11 13 2 13 3 13
split_gain=123664 9591.35 9563.73 2370.9 1127.23 1065.63 964.677 830.565 735.339 371.089 368.953 362.6 341.377 316.222 300.055 291.048 276.569 366.089 263.966 241.654 222.164 187.539 167.076 155.737 151.24 160.862 142.904 142.668 139.648 133.697
threshold=57.500000000000007 545.50000000000011 9038.5000000000018 16.500000000000004 83.500000000000014 17.500000000000004 24039.500000000004 246.50000000000003 17.500000000000004 5.5000000000000009 2359.5000000000005 10.500000000000002 68.500000000000014 33.500000000000007 1.0000000180025095e-35 1.0000000180025095e-35 1878.5000000000002 11.500000000000002 19.500000000000004 6.5000000000000009 14.500000000000002 8389.5000000000018 89.500000000000014 10.500000000000002 3387.5000000000005 37.500000000000007 1149.5000000000002 5.5000000000000009 32.500000000000007 36.500000000000007
decision_type=8 10 10 10 10 10 10 10 10 10 10 8 10 10 10 10 10 8 10 10 10 10 10 10 10 10 10 10 8 10
left_child=2 7 5 6 15 8 20 9 19 11 16 -2 29 22 -13 -3 23 26 -8 -1 -4 -19 -5 -6 25 -14 -18 -20 -17 -7
right_child=1 4 3 13 10 12 18 -9 -10 -11 -12 14 24 -15 -16 28 17 21 27 -21 -22 -23 -24 -25 -26 -27 -28 -29 -30 -31
leaf_value=0.057307172203358028 -0.043161100219418734 -0.044037628545777169 0.11353139502892638 0.073089591644242446 -0.0065148421162457689 0.041553217029975609 0.13904197132301918 0.015931674080701935 0.10857009289611229 -0.074879621656905329 0.040731140930591214 -0.053099496514361626 0.063778481476759061 0.069258733067864883 -0.068196555804716133 -0.026347315632659907 -0.029878601621305702 0.0076565282445498969 0.17718743275070614 0.090701179315500494 0.14023521145634207 0.029013665397062106 0.11344944893950651 -0.038427446737792796 0.086765219111195779 0.024587462177520916 -0.001893749138941104 0.15752615079511101 -0.007436419452548514 0.012849160528739642
leaf_weight=7490.3262247741222 32519.457361966372 5517.6783857345581 4825.009837821126 1188.0511250346899 6918.5436950623989 5517.887136772275 3181.3988090008497 1737.4939855486155 7118.3877701461315 7777.0094934552908 2604.9861333072186 96500.223566710949 4488.792853474617 2793.5023981928825 15244.551523506641 8187.105450630188 2556.0655657351017 12397.009063780308 10864.502992525697 3049.1060838103294 8793.3340566307306 6151.8560706675053 7505.094762891531 1963.1150449961424 1953.826473325491 1366.0511747151613 6377.5207762122154 5589.3307086229324 7465.7100293338299 2298.6837017387152
leaf_count=31144 151960 25416 19462 4831 30937 23157 12755 7596 29027 37217 11022 456262 18660 11546 73089 36927 11534 54700 43479 12461 35289 26733 30376 8859 8088 5891 28322 22384 33419 9926
internal_value=-0.000267902 -0.0395741 0.107499 0.137696 -0.0057144 0.0669071 0.151226 -0.052816 0.0837392 -0.0536016 0.00437655 -0.0524545 0.0478855 0.0985281 -0.0551591 -0.0242891 0.00177225 0.00673 0.16541 0.0669682 0.130774 0.0147398 0.107934 -0.0135685 0.062674 0.0546344 -0.00990074 0.170509 -0.0173276 0.033112
internal_weight=291942 213918 78023.3 44740.2 60139.6 33283.1 33253.6 153779 17657.8 152041 38969.1 144264 15625.2 11486.6 111745 21170.5 36364.1 27482.5 19635.2 10539.4 13618.3 18548.9 8693.15 8881.66 7808.67 5854.84 8933.59 16453.8 15652.8 7816.57
internal_count=1312469 993993 318476 180122 267869 138354 133369 726124 72632 718528 172107 681311 65722 46753 529351 95762 161085 121289 78618 43605 54751 81433 35207 39796 32639 24551 39856 65863 70346 33083
is_linear=0
shrinkage=0.1


Tree=4
num_leaves=31
num_cat=0
split_feature=13 16 16 16 12 14 13 20 17 0 13 11 13 3 15 20 16 13 20 20 20 0 20 14 13 14 2 14 0 10
split_gain=100322 9434.74 7088.07 1343.78 1221.97 1153.34 1112.31 734.429 399.418 435.015 391.361 387.845 379.104 315.693 295.882 262.133 256.274 222.321 203.589 152.231 146.965 147.774 145.888 144.091 138.784 133.79 130.059 126.725 123.357 119.474
threshold=40.500000000000007 799.50000000000011 14246.500000000002 5691.5000000000009 107.50000000000001 66.500000000000014 7.5000000000000009 3.5000000000000004 109.50000000000001 1.5000000000000002 66.500000000000014 1095.5000000000002 10.500000000000002 29.500000000000004 132.50000000000003 102.50000000000001 4368.5000000000009 11.500000000000002 5.5000000000000009 15.500000000000002 1.5000000000000002 10.500000000000002 14.500000000000002 10.500000000000002 20.500000000000004 7.5000000000000009 100.50000000000001 20.500000000000004 7.5000000000000009 1.5000000000000002
decision_type=8 10 10 10 10 10 10 10 10 10 10 10 10 8 10 10 8 10 8 10 10 10 8 10 10 10 10 10 10 10
left_child=2 4 3 11 8 7 14 28 9 18 -7 29 23 19 25 24 -15 -13 -2 -9 -10 -22 -11 -5 27 -4 -6 -8 -3 -1
right_child=1 5 6 12 26 10 15 13 20 22 -12 17 -14 16 -16 -17 -18 -19 -20 -21 21 -23 -24 -25 -26 -27 -28 -29 -30 -31
leaf_value=0.020762101193387918 -0.038347168339814268 -0.023272464852548073 0.1030339099658461 0.087229847803417027 0.036808231780979528 0.062131660796111293 0.08861848026507281 -0.020014444093727407 -0.044190508508517974 -0.057577856519257523 0.017764083903073515 0.081301312859724861 0.078945787904290077 -0.00028645109037347174 0.16125715572979518 0.1309449237201023 0.024100910774461946 0.055126151349433231 -0.050046561960810379 -0.0022122301840150137 -0.020695588512876586 -0.058683546420828847 -0.075728648848610858 0.117462093543025 0.087189353524308386 0.14092681569205676 -0.0035989776136268782 0.12103752210164929 -0.047709535253148604 0.046640544320842726
leaf_weight=2427.3319083601236 17454.989964440465 7646.1604283601046 1062.2568917274475 2183.6157228499651 1330.6447924822569 3003.9190107733011 1639.173729121685 7259.9792036116123 8035.3462966382504 11094.001921698451 5879.4137641042471 5765.4263566434383 8941.8149833828211 10434.0697889328 10488.618229955435 5546.8895548135042 7340.3319243341684 7422.3655964881182 100590.99563020468 14196.288643762469 7898.5341035425663 1176.5458806753159 7369.9215339422226 5670.2883139401674 3343.9515523761511 7585.3692622333765 1984.6360022574663 4560.2840698063374 2830.3252331316471 6731.3213408142328
leaf_count=10109 82768 35005 4252 8799 5761 12560 6564 32666 38404 54059 25576 23345 36209 46486 42402 22263 31844 30471 486292 62782 36728 5557 37025 22720 13430 30440 8731 18282 13012 27927
internal_value=-0.000281436 -0.0346636 0.100719 0.071654 -0.0474476 -0.00042136 0.133958 -0.00635258 -0.0487439 -0.0505492 0.0327671 0.0555906 0.093026 -7.11197e-05 0.149966 0.113657 0.00978485 0.0665694 -0.0483166 -0.00823582 -0.0343413 -0.0256206 -0.0648228 0.109057 0.103609 0.136272 0.0126191 0.112466 -0.0298744 0.0397819
internal_weight=288895 215526 73368.7 39142.2 156936 58590.5 34226.5 49707.2 153620 136510 8883.33 22346.4 16795.7 39230.7 19136.2 15090.3 17774.4 13187.8 118046 21456.3 17110.4 9075.08 18463.9 7853.9 9543.41 8647.63 3315.28 6199.46 10476.5 9158.65
internal_count=1312469 1015256 297213 159580 755325 259931 137633 221795 740833 660144 38136 91852 67728 173778 77094 60539 78330 53816 569060 95448 80689 42285 91084 31519 38276 34692 14492 24846 48017 38036
is_linear=0
shrinkage=0.1


Tree=5
num_leaves=31
num_cat=0
split_feature=13 16 16 13 10 22 11 13 13 20 19 0 16 18 21 3 13 14 2 10 16 0 0 14 20 16 0 11 13 22
split_gain=81873.1 6938.71 6788.21 1312.54 1258.56 809.744 567.473 529.43 463.819 417.253 366.293 323.06 285.733 312.55 274.314 292.637 246.432 170.048 165.91 160.33 158.153 179.15 157.471 157.113 155.155 149.429 165.362 145.881 144.786 142.614
threshold=58.500000000000007 14246.500000000002 545.50000000000011 12.500000000000002 11.500000000000002 67.500000000000014 372.50000000000006 32.500000000000007 18.500000000000004 110.50000000000001 35.500000000000007 9.5000000000000018 1878.5000000000002 22.500000000000004 63.500000000000007 70.500000000000014 30.500000000000004 82.500000000000014 1188.5000000000002 1.5000000000000002 8389.5000000000018 23.500000000000004 11.500000000000002 11.500000000000002 1.0000000180025095e-35 5691.5000000000009 9.5000000000000018 5190.5000000000009 4.5000000000000009 69.500000000000014
decision_type=8 10 10 10 10 10 10 10 10 10 10 10 10 10 8 8 10 10 10 10 10 10 10 10 10 10 10 10 10 10
left_child=1 4 6 9 7 24 11 10 28 23 19 14 22 17 29 -16 -5 18 -14 -1 21 -15 -7 -3 -4 26 -12 -10 -6 -2
right_child=2 3 5 16 8 12 -8 -9 27 -11 25 -13 13 20 15 -17 -18 -19 -20 -21 -22 -23 -24 -25 -26 -27 -28 -29 -30 -31
leaf_value=0.013964681888800271 -0.039520933315773145 0.092245355383152386 -0.03804942511285208 0.0991966021297436 0.11260047573697476 -0.0060626291226909398 0.018323864262086886 0.020321090880670981 0.046342333293291738 0.14654889734310739 0.067546573082197026 -0.07554736149903063 -0.023441865468381947 0.015554587866524101 -0.061643534366614489 -0.044923284362640238 0.063093676150697942 0.029579847721976051 0.00030376809145776047 0.045884995428522847 0.030851267722355902 -0.014829910678932702 -0.036911771134567201 0.1247380910492336 -0.017104843572014718 0.075377003722967573 0.039947873206474117 0.081225135043481889 0.087279955183300395 -0.021833124413629789
leaf_weight=2104.5814734399319 15950.749079704285 1730.8368705362082 5346.6357621401548 8347.3697071969509 3744.2634465396404 8871.6546944826841 1411.9951762109995 5529.4967867434025 3107.4076831191778 11681.853376060724 4928.6770539134741 3464.9239427447319 4285.9218064546585 10467.308154076338 11583.895228236914 108613.50236608088 2444.2708741128445 1389.3290038555861 9386.6749292761087 6236.2444931417704 5021.3241246789694 2382.1033639758825 2034.0684024840593 10612.116443619132 10449.320981010795 6501.108481541276 3880.1164145171642 1951.9926052093506 5690.3462562114 6382.3507371842861
leaf_count=8687 77343 6950 25315 33465 15024 39921 6118 23342 12680 48088 20113 17563 19382 45958 58403 535396 9880 5930 41556 25495 21411 10377 9349 43223 47746 26125 15779 7883 22844 31123
internal_value=-0.000279662 0.086689 -0.03325 0.11999 0.0601424 -0.00478176 -0.0447669 0.0481784 0.0842289 0.133003 0.0546914 -0.0453771 0.00221298 0.00685884 -0.0446437 -0.0465347 0.0910194 -0.00375267 -0.00713973 0.0378308 0.0158025 0.00992172 -0.0118164 0.120182 -0.0241942 0.0638771 0.0553898 0.0598006 0.0973288 -0.0344661
internal_weight=285532 78490.7 207042 34816.4 43674.2 59634.3 147407 29180.2 14494 24024.8 23650.7 145995 43838.4 32932.7 142530 120197 10791.6 15061.9 13672.6 8340.83 17870.7 12849.4 10905.7 12343 15796 15309.9 8808.79 5059.4 9434.61 22333.1
internal_count=1312469 319578 992891 141606 177972 266945 725946 119541 58431 98261 96199 719828 193884 144614 702265 593799 43345 66868 60938 34182 77746 56335 49270 50173 73061 62017 35892 20563 37868 108466
is_linear=0
shrinkage=0.1


Tree=6
num_leaves=31
num_cat=0
split_feature=13 16 15 11 13 16 11 20 0 10 11 11 13 14 3 16 13 20 2 14 0 20 13 14 14 0 11 14 11 20
split_gain=67084.1 6735.06 5333.36 1011.03 1000.4 949.697 720.453 683.42 359.883 284.468 277.128 272.979 262.77 244.859 236.511 238.465 227.705 214.823 193.213 169.644 168.412 167.391 157.867 151.381 139.444 135.617 113.452 113.222 111.151 109.925
threshold=39.500000000000007 372.50000000000006 50.500000000000007 1437.5000000000002 7.5000000000000009 5691.5000000000009 246.50000000000003 2.5000000000000004 3.5000000000000004 3.5000000000000004 6510.5000000000009 12532.500000000002 13.500000000000002 38.500000000000007 29.500000000000004 3185.5000000000005 9.5000000000000018 10.500000000000002 24277.000000000004 66.500000000000014 4.5000000000000009 12.500000000000002 73.500000000000014 13.500000000000002 40.500000000000007 6.5000000000000009 3521.5000000000005 7.5000000000000009 3244.5000000000005 22.500000000000004
decision_type=8 10 10 10 10 10 10 10 10 10 10 10 10 10 8 10 10 8 8 10 10 10 10 10 10 10 10 10 10 10
left_child=2 6 5 7 11 9 8 20 17 25 13 24 23 26 21 -16 -11 -2 -19 -5 -3 -9 -21 -7 27 -1 -6 -4 -18 -17
right_child=1 3 4 19 10 12 -8 14 -10 16 -12 -13 -14 -15 15 29 28 18 -20 22 -22 -23 -24 -25 -26 -27 -28 -29 -30 -31
leaf_value=0.039210346235789603 -0.03280060196889012 -0.019709448171589733 0.095025026136183743 -0.00025043358139758176 0.07575642672326921 0.068717079471135492 0.018882548679552257 -0.020796530952723019 -0.059987992827290997 0.070758631279112832 0.10629527688245988 0.14075136150295847 0.0618590284447528 0.03366084613322301 -0.0035995963938883833 0.0078622511691697466 0.037687903713766985 -0.055019890862560233 -0.041350662634894869 0.050316361218185869 -0.043449394432025348 -0.0030883898114654573 0.019216001300041467 0.095387537034782491 0.08910088709522529 0.013096400231531325 0.10445365186290767 0.12734682061072208 0.067341128970424408 0.029222913705966705
leaf_weight=6613.9042579233646 26433.168579727411 9076.6066979169846 1307.8520430773497 1529.1117785871029 3684.804643586278 3161.3452296108007 1951.8219060450792 7963.7763431221247 10620.851675733924 5049.6702355891466 7574.9597401916981 8949.1264805495739 7638.3257368952036 1031.2643195986748 13058.850355088711 5621.7773966640234 6350.5588436424732 11679.675538226962 90199.212211847305 3727.6247099041939 4454.8664608895779 16190.536837115884 2903.4289996623993 6512.0775201171637 1571.8016452491283 2843.7940387874842 2200.2066733241081 6325.7358536273241 1578.1973356753588 4215.8189096450806
leaf_count=27065 129886 43076 5317 6482 14849 12682 8406 36551 55065 20294 30968 38046 30654 4148 59047 24574 25788 60568 454003 15348 21140 72006 12315 26382 6484 11598 8933 26385 6351 18058
internal_value=-0.00026826 -0.0289296 0.082725 -0.00326896 0.112675 0.0581266 -0.0414502 -0.00771985 -0.0422978 0.0445488 0.0930813 0.128315 0.0757237 0.0786089 -0.00202398 0.0052581 0.054161 -0.0408335 -0.0429177 0.0297751 -0.0275252 -0.00892684 0.036699 0.0866714 0.116224 0.0313583 0.0864853 0.121809 0.0435903 0.0170162
internal_weight=282021 209627 72393.6 68742.4 32645.8 39747.9 140885 60582.2 138933 22436.1 14491.2 18154.5 17311.7 6916.28 47050.8 22896.4 12978.4 128312 101879 8160.17 13531.5 24154.3 6631.05 9673.42 9205.39 9457.7 5885.01 7633.59 7928.76 9837.6
internal_count=1312469 1016525 295944 308597 135130 160814 707928 274452 699522 91096 58898 76232 69718 27930 210236 101679 52433 644457 514571 34145 64216 108557 27663 39064 38186 38663 23782 31702 32139 42632
is_linear=0
shrinkage=0.1


Tree=7
num_leaves=31
num_cat=0
split_feature=13 17 16 10 13 14 13 20 19 10 8 13 13 0 3 20 3 22 16 10 14 13 13 17 22 14 15 11 16 4
split_gain=55063.3 5725.61 4701.6 870.828 836.607 821.026 730.094 577.184 348.003 321.163 275.395 256.655 247.203 191.796 184.712 168.981 260.186 167.483 165.846 152.262 151.367 149.818 127.003 124.155 120.922 120.284 110.747 110.568 106.464 101.943
threshold=38.500000000000007 259.50000000000006 15088.500000000002 12.500000000000002 9.5000000000000018 66.500000000000014 119.50000000000001 4.5000000000000009 72.500000000000014 34.500000000000007 1.5000000000000002 66.500000000000014 5.5000000000000009 4.5000000000000009 29.500000000000004 15.500000000000002 113.50000000000001 93.500000000000014 4047.5000000000005 1.5000000000000002 39.500000000000007 10.500000000000002 24.500000000000004 1251.5000000000002 32.500000000000007 9.5000000000000018 180.50000000000003 6414.5000000000009 7810.5000000000009 5.5000000000000009
decision_type=8 10 10 10 10 10 8 10 10 10 10 10 10 10 8 8 8 10 10 10 10 10 10 10 10 10 10 10 10 10
left_child=2 6 3 8 9 7 -2 13 19 20 15 -7 -5 24 23 29 -17 -6 -16 -1 25 -21 -19 -9 -3 -4 -11 -14 -10 -8
right_child=1 5 4 12 17 11 10 14 28 26 -12 -13 27 -15 18 16 -18 22 -20 21 -22 -23 -24 -25 -26 -27 -28 -29 -30 -31
leaf_value=0.011161292766874598 0.010067776036584451 -0.024115431539878485 0.081829193756781493 0.094377094376648873 0.047532318099540144 0.047084847844686112 -0.025179253017597797 -0.012626478292247147 0.047809360309062347 0.11668883547879386 -0.0584668298104025 0.012872450936850067 0.057036155871813959 -0.036039784039636508 -0.00094575899727728061 -0.053564092086733954 -0.037946438538116162 0.093740828075576627 0.018557774578729994 0.051479375584590731 0.053361211535468217 0.027490419262895544 0.068262343347967103 0.0028746172458181014 -0.0037885157400845853 0.11296623724424122 0.13559020459055843 0.081850990812420074 0.066378985507236518 -0.036692716243522994
leaf_weight=2874.0164155513048 3118.0237672328949 5984.9910698235035 1681.5725838392973 4215.586449816823 1167.226044639945 3362.5078721791506 14254.430486738682 12492.224592447281 9063.6751926839352 5725.4550391882658 6813.7335273623466 6302.8878814131021 5809.6919689774513 6102.8343840539455 9943.6399872303009 12146.61517599225 87583.964997783303 7932.0831498503685 7764.2712776809931 4326.5839444249868 628.03892081975937 6536.6870529651642 2596.9939591884613 8811.6544055044651 5727.0498508363962 4731.7528471797705 6759.7852413803339 2598.8058885186911 4682.4550026506186 16699.9888651371
leaf_count=11760 13642 29253 6918 17248 4759 13720 70805 56571 36513 24771 35429 27242 23388 28943 44707 64924 449517 32728 33229 17411 2621 26535 10457 39001 26422 20108 30059 10521 18832 84435
internal_value=-0.000250782 -0.0263486 0.0755246 0.0528724 0.104622 -0.00216921 -0.0377821 -0.00675197 0.0428858 0.117291 -0.0388671 0.0247746 0.0746139 -0.0216657 5.84603e-05 -0.0378452 -0.0398486 0.0834723 0.00760583 0.0316295 0.100214 0.0370447 0.0874566 -0.00621496 -0.0141758 0.104802 0.126922 0.0647057 0.0541349 -0.0313908
internal_weight=278439 207109 71330.4 40107.5 31222.9 66492.1 140617 56826.7 27483.4 19526.6 137499 9665.4 12624.1 17814.9 39011.8 130685 99730.6 11696.3 17707.9 13737.3 7041.36 10863.3 10529.1 21303.9 11712 6413.33 12485.2 8408.5 13746.1 30954.4
internal_count=1312469 1017840 294629 162208 132421 299088 718752 258126 111051 84477 705110 40962 51157 84618 173508 669681 514441 47944 77936 55706 29647 43946 43185 95572 55675 27026 54830 33909 55345 155240
is_linear=0
shrinkage=0.1


Tree=8
num_leaves=31
num_cat=0
split_feature=13 16 10 16 11 13 13 22 0 16 14 20 11 11 21 5 3 17 19 5 20 13 10 14 22 11 19 14 18 15
split_gain=45273.3 4860.7 4223.27 930.012 732.477 724.685 542.017 488.249 304.516 281.427 273.675 224.6 217.669 194.445 173.075 168.653 164.255 158.647 157.189 147.455 144.309 126.985 121.345 103.636 99.391 96.5341 93.7769 92.311 92.1643 129.519
threshold=37.500000000000007 372.50000000000006 21.500000000000004 7810.5000000000009 1781.5000000000002 6.5000000000000009 118.50000000000001 83.500000000000014 4.5000000000000009 27032.500000000004 39.500000000000007 111.50000000000001 1095.5000000000002 2359.5000000000005 63.500000000000007 1.5000000000000002 102.50000000000001 1112.5000000000002 87.500000000000014 3.5000000000000004 56.500000000000007 17.500000000000004 42.500000000000007 17.500000000000004 71.500000000000014 12809.500000000002 37.500000000000007 38.500000000000007 7.5000000000000009 4.5000000000000009
decision_type=8 10 10 10 10 10 8 10 10 10 10 10 10 10 8 10 8 10 10 10 8 10 10 10 10 10 8 10 10 10
left_child=2 6 3 12 7 11 -2 15 14 25 13 -4 26 -5 24 20 -16 19 -15 -9 -3 23 -6 -14 -8 -7 -1 -25 -19 -30
right_child=1 4 5 10 22 9 8 17 -10 -11 -12 -13 21 18 16 -17 -18 28 -20 -21 -22 -23 -24 27 -26 -27 -28 -29 29 -31
leaf_value=0.012678017086877193 0.010974872759892694 -0.009152421811179012 0.10258370755983313 0.058957416884787374 0.022014487214689543 0.063242102550397528 -0.029661374472952695 -0.0018255379046237209 -0.055314946455007841 0.099086818657736594 0.031736640696560556 0.12716644584623257 0.042097974875523012 0.051354248087710157 -0.046485878134146272 -0.042631876458898377 -0.03466385768520143 -0.0036268163832709321 0.08771686905919529 -0.032950869220411565 -0.027273718136124749 0.03315925830533966 0.059090990501608598 0.076951917083142654 -0.011993066041767857 0.092062246683176488 0.032932623013023486 0.047826913371229712 -0.0064424877282247151 0.020256609082786585
leaf_weight=3588.6753347963095 2522.1276241093874 15089.910959392786 7608.0443565994501 6671.3444222062826 6538.2953651100397 5748.3658598661423 12977.48106405139 21727.936027064919 7557.7396835833788 5513.0421458929777 1922.1743293106556 7266.3533108830452 5082.4401451349258 1424.4607449471951 13409.303961008787 2355.0249571204185 95128.326648250222 3974.0024612247944 7186.0968694090843 1636.712779507041 6200.2011089324951 5956.8805382698774 1020.4938888549805 2289.4112221747637 4218.9578985571861 1456.7508284896612 6296.4787761867046 2074.1349967867136 2342.4433119297028 8099.0127948671579
leaf_count=14614 10922 69797 33258 27211 27011 23571 65766 97787 41595 23760 7829 33592 20408 5832 72455 11087 496173 17722 30059 7372 30628 23984 4110 9212 21373 6104 25467 8349 10452 34969
internal_value=-0.000229982 -0.0239708 0.0691443 0.0493631 -0.00235436 0.0996072 -0.0349505 -0.00596909 -0.0358195 0.0820811 0.0672993 0.114593 0.0371606 0.0717724 -0.0346476 -0.0172387 -0.0361244 0.00108412 0.0817013 -0.00400589 -0.0144298 0.044593 0.0270201 0.0518034 -0.0253266 0.069069 0.0255795 0.0631079 0.00933404 0.0142669
internal_weight=274883 204798 70084.7 42492.1 68984 27592.6 135814 61425.2 133292 12718.2 17204.1 14874.4 25288 15281.9 125734 23645.1 108538 37780.1 8610.56 23364.6 21290.1 15402.9 7558.79 9445.99 17196.4 7205.12 9885.15 4363.55 14415.5 10441.5
internal_count=1312469 1019219 293250 172965 310935 120285 708284 279814 697362 53435 70931 66850 102034 63102 655767 111512 568628 168302 35891 105159 100425 61953 31121 37969 87139 29675 40081 17561 63143 45421
is_linear=0
shrinkage=0.1


Tree=9
num_leaves=31
num_cat=0
split_feature=13 17 16 11 13 14 12 20 13 15 19 9 13 0 18 15 10 20 3 18 0 16 14 10 22 2 18 4 7 15
split_gain=37265.1 4041.79 3822.42 780.467 669.519 556.647 552.746 399.976 257.609 246.437 239.206 238.474 180.954 174.355 159.696 231.295 157.963 148.611 198.364 124.587 122.199 120.441 118.715 108.654 107.983 104.328 102.388 107.809 96.4689 95.7016
threshold=38.500000000000007 270.50000000000006 18437.500000000004 2787.5000000000005 11.500000000000002 66.500000000000014 130.50000000000003 5.5000000000000009 17.500000000000004 186.50000000000003 79.500000000000014 2.5000000000000004 67.500000000000014 4.5000000000000009 17.500000000000004 4.5000000000000009 36.500000000000007 13.500000000000002 113.50000000000001 6.5000000000000009 16.500000000000004 7374.5000000000009 11.500000000000002 2.5000000000000004 93.500000000000014 1188.5000000000002 24.500000000000004 3.5000000000000004 1190.5000000000002 42.500000000000007
decision_type=8 10 10 10 10 10 10 10 10 10 10 10 10 10 10 10 10 8 8 10 10 10 10 10 10 10 10 10 8 10
left_child=2 6 3 10 9 7 11 13 16 22 19 17 -7 28 25 20 23 26 -19 -1 -16 -17 -4 -5 -6 29 27 -2 -3 -9
right_child=1 5 4 8 24 12 -8 14 -10 -11 -12 -13 -14 -15 15 21 -18 18 -20 -21 -22 -23 -24 -25 -26 -27 -28 -29 -30 -31
leaf_value=0.036119833402592803 -0.021511343750461164 -0.041281855713269214 0.06750306948665151 0.013768572819994336 0.031669137778657791 0.038922389908078364 0.011875206455990103 -0.010174060510002435 0.042889615854499463 0.11888889003901633 0.043905830045636057 -0.051022629023618808 0.010395775381861714 -0.029546240854369816 -0.0071197449732595666 0.0055939217180272947 0.089499037071510482 -0.045559941589227416 -0.031868226795117603 0.016550082034064308 -0.056310036520779205 0.023206639776451338 0.098923689480117871 0.065148523947405695 0.073061267659821391 -0.0010868337969267951 -0.01211064064188413 -0.034509152834287064 -0.0072941639446261952 -0.040690871393015422
leaf_weight=5568.0989942103624 12652.713518068194 900.88117767870426 1382.5802889168262 430.91227896511555 690.95797203481197 3492.7226781100035 2849.5271596461535 3548.4297519773245 5408.3730180412531 7110.0174340605736 12538.148452982306 6699.5640949904919 6119.9443367272615 6985.7541008591652 4407.0554206371307 11129.056483432651 2892.7240345776081 12090.740978077054 84770.800104632974 7824.65649497509 570.38288360834122 5962.8718345910311 9230.5746733993292 9176.2853447496891 7174.3733493536711 9278.474209561944 4773.5506990551949 12874.853356793523 11438.783221289515 1446.5724491924047
leaf_count=22493 64533 4339 5879 1735 2860 14186 12316 16397 21790 34413 50676 36465 26330 33533 20110 49037 12476 67701 450542 31648 2652 25243 42350 38098 30211 41389 23786 67877 54764 6640
internal_value=-0.000208044 -0.0219315 0.0629941 0.0450676 0.0937063 -0.00146096 -0.0317063 -0.00529817 0.0611233 0.104482 0.0339794 -0.032634 0.0207608 -0.0169222 0.000882966 0.00621395 0.0690125 -0.0316652 -0.0335773 0.0246863 -0.0127566 0.0117385 0.0948305 0.062844 0.069425 -0.00735969 -0.0255531 -0.0280668 -0.0097755 -0.0190118
internal_weight=271420 201993 69427.7 43839.2 25588.5 65280.9 136712 55668.3 17908.3 17723.2 25930.9 133862 9612.67 19325.4 36342.8 22069.4 12499.9 127163 96861.5 13392.8 4977.44 17091.9 10613.2 9607.2 7865.33 14273.5 30301.1 25527.6 12339.7 4995
internal_count=1312469 1017840 294629 178916 115713 294620 723220 254104 74099 82642 104817 710904 40516 92636 161468 97042 52309 674439 518243 54141 22762 74280 48229 39833 33071 64426 156196 132410 59103 23037
is_linear=0
shrinkage=0.1


Tree=10
num_leaves=31
num_cat=0
split_feature=10 11 17 13 13 16 20 22 11 14 9 17 0 4 14 0 14 16 0 10 20 18 16 0 21 13 10 14 16 20
split_gain=30799.3 3964.06 2514.33 1113.58 1065.24 440.342 419.784 363.468 353.752 244.574 208.028 210.463 199.321 168.807 138.828 137.211 175.556 163.289 131.884 123.13 114.853 109.037 170.173 118.718 108.035 100.613 100.32 100.114 97.7728 95.4823
threshold=1.5000000000000002 5491.0000000000009 339.50000000000006 24.500000000000004 16.500000000000004 32093.500000000004 29.500000000000004 95.500000000000014 277.50000000000006 39.500000000000007 2.5000000000000004 99.500000000000014 1.5000000000000002 95.500000000000014 24.500000000000004 7.5000000000000009 37.500000000000007 4201.5000000000009 11.500000000000002 4.5000000000000009 4.5000000000000009 11.500000000000002 4460.5000000000009 15.500000000000002 87.500000000000014 8.5000000000000018 82.500000000000014 38.500000000000007 2818.5000000000005 12.500000000000002
decision_type=10 10 10 10 10 10 10 10 10 10 10 10 10 10 10 10 10 8 10 10 8 10 10 10 8 10 10 10 8 8
left_child=2 3 8 6 5 26 18 13 10 14 11 12 20 24 25 -5 17 -17 28 -6 -1 -9 23 -23 -4 -8 27 -3 -2 -14
right_child=1 4 7 15 19 -7 9 21 -10 -11 -12 -13 29 -15 -16 16 -18 -19 -20 -21 -22 22 -24 -25 -26 -27 -28 -29 -30 -31
leaf_value=-0.020130028199781689 0.035801063312087156 0.086670845637745936 -0.004719846535499778 0.027835213957780103 -0.0047836691482005811 0.10845323601719255 0.070322843849072961 -0.0048951275691382773 0.0098661444824951986 0.024350497716490539 -0.045850457413198112 -0.016386970547632527 -0.034549198293203423 -0.032739627728481317 0.082218207626083242 -0.0087220323510430655 0.0015007661483814145 0.038092723763753278 0.027115137031288435 0.053515568671305636 -0.029749903572963782 0.0046580801251078765 0.017997670803557717 -0.023409976186604127 -0.022516908909777741 0.046779735521331287 0.10363944452827081 0.06526581765320999 0.055433722996254819 -0.052155285578143917
leaf_weight=14414.324768975377 5486.2149281650782 4141.3433809131384 15309.487436920404 7076.2134386599064 381.32939864695072 10680.922118470073 3667.1465813964605 8437.7264095395803 2326.9583706259727 1547.7141719013453 7323.7554025650024 12862.019506901503 7653.2863807231188 3424.5694347918034 3820.548427298665 976.64746917784214 7853.0239000618458 3142.0547643750906 7079.2335954755545 7250.5144009739161 89293.534200772643 8263.4725512862206 9875.4161811619997 1843.0124656707048 4388.6870930492878 3594.4036057591438 1465.9507341682911 4625.6672051548958 4718.1707773506641 5155.230300500989
leaf_count=74433 22072 18602 70188 29828 1565 53240 15762 37935 9627 6430 40281 64547 41965 16344 16655 3943 33100 12757 28927 29858 482924 37280 42104 8370 21737 14956 6947 20361 19096 30635
internal_value=-0.000186304 0.052963 -0.0218026 0.0356949 0.082581 0.0942504 0.0477293 -0.00293777 -0.0287964 0.0615873 -0.0294545 -0.0285263 -0.0298664 -0.0122476 0.0667877 0.0167958 0.0102706 0.0269918 0.0376028 0.0506026 -0.0284128 0.00463686 0.00866191 -0.000460394 -0.00868497 0.0586692 0.0794259 0.0753771 0.0448786 -0.0416354
internal_weight=268079 77507.1 190571 48961.4 28545.7 20913.9 29913.4 51542.4 139029 12629.8 136702 129378 116516 23122.7 11082.1 19047.9 11971.7 4118.7 17283.6 7631.84 103708 28419.6 19981.9 10106.5 19698.2 7261.55 10233 8767.01 10204.4 12808.5
internal_count=1312469 334099 978370 203526 130573 99150 123898 233958 744412 53803 734785 694504 629957 108269 47373 79628 49800 16700 70095 31423 557357 125689 87754 45650 91925 30718 45910 38963 41168 72600
is_linear=0
shrinkage=0.1


Tree=11
num_leaves=31
num_cat=0
split_feature=13 10 16 13 16 11 14 0 16 20 17 14 16 18 13 13 4 8 8 14 10 20 16 13 19 21 21 20 19 1
split_gain=25448.2 3116.11 2839.24 678.851 596.3 436.183 355.897 265.644 245.796 244.856 218.826 217.051 214.588 173.24 161.855 157.669 153.491 150.844 145.103 128.625 127.345 111.927 105.642 104.011 103.694 99.82 91.1276 90.5878 89.7419 83.3363
threshold=37.500000000000007 21.500000000000004 799.50000000000011 5.5000000000000009 7810.5000000000009 372.50000000000006 87.500000000000014 10.500000000000002 27032.500000000004 1.5000000000000002 99.500000000000014 39.500000000000007 34651.500000000007 32.500000000000007 12.500000000000002 85.500000000000014 3.5000000000000004 1.0000000180025095e-35 117.50000000000001 12.500000000000002 3.5000000000000004 14.500000000000002 2700.5000000000005 11.500000000000002 72.500000000000014 32.500000000000007 63.500000000000007 1.5000000000000002 37.500000000000007 514.50000000000011
decision_type=8 10 10 10 10 10 10 10 10 10 10 10 8 10 10 10 10 10 8 10 10 8 10 10 10 10 8 10 8 10
left_child=1 4 5 12 17 7 9 10 -5 -4 16 14 -3 25 19 -8 26 20 -15 -6 28 -18 -20 -22 -16 -11 -2 -12 -1 -7
right_child=2 3 6 8 11 29 15 -9 -10 13 27 -13 -14 18 24 -17 21 -19 22 -21 23 -23 -24 -25 -26 -27 -28 -29 -30 -31
leaf_value=0.0071144598016204324 -0.015237120062407562 0.084214356649961297 -0.021532632959032801 0.05319775486840897 0.050917912498791268 0.030367419038807488 0.035264321823515236 -0.055510732517054087 0.080882135624611287 -0.0040788590113664059 -0.0226758654944378 0.019192032309212795 0.1109011281185107 -0.0098238606470436359 0.0070304391571718045 0.0053426522580141168 -0.028552091865634927 0.010787212718981582 0.0022117770575140363 0.076614926672598782 0.047649739365590145 -0.042309843817788871 0.017817611639069732 0.028746225618957639 0.048086803920691951 -0.027384784368273046 -0.026656456334876545 -0.0073411763829753012 0.028563838111587272 -0.0050655358671168708
leaf_weight=2944.6507002264261 7603.5018929094076 5813.8111442029476 6064.0888581126928 7426.1024816483259 3548.7902876287699 1440.1355460435152 3763.3983832001686 3140.8438474088907 5644.8330139070749 21841.415394857526 7580.2734488397837 1883.230317145586 6254.6740006804466 4451.5072572678328 683.92144946753979 3309.9237123578787 13222.759880408645 4803.1607622206211 8257.9313021451235 4317.912718847394 5301.0129866600037 10697.488811463118 9137.5379705131054 6455.0100879371166 6119.3775332570076 2006.577563598752 86363.223292514682 7833.0599244683981 5778.1184755116701 1231.2848241776228
leaf_count=11917 39570 27645 29847 31972 15134 6087 15300 18047 26906 98357 40002 7829 33762 19638 2773 14203 72431 19396 37388 19672 21549 63504 39297 25931 25523 9124 472470 38617 23241 5337
internal_value=-0.000164966 0.053118 -0.0181932 0.0809436 0.0363972 -0.0259817 0.000223121 -0.0267653 0.0651536 -0.00265211 -0.026088 0.0511517 0.0980452 -0.000146513 0.0552545 0.0212626 -0.027553 0.0267367 0.00628658 0.0650226 0.0304776 -0.0347048 0.0104093 0.0372702 0.0439595 -0.00603983 -0.0257324 -0.0148828 0.0213229 0.014036
internal_weight=264920 66974.6 197945 25139.4 41835.2 139113 58832.4 136441 13070.9 51759.1 133300 16553.2 12068.5 45695 14670 7073.32 117887 25282 21847 7866.7 20478.8 23920.2 17395.5 11756 6803.3 23848 93966.7 15413.3 8722.77 2671.42
internal_count=1312469 293250 1019219 120285 172965 756065 263154 744641 58878 233651 726594 70931 61407 203804 63102 29503 647975 102034 96323 34806 82638 135935 76685 47480 28296 107481 512040 78619 35158 11424
is_linear=0
shrinkage=0.1


Tree=12
num_leaves=31
num_cat=0
split_feature=13 16 16 10 13 11 12 22 0 10 17 19 13 14 0 22 3 5 10 21 14 10 18 16 0 0 1 15 10 13
split_gain=21015.1 2712.45 2547.78 549.591 526.578 386.435 335.397 237.844 234.165 194.157 191.41 183.129 182.879 155.45 125.14 120.548 120.442 116.605 99.3557 98.0625 92.7004 90.5446 88.7028 118.517 132.429 85.7039 84.6633 118.565 83.4725 82.7752
threshold=33.500000000000007 19716.000000000004 799.50000000000011 11.500000000000002 7.5000000000000009 372.50000000000006 485.50000000000006 93.500000000000014 8.5000000000000018 68.500000000000014 99.500000000000014 72.500000000000014 5.5000000000000009 40.500000000000007 3.5000000000000004 101.50000000000001 103.50000000000001 1.5000000000000002 34.500000000000007 86.500000000000014 7.5000000000000009 41.500000000000007 11.500000000000002 7374.5000000000009 28.500000000000004 4.5000000000000009 7362.0000000000009 42.500000000000007 2.5000000000000004 18.500000000000004
decision_type=8 10 10 10 10 10 10 10 10 10 10 10 10 10 10 10 8 10 10 8 10 10 10 10 10 10 10 10 10 10
left_child=1 3 5 11 9 8 7 17 10 13 16 14 -5 20 28 -6 19 -4 -8 -2 -3 -14 26 24 -24 -7 27 -9 -1 -17
right_child=2 4 6 12 15 25 18 22 -10 -11 -12 -13 21 -15 -16 29 -18 -19 -20 -21 -22 -23 23 -25 -26 -27 -28 -29 -30 -31
leaf_value=0.018181434941683703 -0.024922524106476031 0.057929068600667426 -0.007875510063054229 0.064878402055474058 0.031024856843523008 0.020430443531781094 0.013885074646590648 -0.007316186972099032 -0.047531037374531071 0.10695935733813636 -0.012988516779441054 0.034478993677231361 0.037847364524995375 0.04280045922908518 0.0086426544322921427 0.072763007835288163 -0.023552801188091041 -0.031412813189414517 0.04254010937489467 -0.03868483596790271 0.092795137147667822 0.062477950230850968 0.004920234913009797 0.01730189649302831 -0.025227708816530844 -0.02144121930152891 0.0012031501354280653 -0.054967266590131181 0.042678842475737472 0.051537139939524024
leaf_weight=3246.4721265137196 10112.942966073751 901.13977621495724 18358.45268021524 5429.4031070172787 1163.2973260581493 2384.7002747952938 8018.0188282132149 1950.6384695321321 4254.149830237031 5371.1258054077625 14814.923932567239 13390.860905706882 8465.5058505088091 900.2032166570425 6911.3810768574476 5326.493441388011 94843.546715125442 2377.3222863078117 1425.0759824216366 10608.932016178966 4958.798263669014 1811.9486507326365 13271.630661770701 7108.5865648984909 1636.714267373085 614.87382248044014 6281.1679711639881 713.04705637693405 2433.5604296177626 2804.6602573394775
leaf_count=13099 56127 4120 85877 24699 5205 10049 33381 8949 24928 30493 76017 54832 35419 4519 27920 25440 524162 11251 5773 63820 26203 8008 58883 29998 7223 2669 28135 3281 9796 12193
internal_value=-0.000144414 0.050127 -0.0161066 0.0352653 0.0790444 -0.0236523 0.000879707 -0.00228575 -0.0244432 0.0927666 -0.0236899 0.0263381 0.0500326 0.08149 0.0176803 0.061134 -0.0250618 -0.010574 0.0182095 -0.0319684 0.0874334 0.0421898 0.00326508 0.00667673 0.00161044 0.0118473 -0.00513237 -0.020072 0.0286771 0.0654416
internal_weight=261890 63114.9 198775 41689.1 21425.7 137634 61140.7 51697.6 134634 12131.3 130380 25982.3 15706.9 6760.14 12591.4 9294.45 115565 20735.8 9443.09 20721.9 5859.94 10277.5 30961.8 22016.9 14908.3 2999.57 8944.85 2663.69 5680.03 8131.15
internal_count=1312469 281946 1030523 173773 108173 757772 272751 233597 745054 65335 720126 105647 68126 34842 50815 42838 644109 97128 39154 119947 30323 43427 136469 96104 66106 12718 40365 12230 22895 37633
is_linear=0
shrinkage=0.1


Tree=13
num_leaves=31
num_cat=0
split_feature=10 11 17 13 13 12 20 20 22 9 22 14 1 4 14 13 4 18 0 14 11 22 18 15 0 2 9 12 3 14
split_gain=17377.7 2573.43 1636.49 747.496 729.54 413.604 291.908 260.262 221.511 172.698 159.016 152.799 152.414 145.371 138.668 134.087 123.309 110.624 100.606 133.38 99.3456 98.3341 92.0691 155.837 124.169 101.603 84.7998 87.7555 82.9953 81.449
threshold=2.5000000000000004 6414.5000000000009 365.50000000000006 22.500000000000004 9.5000000000000018 5996.5000000000009 62.500000000000007 111.50000000000001 84.500000000000014 2.5000000000000004 34.500000000000007 42.500000000000007 99.500000000000014 6.5000000000000009 37.500000000000007 20.500000000000004 84.500000000000014 29.500000000000004 13.500000000000002 38.500000000000007 2826.5000000000005 90.500000000000014 31.500000000000004 6.5000000000000009 6.5000000000000009 1020.5000000000001 1.5000000000000002 2958.5000000000005 23.500000000000004 38.500000000000007
decision_type=10 10 10 10 10 8 10 10 10 10 10 10 10 10 8 10 10 10 10 10 10 10 10 10 10 10 10 8 8 10
left_child=2 3 5 6 7 12 20 -3 16 10 13 -8 -1 -7 -10 -6 26 -12 -5 21 28 -20 25 24 -24 -16 27 -4 -2 -22
right_child=1 4 8 18 15 9 11 -9 14 -11 17 -13 -14 -15 22 -17 -18 -19 19 -21 29 -23 23 -25 -26 -27 -28 -29 -30 -31
leaf_value=0.022958362511965633 0.025737304403973305 0.072965603214601216 0.016118342326794065 0.021729105473171799 0.061443858874020776 -0.021856806199167075 0.065024567748564355 0.10111855102383537 0.024354193640326798 -0.037588388110514986 -0.018569814450952619 0.01292951706685698 -0.010117908880554272 -0.032822296600238082 -0.016630332475593989 0.037687121906286161 -0.025847151698992404 -0.0039044531584116467 -0.0076841816164130482 -0.0021750374657626761 0.049997418255442384 0.031399078197335777 0.006362585530860239 0.016580810793980511 -0.021997691790704675 0.0016445078001311904 -0.02254206028850167 -0.0058385583814577159 0.049031504509720075 0.028692133711205055
leaf_weight=2611.1317592561245 10908.899600610137 7103.7141007184982 2178.8517395108938 8709.7113775908947 4785.26181396842 84652.931807085872 5374.8252926468849 6106.3805477917194 3101.5292938798666 7121.1830383390188 19448.869198948145 628.90607132017612 2986.5788160711527 14104.207613036036 4162.2664179205894 4718.4704990237951 3623.3648224771023 6992.9671617001295 842.03685410320759 6036.7207778245211 5559.7718958109617 2733.8610435426235 4337.6043291985989 8601.4809827357531 2396.8705309182405 11306.150220036507 2431.6488815397024 11059.968283385038 1778.9568605870008 2649.452018737793
leaf_count=10782 44759 36693 9017 36256 22434 475153 25586 36389 12694 41321 105987 2768 12608 83881 19117 19710 17612 34883 3406 25189 24415 11378 19649 36845 10970 50113 11479 52892 7241 11242
internal_value=-0.000124903 0.0433159 -0.0155669 0.0295226 0.0707783 -0.021314 0.040133 0.0859793 -0.000667712 -0.0224404 -0.0215788 0.0595675 0.00531099 -0.0234229 0.00419988 0.049649 -0.00922175 -0.0146913 0.0139444 0.00689097 0.0345495 0.0221959 0.00217065 0.00766123 -0.00373114 -0.00327292 -0.00537758 -0.00222488 0.0290034 0.0431213
internal_weight=259055 67937 191118 45223.1 22713.8 137918 26900.8 13210.1 53199.7 132320 125199 6003.73 5597.71 98757.1 33905.9 9503.73 19293.8 26441.8 18322.3 9612.62 20897.1 3575.9 30804.4 15336 6734.47 15468.4 15670.5 13238.8 12687.9 8209.22
internal_count=1312469 307466 1005003 192240 115226 764615 116011 73082 240388 741225 699904 28354 23390 559034 149388 42144 91000 140870 76229 39973 87657 14784 136694 67464 30619 69230 73388 61909 52000 35657
is_linear=0
shrinkage=0.1


Tree=14
num_leaves=31
num_cat=0
split_feature=11 10 15 13 13 20 20 0 14 14 14 14 21 15 5 13 3 3 13 19 0 22 17 2 0 7 10 13 21 21
split_gain=14342.3 2457.62 1296.68 789.978 531.476 399.567 338.662 314.767 221.456 169.945 153.71 192.97 145.883 137.243 130.224 120.93 114.92 104.803 103.4 113 109.444 92.2473 83.8283 82.7761 81.9418 75.8963 74.9596 74.5308 71.1461 68.753
threshold=588.50000000000011 37.500000000000007 1.5000000000000002 17.500000000000004 7.5000000000000009 37.500000000000007 2.5000000000000004 5.5000000000000009 39.500000000000007 21.500000000000004 17.500000000000004 38.500000000000007 63.500000000000007 180.50000000000003 3.5000000000000004 18.500000000000004 61.500000000000007 29.500000000000004 32.500000000000007 38.500000000000007 20.500000000000004 70.500000000000014 872.50000000000011 2599.5000000000005 16.500000000000004 660.50000000000011 3.5000000000000004 6.5000000000000009 32.500000000000007 15.500000000000002
decision_type=10 10 10 10 10 10 10 10 10 10 10 10 8 8 10 10 8 8 10 8 10 10 10 10 10 8 8 10 10 8
left_child=2 3 7 5 13 10 24 12 9 27 -2 -12 21 -3 17 -6 -14 28 19 -5 -20 -1 -19 -16 -4 -18 -27 -7 -8 -22
right_child=1 4 6 18 15 8 14 -9 -10 -11 11 -13 16 -15 23 -17 25 22 20 -21 29 -23 -24 -25 -26 26 -28 -29 -30 -31
leaf_value=-0.015594412326746052 0.021275814195304464 0.076615075362336707 -0.015544606315867453 0.0015918237891692874 0.064199553181827143 0.058085952318814471 -0.00023946637053167387 -0.04304665301078265 0.020426289290573427 0.072665416134341923 0.055026969503844274 0.023222293310642531 -0.033014479337384925 0.10161905865055723 -0.030093574704079796 0.038150526961039932 -0.041901237191782598 0.0031021490840623172 0.016174449967331108 0.026638083177355082 0.010789910286476951 0.00027527370157183218 0.016373124421977522 0.0016516407459848993 -0.047541272996176359 0.0062527288716257793 -0.019962403898649169 0.032856242480671698 -0.022725889710602895 -0.012896469117754859
leaf_weight=13617.154769539833 9405.1830966174603 4558.491499170661 10162.979998335242 2161.0845843702555 3789.7406748980284 2480.7012207061052 20306.767528399825 5938.7803688496351 1671.8552344292402 5000.1587206423283 4132.8311665952206 3543.2087237685919 7325.149938762188 4234.2116140276194 2039.2053920179605 3364.2794854044914 1558.9456114917994 12364.802415668964 10340.154298558831 10820.882437959313 2281.4065560102463 5010.6230307966471 7738.7481768280268 1375.3946876674891 868.80142745375633 1103.7144909799099 92820.313113987446 2217.5490438044071 1511.8045878857374 2647.5844896137714
leaf_count=73102 38673 25442 51382 8702 19225 11931 91989 35833 7589 25503 18132 15149 44404 27529 9449 14390 9187 56328 43381 44798 9441 26405 33335 6147 4519 4669 527801 9991 7008 11035
internal_value=-0.000107255 0.0375065 -0.0149792 0.0277527 0.0721888 0.0395144 -0.0023512 -0.0205676 0.0540394 0.0598338 0.0298457 0.0403461 -0.0194683 0.088656 0.00147231 0.0519496 -0.0209436 0.00300188 0.0159075 0.0224687 0.0103292 -0.0113257 0.00821074 -0.0173067 -0.0180645 -0.0200176 -0.0196543 0.0461777 -0.00179755 -0.00193312
internal_weight=256393 72649.3 183743 56702.6 15946.7 28451.5 56368.5 127375 11370.3 9698.41 17081.2 7676.04 121436 8792.7 45336.7 7154.02 102808 41922.1 28251.1 12982 15269.1 18627.8 20103.6 3414.6 11031.8 95483 93924 4698.25 21818.6 4928.99
internal_count=1312469 330911 981558 244325 86586 126968 260157 721401 55014 47425 71954 33281 685568 52971 204256 33615 586061 188660 117357 53500 63857 99507 89663 15596 55901 541657 532470 21922 98997 20476
is_linear=0
shrinkage=0.1


Tree=15
num_leaves=31
num_cat=0
split_feature=13 16 17 10 13 22 11 13 11 19 0 20 15 21 3 21 3 9 22 0 16 20 11 0 0 0 22 7 3 15
split_gain=11881.4 2033.79 1469.21 432.45 394.057 240.574 206.981 175.608 169.453 151.235 144.751 141.417 121.359 104.008 121.107 91.1623 97.2088 88.1635 85.2246 84.8763 112.025 110.854 83.4219 74.0328 71.1614 69.9367 78.9406 69.4729 69.1662 68.3342
threshold=33.500000000000007 24039.500000000004 270.50000000000006 12.500000000000002 5.5000000000000009 84.500000000000014 572.50000000000011 4.5000000000000009 3834.5000000000005 35.500000000000007 9.5000000000000018 90.500000000000014 235.50000000000003 62.500000000000007 61.500000000000007 74.500000000000014 34.500000000000007 50.500000000000007 69.500000000000014 19.500000000000004 2490.5000000000005 23.500000000000004 9467.5000000000018 3.5000000000000004 6.5000000000000009 30.500000000000004 32.500000000000007 479.50000000000006 67.500000000000014 18.500000000000004
decision_type=8 10 10 10 10 10 10 10 10 8 10 10 10 8 8 10 8 10 10 10 10 10 10 10 10 10 10 8 8 10
left_child=1 3 6 9 12 17 10 -5 15 23 13 29 -3 18 -15 16 -7 25 -2 20 24 -21 -9 -1 -11 26 -4 -16 -17 -6
right_child=2 4 5 7 11 8 -8 22 -10 19 -12 -13 -14 14 27 28 -18 -19 -20 21 -22 -23 -24 -25 -26 -27 -28 -29 -30 -31
leaf_value=0.018848310259529946 -0.016010493337451772 0.075887445365284981 -0.011728024854331076 0.056216005417415671 -0.036604841156418814 -3.0615705187151929e-05 0.012239901482817504 0.029299939615405085 0.024226830018565879 0.024729183723566375 -0.039685201579117951 0.065165135284552242 0.10184319895286238 -0.031855769105740082 -0.040067971942779702 -0.028245419218345238 0.011006510089602189 -0.025658753994771095 -0.0014284443239030644 -0.0038289058686142574 0.036747133601223621 0.023412327794585658 0.050453882767661988 -0.0020657083353401474 -0.0011124350598400636 -0.028478969556470515 0.00087103117059113278 -0.018403251996055865 -0.0030453437641998716 0.041350165048604913
leaf_weight=3031.1678761988878 13647.394295156002 4871.9683049172163 8860.77366130054 4980.7735661417246 116.3398460149765 20145.863110110164 2155.2566553503275 8984.9879115819931 3870.7811046093702 4307.979540348053 3298.6971308141947 4851.4224563241005 2858.1593218743801 7621.203805282712 1504.199886187911 1429.2236635386944 13213.89409968257 2584.3782441467047 5674.5069851726294 2095.5308994501829 7822.0621127486229 5202.4608466625214 2352.2754523903131 3832.7645744085312 1415.85476988554 1312.4719942957163 11334.499780625105 92619.397458717227 4577.462665617466 3361.0089930146933
leaf_count=12238 75103 29630 45177 24869 514 89424 9039 39362 15721 17330 20340 25749 19730 48051 9102 6662 57312 12484 30659 8631 32347 22400 11258 15521 5699 6032 52063 532633 20721 16668
internal_value=-9.1097e-05 0.0387619 -0.0121338 0.0276503 0.0692245 -0.000199714 -0.0184846 0.0405649 0.0042623 0.0200445 -0.0190171 0.0541332 0.0854844 -0.0184539 -0.0197312 0.00229925 0.00434122 -0.00820751 -0.011728 0.0242841 0.0289679 0.0155903 0.033689 0.00717009 0.018337 -0.00611057 -0.00465687 -0.0187495 -0.00904142 0.0387421
internal_weight=253935 60084.8 193850 44025.9 16058.9 67329.3 126521 16318 43237.2 27707.8 124365 8328.77 7730.13 121067 101745 39366.4 33359.8 24092.1 19321.9 20843.9 13545.9 7297.99 11337.3 6863.93 5723.83 21507.7 20195.3 94123.6 6006.69 3477.35
internal_count=1312469 281946 1030523 189655 92291 305596 724927 75489 189840 114166 715888 42931 49360 695548 589786 174119 146736 115756 105762 86407 55376 31031 50620 27759 23029 103272 97240 541735 27383 17182
is_linear=0
shrinkage=0.1


Tree=16
num_leaves=31
num_cat=0
split_feature=10 11 16 13 13 11 15 0 0 20 21 0 21 16 3 11 14 13 20 0 3 19 14 0 3 19 18 7 0 22
split_gain=9907.77 1810.17 933.049 613.85 465.679 289.204 224.649 194.401 169.858 168.09 151.896 153.342 140.043 132.157 124.586 101.588 99.0472 93.4375 89.7958 107.364 85.9541 83.9545 78.3779 123.087 72.5475 71.9408 69.6974 69.0001 68.2271 78.625
threshold=2.5000000000000004 6510.5000000000009 1314.5000000000002 7.5000000000000009 14.500000000000002 5491.0000000000009 132.50000000000003 14.500000000000002 2.5000000000000004 55.500000000000007 62.500000000000007 2.5000000000000004 110.50000000000001 42051.000000000007 35.500000000000007 2326.5000000000005 40.500000000000007 37.500000000000007 15.500000000000002 21.500000000000004 14.500000000000002 116.50000000000001 38.500000000000007 13.500000000000002 52.500000000000007 83.500000000000014 25.500000000000004 510.50000000000006 4.5000000000000009 88.500000000000014
decision_type=10 10 10 10 10 8 10 10 10 10 8 10 8 8 8 10 10 8 8 10 8 8 10 10 8 8 10 8 10 10
left_child=2 4 5 6 9 8 -3 10 -1 20 21 27 14 -5 18 28 -11 -16 19 -4 -2 -7 25 -24 -23 -17 -19 -12 -6 -30
right_child=1 3 12 13 15 7 -8 -9 -10 16 11 -13 -14 -15 17 22 -18 26 -20 -21 -22 24 23 -25 -26 -27 -28 -29 29 -31
leaf_value=0.014389499984976434 0.024931114482467386 0.060450393139561277 -0.0047268637804823918 0.034709295344175745 0.01999995475416572 -0.0025955225665824345 0.090169232821467271 -0.046231231167861375 -0.018397236046507684 0.054323821588725146 -0.037385748201971429 -0.031214663865207565 -0.020214183708195707 0.061717502092845336 0.042274808246106216 0.012225402066155799 0.00943082008490587 -0.009808831358637856 0.002504625819415374 -0.032039085100301075 0.046073429576054217 -0.022417787601512685 0.031305410774321939 0.0034184488305019816 -0.0084423843372525131 0.040357441964987362 0.010022487583501988 -0.016573512993147944 -0.0077977742924526241 0.010061168565824855
leaf_weight=4863.6066738218069 11936.715814515948 4998.1746889054775 7971.184608772397 7899.033956900239 3474.7898911237717 10540.192008882761 5179.279114484787 2211.6599800437689 2340.5232589691877 4557.8329417556524 1619.7148372083902 8121.7965553998947 2976.0537662059069 2350.9914450496435 807.74040088057518 1337.0523245334625 550.85295920073986 2044.6977207064629 16142.127196088433 1756.4211724102497 2292.1740480214357 6307.1618769466877 2538.5531597584486 4203.6135856360197 9035.9309938848019 2839.5126227289438 13297.872686728835 96537.885463893414 3759.840866163373 7159.1873696148396
leaf_count=20187 51754 28020 36405 36366 14401 52902 37184 13441 9962 23714 10010 49259 14931 12383 3285 5454 2551 9221 71437 8230 9781 36859 10327 17193 49521 12509 58295 561058 15767 30062
internal_value=-7.67232e-05 0.0335201 -0.0117954 0.0581775 0.0222393 -0.0157821 0.0755742 -0.0168286 0.00373754 0.0339235 -0.0163365 -0.0180096 0.000748674 0.040904 0.00223336 0.0133131 0.0494832 0.00912482 -0.00206894 -0.00965837 0.028337 -0.00946691 0.0205868 0.0139184 -0.0141873 0.0313515 0.00737958 -0.0169169 0.0077955 0.00391165
internal_weight=251652 65077.6 186575 20427.5 44650.1 141578 10177.5 134374 7204.13 19337.6 132163 106279 44996.1 10250 42020 25312.5 5108.69 16150.3 25869.7 9727.61 14228.9 25883.3 10918.7 6742.17 15343.1 4176.56 15342.6 98157.6 14393.8 10919
internal_count=1312469 307466 1005003 113953 193513 803199 65204 773050 30149 87800 759609 620327 201804 48749 186873 105713 26265 70801 116072 44635 61535 139282 45483 27520 86380 17963 67516 571068 60230 45829
is_linear=0
shrinkage=0.1


Tree=17
num_leaves=31
num_cat=0
split_feature=13 10 19 16 20 22 14 12 14 11 13 0 4 0 19 13 5 20 15 0 21 3 18 10 14 21 15 17 10 19
split_gain=8151.92 1571.47 1162.47 377.987 315.116 265.589 201.557 168.172 151.509 146.274 139.615 136.749 127.144 109.573 106.062 95.8762 94.3438 91.2048 83.7843 80.9496 76.6757 102.289 98.6033 76.1898 75.6067 74.2492 65.2599 63.9002 61.429 58.2686
threshold=27.500000000000004 28.500000000000004 37.500000000000007 42051.000000000007 25.500000000000004 36.500000000000007 39.500000000000007 376.50000000000006 44.500000000000007 3777.5000000000005 3.5000000000000004 11.500000000000002 37.500000000000007 6.5000000000000009 27.500000000000004 3.5000000000000004 2.5000000000000004 23.500000000000004 5.5000000000000009 2.5000000000000004 56.500000000000007 56.500000000000007 19.500000000000004 78.500000000000014 38.500000000000007 57.500000000000007 16.500000000000004 5132.5000000000009 1.5000000000000002 108.50000000000001
decision_type=8 10 10 8 10 10 10 10 10 10 10 10 10 10 10 10 10 10 10 10 10 8 10 10 10 8 10 10 10 10
left_child=1 4 8 10 11 19 9 16 12 26 -3 14 25 -14 -1 -5 20 -18 -13 28 22 -22 -7 24 -12 -2 -6 -20 -4 -11
right_child=2 3 5 15 6 7 -8 -9 -10 29 23 18 13 -15 -16 -17 17 -19 27 -21 21 -23 -24 -25 -26 -27 -28 -29 -30 -31
leaf_value=0.011967694819947486 -0.007923122751326785 0.066521944434643335 -0.010479336364878876 0.095078568023866994 0.0068559976613706683 -0.0031918424947917998 0.0072655967432695371 0.012360457655545033 0.015233861671206501 0.038002436979242771 0.052185901340548416 -0.027037311653309609 -0.0196391824588188 -0.038632573817956067 0.02946635263726979 0.069063377903107431 -0.02765294005988261 4.2488426450749661e-06 0.0098662743451208273 -0.025333363721590164 -0.025174796920241063 -0.0011471182582717073 0.008025453383258661 0.061555941545784268 0.026954924801016047 -0.015609446000411645 0.034309027136415086 -0.048340946185157774 0.023924474811450394 0.061475928698399011
leaf_weight=6427.4091821163893 14730.189702451229 3273.8196337297559 5598.0221803337336 2804.5454061850905 967.99466337263584 12448.390148118138 2388.5055633634329 14100.812858685851 1581.9795047789812 1632.5470564812422 1818.1609330996871 754.14345122873783 15729.67449863255 3764.2655486613512 7512.0887852758169 2862.5755801200867 2308.2453491985798 2466.3667808026075 6395.4674968868494 4164.6428829282522 2151.807122990489 10031.49872225523 21151.343536287546 1456.8429879620671 3424.8251444548368 85605.658907160163 8209.5633378475904 194.33400183916092 572.02331477403641 3002.1940053254366
leaf_count=26043 78464 20128 30855 21876 3990 56427 10521 58635 6684 8121 9894 3057 95422 23454 31076 18466 11133 10925 27101 22134 10478 47300 95101 8362 16767 502559 37711 894 2471 16420
internal_value=-6.42235e-05 0.034689 -0.00946453 0.0613146 0.0235791 0.0003244 0.0340882 0.0027036 -0.0155109 0.0387265 0.0495963 0.0155797 -0.0159168 -0.0233068 0.0213978 0.0819378 1.02439e-05 -0.0133664 0.00453641 -0.0145609 0.00140526 -0.00539087 0.00386955 0.0413258 0.0357045 -0.014481 0.0314134 0.00814974 -0.00728977 0.0532076
internal_weight=249530 53125 196405 15640.8 37484.2 74993.2 16200.8 64658.5 121412 13812.3 9973.65 21283.4 119830 19493.9 13939.5 5667.12 50557.7 4774.61 7343.94 10334.7 45783 12183.3 33599.7 6699.83 5242.99 100336 9177.56 6589.8 6170.05 4634.74
internal_count=1312469 260427 1052042 95493 164934 345459 76763 289999 706583 66242 55151 88171 699899 118876 57119 40342 231364 22058 31052 55460 209306 57778 151528 35023 26661 581023 41701 27995 33326 24541
is_linear=0
shrinkage=0.1


Tree=18
num_leaves=31
num_cat=0
split_feature=11 20 17 13 13 21 10 0 16 3 14 14 13 3 0 19 22 12 4 12 7 11 22 13 2 13 14 0 2 19
split_gain=6780.27 1380.33 792.963 440.913 376.457 202.71 186.468 180.165 161.998 122.031 100.647 276.53 99.1163 109.514 94.8894 82.2909 82.0903 77.3412 73.97 72.3395 70.347 69.2373 68.7858 68.1083 62.6126 61.9851 109.08 60.2511 55.5841 55.1822
threshold=1057.5000000000002 79.500000000000014 109.50000000000001 10.500000000000002 17.500000000000004 62.500000000000007 40.500000000000007 5.5000000000000009 48086.500000000007 62.500000000000007 17.500000000000004 38.500000000000007 27.500000000000004 36.500000000000007 20.500000000000004 80.500000000000014 104.50000000000001 189.50000000000003 104.50000000000001 5302.0000000000009 499.50000000000006 3885.5000000000005 79.500000000000014 49.500000000000007 1117.5000000000002 6.5000000000000009 6.5000000000000009 32.500000000000007 1450.5000000000002 86.500000000000014
decision_type=10 10 10 10 10 8 10 10 10 8 10 10 8 8 10 10 10 10 10 10 8 10 10 10 8 10 10 10 10 8
left_child=2 4 7 8 6 12 10 17 -3 -7 25 29 -4 16 19 -16 18 20 -14 21 -1 -6 24 -5 -22 26 -2 -13 -18 -12
right_child=1 3 5 23 14 9 -8 -9 -10 -11 11 27 13 -15 15 -17 28 -19 -20 -21 22 -23 -24 -25 -26 -27 -28 -29 -30 -31
leaf_value=-0.03241347783284227 0.015612895989946833 0.058797855150702065 0.012894030044455966 0.037854857695326649 0.014397020242054914 -0.021073602949286167 0.050987570276893192 -0.03551089303040729 0.086488648786955488 -0.0046062707500505303 0.033182962475950893 0.021228042698103772 -0.0065147722265295402 0.0063707107873622153 -0.017065743955375846 0.0081128136709718562 -0.0062476903025401806 0.0074973935601055676 -0.030090790474725605 -0.016587523249279021 -0.022103777451739387 0.031402056506866581 -0.0057488327835125315 -0.00072613649733034146 -0.013827132755505615 0.0095538352935686799 0.050313388296342167 -0.0033874601233098408 0.0063596221259182061 0.052370070259788064
leaf_weight=2095.9630425274372 2872.254742205143 4869.020651884377 6986.5048140436411 4814.5236675590277 10071.011374726892 6600.5943907797337 3524.3823105692863 4015.6917016208172 3732.0875800251961 14141.096544876695 2326.1684190481901 3275.0945838540792 13206.097825750709 17639.983137249947 1580.35057733953 7266.49862639606 5590.0303677618504 1657.0261400789022 1479.9437489658594 617.14317364990711 10237.953110665083 3141.1244312673807 9399.3890265375376 505.61853025853634 85238.931055992842 4384.6359241753817 1323.2125872299075 1427.903095215559 9340.2795647084713 4214.8991394117475
leaf_count=13419 12307 31056 28734 23843 41522 34404 21351 27493 29454 70444 10627 14548 63025 79964 6560 30805 25529 6789 7181 2541 64268 12985 53526 2060 503812 18558 6223 6676 41250 21515
internal_value=-5.23863e-05 0.0292255 -0.00940642 0.0568165 0.02088 -0.00143848 0.0297929 -0.0147104 0.0708131 -0.00984664 0.0260248 0.0322491 0.00177668 0.000133055 0.0117029 0.00361506 -0.00358219 -0.0139415 -0.00889058 0.0168768 -0.0142736 0.0184399 -0.0139111 0.0341882 -0.0147146 0.017868 0.0265571 0.0137544 0.00163934 0.0455467
internal_weight=247575 59945.9 187629 13921.3 46024.7 74984.5 23348.6 112645 8601.11 20741.7 19824.2 11244.1 54242.8 47256.3 22676.1 8846.85 29616.4 108629 14686 13829.3 106972 13212.1 104876 5320.14 95476.9 8580.1 4195.47 4703 14930.3 6541.07
internal_count=1312469 292631 1019838 86413 206218 350531 111805 669307 60510 104848 90454 53366 245683 216949 94413 37365 136985 641814 70206 57048 635025 54507 621606 25903 568080 37088 18530 21224 66779 32142
is_linear=0
shrinkage=0.1


Tree=19
num_leaves=31
num_cat=0
split_feature=10 10 17 13 20 13 5 12 14 11 14 14 22 9 14 0 19 22 4 15 3 1 11 0 20 14 0 17 11 14
split_gain=5596.5 1319.78 545.016 516.501 255.755 246.186 138.817 137.882 131.718 120.958 102.785 200.244 101.799 111.667 98.8394 129.745 105.497 90.6484 114.64 87.2488 85.7954 80.1545 73.7454 60.1896 89.2375 60.1096 54.2929 53.8588 52.9221 53.3247
threshold=2.5000000000000004 56.500000000000007 369.50000000000006 11.500000000000002 74.500000000000014 7.5000000000000009 1.5000000000000002 2845.5000000000005 40.500000000000007 2326.5000000000005 11.500000000000002 38.500000000000007 104.50000000000001 16.500000000000004 39.500000000000007 29.500000000000004 84.500000000000014 79.500000000000014 78.500000000000014 235.50000000000003 36.500000000000007 318.50000000000006 4752.5000000000009 10.500000000000002 27.500000000000004 22.500000000000004 31.500000000000004 736.00000000000011 21267.500000000004 38.500000000000007
decision_type=10 10 10 10 10 10 10 8 10 10 10 10 10 10 10 10 8 10 10 10 8 10 10 10 10 10 10 10 10 10
left_child=2 3 6 4 10 19 7 21 22 23 -2 -12 13 20 16 -16 -11 18 -9 -3 -4 -1 -6 -5 26 -18 -25 -14 29 -7
right_child=1 5 12 9 8 28 -8 17 -10 14 11 -13 27 -15 15 -17 25 -19 -20 -21 -22 -23 -24 24 -26 -27 -28 -29 -30 -31
leaf_value=0.015122394513723107 0.015736339396039963 0.065437877588314305 -0.0076154612178955449 0.012627615019811661 0.042882206663640114 0.072915368242996784 -0.032869017818881699 -0.012711764225263706 0.01094438350082929 0.0087808896937711239 0.043562618192520851 0.014510127763798016 -0.0032309644627993767 -0.01848939222968618 0.021113223442469981 -0.0012976972495336719 0.015800663002074975 -0.0055691744009757583 -0.02650518926092171 0.092572444471214599 0.0045469379995868022 -0.010275943873002333 0.069567388912880293 -0.0030377961782226551 0.011096478973188205 0.042996957255899415 -0.02820794839566769 0.0073264665133767649 0.057564729693737028 0.027502265750425615
leaf_weight=2924.4075002074242 5989.6176413670182 2787.7828046754003 11605.481523498893 7226.7883869856596 1760.4158879667521 297.0948296636343 3207.1649838984013 99615.282430842519 671.64616902917624 2008.7302336543798 6121.2064316570759 3873.8240075781941 6629.3868295550346 4667.4565800875425 6438.5357947200537 4314.2328644841909 1072.3792066425085 16457.037433117628 6413.403984695673 2061.0803361460567 11594.382843568921 2160.5709706842899 2515.2792924717069 3481.8019188195467 4054.9135632067919 3355.9694228172302 1136.779644370079 17824.068948671222 1498.0088857859373 1993.6073366850615
leaf_count=12079 25700 20511 54250 29907 9964 1811 19936 593232 3809 8423 31339 18532 29834 22230 26585 18340 5011 91274 41056 18497 54345 9165 17896 14578 17357 15990 4819 77602 8483 9914
internal_value=-4.2288e-05 0.0257537 -0.00887015 0.0199505 0.0322446 0.0620486 -0.0123211 -0.0118045 0.0521134 0.0121737 0.026095 0.0323026 -0.000244501 -0.00437647 0.0179885 0.0121215 0.0277889 -0.0124743 -0.0135461 0.0769718 -0.00153717 0.00433082 0.0585804 0.00588726 0.000271175 0.036411 -0.00923297 0.00446432 0.0429497 0.0333922
internal_weight=245758 62659.7 183099 54022.1 20932 8637.57 130778 127571 4947.34 33090.1 15984.6 9995.03 52320.8 27867.3 17189.8 10752.8 6437.08 122486 106029 4848.86 23199.9 5084.98 4275.7 15900.3 8673.5 4428.35 4618.58 24453.5 3788.71 2290.7
internal_count=1312469 307466 1005003 248250 107240 59216 766742 746806 31669 141010 75571 49871 238261 130825 74349 44925 29424 725562 634288 39008 108595 21244 27860 66661 36754 21001 19397 107436 20208 11725
is_linear=0
shrinkage=0.1


Tree=20
num_leaves=31
num_cat=0
split_feature=13 10 15 20 20 0 12 14 11 20 13 0 5 19 20 0 7 11 11 7 2 3 13 15 3 14 22 19 16 11
split_gain=4643.16 1138.36 660.153 277.563 241.015 223.98 174.175 161.891 165.894 158.678 107.88 101.644 95.5923 90.7183 82.2303 79.9005 65.1278 64.8019 62.7485 60.6868 59.3727 59.1136 56.5478 55.6258 52.3717 52.0516 51.9047 46.778 46.1169 45.5041
threshold=27.500000000000004 38.500000000000007 1.5000000000000002 33.500000000000007 177.50000000000003 3.5000000000000004 309.50000000000006 39.500000000000007 3995.5000000000005 3.5000000000000004 3.5000000000000004 19.500000000000004 12.500000000000002 27.500000000000004 3.5000000000000004 21.500000000000004 1221.5000000000002 20623.000000000004 13371.500000000002 769.50000000000011 239.50000000000003 29.500000000000004 4.5000000000000009 10.500000000000002 5.5000000000000009 38.500000000000007 34.500000000000007 111.50000000000001 21963.500000000004 372.50000000000006
decision_type=8 10 10 10 10 10 10 10 10 10 10 10 10 10 8 10 8 10 10 8 8 8 10 10 10 10 10 10 10 10
left_child=1 3 5 11 10 6 14 8 -5 16 -3 13 18 24 -2 26 -4 25 19 -11 -16 -21 -6 -13 -1 -12 -7 -10 -27 -18
right_child=2 4 9 7 22 15 -8 -9 27 12 17 23 -14 -15 20 -17 29 -19 -20 21 -22 -23 -24 -25 -26 28 -28 -29 -30 -31
leaf_value=0.016217568250523621 -0.0046801229065703779 0.062667296047681134 -0.024891491688282613 0.025285206665395535 0.09191942366461342 -0.033209916900982642 0.016112163826235849 0.0072961842271303231 0.036616141856651317 -0.0047145206324689659 0.049946311407886371 -0.022399342390328387 -0.024167195575720671 0.021674549375287989 -0.025644099966861452 -0.062396728204592626 -0.0088337631343224782 0.057058399577155298 0.029317617910075523 0.0010220875534278139 -0.011622904392080986 0.0082094938116806532 0.063313209023338632 0.005274007050938688 -0.00078245144561984038 0.033425128243944467 -0.01778924848763213 0.056783535512782972 0.0059748655124098951 0.0064004634647443345
leaf_weight=3523.1246914714575 17833.717336937785 2750.2686547264457 2114.5784339159727 7374.9512812420726 1723.6166025325656 3603.4257382228971 2440.8612843304873 2606.4405376315117 1862.6803605630994 8284.6337534636259 1096.6944119185209 842.90631964802742 1267.9561069607735 11839.347011804581 3126.1408840566874 571.95941378176212 10330.037034451962 1343.627016864717 932.99035070836544 23073.93893378973 89007.590963885188 22701.425965741277 1153.4747627153993 5253.3887312561274 3731.5194216817617 1813.9361054003239 5536.2446205839515 3006.4702156186104 923.66839999705553 2420.0296746641397
leaf_count=14411 99870 20862 11212 35542 16410 24285 10106 12107 10463 37112 7127 3452 5721 50188 19972 4040 53936 8971 4036 103414 536048 98632 8341 23506 15175 9411 33288 18987 5474 10370
internal_value=-3.27389e-05 0.0268551 -0.00710738 0.0190823 0.0556586 -0.0115679 -0.0103091 0.0299259 0.0347432 0.000551195 0.0466617 0.0126896 0.00297903 0.0162789 -0.0108956 -0.0261381 -0.00863787 0.0381602 0.00360493 0.00316117 -0.0120987 0.00458655 0.0804507 0.00144774 0.00747339 0.0315379 -0.023869 0.0490686 0.0241634 -0.00594223
internal_weight=244092 50846.1 193246 40040.8 10805.3 122120 112408 14850.5 12244.1 71125.6 7928.19 25190.3 56260.9 19094 109967 9711.63 14864.6 5177.93 54993 54060 92133.7 45775.4 2877.09 6096.3 7254.64 3834.3 9139.67 4869.15 2737.6 12750.1
internal_count=1312469 260427 1052042 183831 76596 727609 665996 77099 64992 324433 51845 106732 248915 79774 655890 61613 75518 30983 243194 239158 556020 202046 24751 26958 29586 22012 57573 29450 14885 64306
is_linear=0
shrinkage=0.1


Tree=21
num_leaves=31
num_cat=0
split_feature=11 10 21 14 20 13 3 22 12 0 11 19 18 15 13 14 5 19 10 14 18 15 11 1 11 3 20 12 15 16
split_gain=3859.11 936.722 501.135 359.29 345.506 224.023 168.783 145.113 128.568 121.258 116.79 99.9505 89.8612 88.7371 84.939 130.139 76.0782 72.4939 72.2257 68.3193 73.6446 100.951 67.9059 74.7166 63.2194 62.4599 60.156 58.6454 62.2962 55.518
threshold=1244.5000000000002 56.500000000000007 57.500000000000007 39.500000000000007 62.500000000000007 7.5000000000000009 49.500000000000007 67.500000000000014 5996.5000000000009 29.500000000000004 4752.5000000000009 64.500000000000014 37.500000000000007 235.50000000000003 7.5000000000000009 7.5000000000000009 6.5000000000000009 38.500000000000007 9.5000000000000018 38.500000000000007 28.500000000000004 35.500000000000007 3777.5000000000005 99.500000000000014 277.50000000000006 1.0000000180025095e-35 5.5000000000000009 4969.5000000000009 73.500000000000014 11817.500000000002
decision_type=10 10 8 10 10 10 8 10 10 10 10 8 10 10 10 10 10 8 10 8 10 10 10 10 10 10 10 10 10 10
left_child=2 3 7 4 8 13 -4 11 14 22 -6 25 24 -3 15 -2 19 -16 -11 -9 -21 -22 23 -5 -8 -1 -13 28 -24 -18
right_child=1 5 6 9 10 -7 12 16 -10 18 -12 26 -14 -15 17 -17 29 -19 -20 20 21 -23 27 -25 -26 -27 -28 -29 -30 -31
leaf_value=0.016358816073524615 0.011696658544206881 0.058236950262407029 -0.022285772495063839 0.039535033708727824 0.031392471276112673 0.036629772504880018 -0.011135505072675181 0.013564430713520266 -0.033717353952379993 -0.030885545965749685 0.056557366910240173 -0.0088392148863936874 -0.0025545832086220225 0.087178253858347793 0.000833741861461851 0.039942819660380421 -0.033231691694903538 0.019074262753579072 0.00094650858209817011 -0.0014732288780492039 0.0046353003164645492 0.029068334889939103 0.027506377738966404 0.0037153435471929588 0.0088863848466631448 -0.0027233517161958532 -0.026037411826361809 -0.0066666988937845997 -0.021712975972677656 0.0016599997579042
leaf_weight=2043.0804559066892 2710.9296469539404 2558.6764411702752 11583.22342415899 640.39750118553638 3694.4573078304529 3640.9410818144679 88840.146716535091 6613.4214811772108 460.32549598813057 803.52479575574398 3682.5001560971141 11077.529369264841 15567.496648415923 1808.0430667921901 2867.2942340373993 4095.1067140549421 957.00293749570847 9074.62006495893 6312.3906868472695 20186.883299171925 13388.992438130081 1935.5133466571569 5009.6128611043096 6422.9477688968182 1605.5310304015875 10692.498433329165 2491.2067684084177 658.6057647690177 271.06628352403641 871.13539545238018
leaf_count=9735 11752 20511 70031 2630 19756 20208 539469 27620 2050 3376 25804 62545 78661 18497 11792 21496 4636 39798 28972 97033 60379 7986 21963 26776 6570 50847 13576 2813 1276 3911
internal_value=-2.52194e-05 0.023347 -0.00683226 0.017929 0.025559 0.0549472 -0.0108245 -0.00015007 0.0184941 0.00784644 0.0439545 -0.0060248 -0.00957222 0.0702201 0.0197761 0.028692 0.00336575 0.0146947 -0.00264795 0.00423246 0.00249453 0.00772124 0.0135897 0.00696293 -0.0107801 0.000337868 -0.0119968 0.0214706 0.0249799 -0.0166053
internal_weight=242565 54711.4 187854 46703.8 26585.2 8007.66 117596 70257.3 19208.3 20118.5 7376.96 26304.3 106013 4366.72 18748 6806.04 43952.9 11941.9 7115.92 42124.8 35511.4 15324.5 13002.6 7063.35 90445.7 12735.6 13568.7 5939.28 5280.68 1828.14
internal_count=1312469 279470 1032999 220254 132448 59216 694731 338268 86888 87806 45560 136703 624700 39008 84838 33248 201565 51590 32348 193018 165398 68365 55458 29406 546039 60582 76121 26052 23239 8547
is_linear=0
shrinkage=0.1


Tree=22
num_leaves=31
num_cat=0
split_feature=10 11 17 14 11 13 0 12 17 7 0 20 15 19 11 16 20 21 13 0 15 16 15 0 14 11 0 13 20 11
split_gain=3196.06 839.965 400.825 297.562 246.644 239.645 183.927 166.716 144.112 136.68 118.572 104.081 92.354 83.5112 68.504 66.9237 61.256 59.7742 58.5162 54.6826 89.2368 77.4591 51.3614 75.366 48.7237 61.3923 47.761 46.1857 45.6724 43.0313
threshold=4.5000000000000009 11186.500000000002 7631.5000000000009 38.500000000000007 3995.5000000000005 5.5000000000000009 1.5000000000000002 2344.5000000000005 1112.5000000000002 1299.5000000000002 13.500000000000002 111.50000000000001 222.50000000000003 107.50000000000001 3777.5000000000005 13991.000000000002 8.5000000000000018 107.50000000000001 4.5000000000000009 6.5000000000000009 48.500000000000007 1878.5000000000002 40.500000000000007 10.500000000000002 37.500000000000007 28309.500000000004 3.5000000000000004 6.5000000000000009 2.5000000000000004 1138.5000000000002
decision_type=10 10 8 10 10 10 10 8 10 8 10 10 10 10 10 8 10 8 10 10 10 10 10 10 10 10 10 10 8 10
left_child=2 3 8 4 13 12 7 29 9 16 -5 27 -3 18 -12 -16 -1 19 -2 20 -11 -21 23 -8 -7 -26 -19 -6 -9 -4
right_child=1 5 6 10 11 24 22 28 -10 17 14 -13 -14 -15 15 -17 -18 26 -20 21 -22 -23 -24 -25 25 -27 -28 -29 -30 -31
leaf_value=-0.023039536931188258 0.024687281309577449 0.054946526661603018 0.0074204280867573458 0.017236106795053552 0.04126865203836777 0.056374890896987398 -0.018612101830455259 -0.0025585689924342131 0.0058495734467663672 0.0046674390429960856 -0.0087347677512075294 0.058640384086249414 0.085425936029920935 0.025077932030249259 0.014615066175200512 -0.0054894086037490901 -0.0066845120721589386 -0.0042527952225497063 0.0058843110434489134 -0.013382813712007544 -0.075005929329126475 0.0011675647213407905 0.01982452016822208 -0.040511906632713431 0.024342004351069882 0.052404197446012706 -0.020350814876066839 0.023652871184685308 -0.0097932148779836248 0.035467788372834
leaf_weight=4429.390055090189 2147.447015106678 2545.4539359360933 1434.3217081725597 6542.4117826372385 2687.1282314807177 881.73183973133564 12121.99121658504 9752.8960335403681 23918.2048163414 20237.316644728184 4808.9527196884155 1848.1257474049926 1631.1907075792551 6310.7754842936993 4250.7950153201818 2712.1875742152333 4741.456487223506 8137.5315665155649 7218.8902897685766 5453.5374316051602 141.56140403449535 11116.596972703934 308.14411656558514 1805.4823455661535 3465.8366807624698 1005.8524511680007 2382.6398636177182 3336.2037628814578 82881.865430593491 884.24933424592018
leaf_count=23596 9725 20493 5863 27712 16658 6210 78878 55449 105732 95324 20319 13993 17949 30516 18968 13176 21841 44415 30566 26890 642 49353 1374 12099 18411 6645 13231 17089 505772 3580
internal_value=-1.84483e-05 0.0221027 -0.00600997 0.016003 0.0234381 0.0488972 -0.00995777 -0.00836861 -0.000659099 -0.00340761 0.00644293 0.0378811 0.0668503 0.0161863 0.000444469 0.00678407 -0.0145838 -0.00124843 0.0101953 0.000645056 0.00411399 -0.00362123 -0.0205576 -0.0214511 0.0348906 0.0306543 -0.00789872 0.0315116 -0.00903153 0.018117
internal_weight=241140 51393 189747 41862.9 23548.6 9530.07 109189 94953.3 80558.2 56640 18314.3 7871.46 4176.64 15677.1 11771.9 6962.98 9170.85 47469.2 9366.34 36949 20378.9 16570.1 14235.6 13927.5 5353.42 4471.69 10520.2 6023.33 92634.8 2318.57
internal_count=1312469 268430 1044039 198722 118547 69708 663015 570664 381024 275292 80175 47740 38442 70807 52463 32144 45437 229855 40291 172209 95966 76243 92351 90977 31266 25056 57646 33747 561221 9443
is_linear=0
shrinkage=0.1


Tree=23
num_leaves=31
num_cat=0
split_feature=13 20 18 14 14 10 13 0 22 13 14 4 12 7 19 5 11 15 11 2 22 22 2 1 13 18 14 0 12 19
split_gain=2674.85 790.279 389.086 247.337 218.979 174.244 155.917 147.965 135.696 104.099 140.107 99.0018 88.877 73.9043 72.7975 72.8735 60.2777 65.1957 60.1732 58.2454 60.0803 57.9436 56.4872 54.2864 51.1506 62.2479 46.803 45.8029 47.0927 42.7006
threshold=24.500000000000004 111.50000000000001 99.500000000000014 24.500000000000004 38.500000000000007 88.500000000000014 4.5000000000000009 6.5000000000000009 97.500000000000014 7.5000000000000009 7.5000000000000009 98.500000000000014 5996.5000000000009 1099.5000000000002 69.500000000000014 12.500000000000002 4170.5000000000009 103.50000000000001 15741.000000000002 499.50000000000006 94.500000000000014 44.500000000000007 629.50000000000011 55741.000000000007 83.500000000000014 29.500000000000004 99.500000000000014 20.500000000000004 376.50000000000006 100.50000000000001
decision_type=8 10 8 10 10 10 10 10 10 10 10 10 8 8 10 10 10 10 10 8 10 10 10 10 8 10 10 10 10 10
left_child=1 3 8 9 -5 16 18 12 11 10 -1 13 -4 -2 -10 24 22 -18 -3 -14 -21 -11 -6 -23 -16 -26 -13 28 -15 -8
right_child=2 6 7 4 5 -7 29 -9 14 21 -12 26 19 27 15 -17 17 -19 -20 20 -22 23 -24 -25 25 -27 -28 -29 -30 -31
leaf_value=0.0085157554730998144 -0.013717298656212469 0.055706389600805373 0.0099429034805529025 0.038265818018759779 0.019945178580055303 0.050914733530125482 0.00087840285960689372 -0.027010010663893715 -0.008140679028976321 -0.0072689410403769406 0.035235452110305349 -0.020841288422155234 -0.016054479582140801 -0.00080615653606812493 0.012677039038984204 -0.021712528353735067 0.020083200664605366 -0.015135979514808688 0.083191975769170506 -0.008637617956657153 0.0010565830791170057 0.0095527871459152591 -0.0092299728646717434 -0.02366662195506115 -0.00072626388691117514 0.0093226406512063823 0.011326373397996817 -0.011818201258747859 0.010634132688656546 0.041974368555915721
leaf_weight=6066.4429989606142 4780.9970223605633 1630.2620641738176 2623.6001773774624 7253.2451487928629 954.47337076067924 1236.159776493907 273.08903133869171 4368.4847581908107 4198.0984443202615 3797.688301384449 2900.8267509043217 4261.3988291621208 9747.1956003382802 24829.017572835088 9731.6225742697716 938.05169543623924 5516.5804144367576 580.95812854170799 1557.4527768045664 88905.208840288222 6888.3859946280718 8139.9308350384235 2177.8327944725752 523.57709631323814 12790.596117824316 11898.985771007836 506.01707419753075 3164.2022676542401 4207.9556963890791 3408.8670990988612
leaf_count=26075 24221 13927 10953 40590 4019 9683 1712 28268 19691 15471 15832 21626 61850 125777 41177 4204 28237 3653 17604 545441 38401 35196 9256 2505 57180 52034 2187 14432 17455 23812
internal_value=-1.30861e-05 0.0216606 -0.00515841 0.016171 0.0249121 0.0156575 0.0529441 -0.00896666 0.000112396 0.008943 0.0171593 -0.00386417 -0.00823793 -0.00211577 0.00430934 0.00578749 0.0109355 0.0167276 0.0691353 -0.00868988 -0.00794052 0.00303041 -0.000339748 0.00754518 0.00653692 0.00411674 -0.017427 -0.000393256 0.000851738 0.0389263
internal_weight=239857 46017.4 193840 39147.7 17719.2 10466 6869.67 112533 81306.9 21428.5 8967.27 41749.6 108164 36982.2 39557.4 35359.3 9229.84 6097.54 3187.71 105541 95793.6 12461.2 3132.31 8663.51 34421.2 24689.6 4767.42 32201.2 29037 3681.96
internal_count=1312469 247572 1064897 190517 95438 54848 57055 684913 379984 95079 41907 205698 656645 181885 174286 154595 45165 31890 31531 645692 583842 53172 13275 37701 150391 109214 23813 157664 143232 25524
is_linear=0
shrinkage=0.1


Tree=24
num_leaves=31
num_cat=0
split_feature=13 20 21 14 14 10 22 3 13 13 21 8 7 5 15 13 18 1 3 11 15 19 1 19 19 19 20 16 16 2
split_gain=2198.38 689.639 349.294 233.06 185.761 141.188 140.719 138.532 132.734 114.281 84.4312 66.794 65.269 64.1938 62.7317 61.8218 59.641 55.449 51.4294 49.2641 56.7606 44.8302 44.5034 42.4 42.0784 39.2608 56.5466 39.0921 39.0712 35.0067
threshold=22.500000000000004 111.50000000000001 57.500000000000007 22.500000000000004 39.500000000000007 89.500000000000014 54.500000000000007 49.500000000000007 4.5000000000000009 84.500000000000014 1.0000000180025095e-35 33.500000000000007 649.50000000000011 6.5000000000000009 276.50000000000006 58.500000000000007 56.500000000000007 14641.500000000002 35.500000000000007 5264.5000000000009 81.500000000000014 50.500000000000007 60063.500000000007 97.500000000000014 86.500000000000014 57.500000000000007 5.5000000000000009 44891.000000000007 6972.5000000000009 863.50000000000011
decision_type=8 10 8 10 10 10 10 8 10 8 8 8 8 10 10 8 10 10 8 10 10 8 10 8 10 8 10 10 10 10
left_child=1 3 6 10 23 19 17 -4 14 -9 -1 -12 -11 15 -3 21 -14 25 -17 28 -21 -8 24 -5 -13 -2 -27 -10 -6 -15
right_child=2 8 7 4 5 -7 13 9 27 12 11 22 16 29 -16 18 -18 -19 -20 20 -22 -23 -24 -25 -26 26 -28 -29 -30 -31
leaf_value=0.026912763774800758 0.00015848825540817283 0.055781380435867257 -0.018413996282233242 0.02585163399186903 0.008043064182531352 0.047454345008845468 -0.010401657580997373 0.010808916988320269 0.02720614244232716 -0.022813181649230033 -0.011038436009372384 0.0039768930115784478 -0.0079655189020869429 -0.040379377104653627 0.08650451728034296 -0.00087370650798952146 -0.00063006548748623516 -0.025288921104642044 0.0062733439521809528 0.022114202149362449 -0.0045117092521582353 0.011835420002674882 -0.022078952982557534 0.041024144429866904 0.014778149829105837 -0.0060482274358894831 -0.02710932135329765 0.048617665201624825 -0.014169411423909329 -0.0073387238914563464
leaf_weight=2017.7156440168619 8625.1565106064081 2036.7097713723779 11451.835462108254 3034.356570713222 2608.5633428394794 1134.0891237854958 982.65271247923374 3547.382292047143 1850.9971023797989 2691.8547486588359 2186.820821121335 8354.8573181852698 87230.856302119792 375.63416966050863 986.49330040067434 23911.942954294384 12697.207935445011 1431.0400825068355 17390.942324109375 3841.8472545295954 1011.4226834848523 11713.757452473044 487.24754115194082 4686.5382456481457 6346.358817897737 9636.9263039454818 1469.1510783657432 1581.0207543075085 1137.0665984600782 2191.3564485535026
leaf_count=9574 41766 19188 70728 15356 11082 9306 4005 14946 12004 16645 9938 34810 536820 1842 12343 111565 63579 7556 81644 20110 6373 49850 2434 28688 29123 55031 8367 12648 5082 10066
internal_value=-8.23547e-06 0.0203772 -0.00452702 0.0150951 0.0234783 0.0142898 0.00067462 -0.00796452 0.0505282 -0.00683737 0.0075501 0.0053016 -0.00744737 0.00327711 0.0658066 0.0040116 -0.00703345 -0.00628177 0.00213562 0.00991585 0.0165654 0.0101144 0.00765422 0.0350613 0.00863968 -0.00490324 -0.00883426 0.0370697 0.00129999 -0.0121736
internal_weight=238650 43302.1 195348 36846.9 17453.9 9732.99 77728.6 117619 6455.22 106167 19393 17375.3 102620 56566.3 3023.2 53999.3 99928.1 21162.3 41302.9 8598.9 4853.27 12696.4 15188.5 7720.89 14701.2 19731.2 11106.1 3432.02 3745.63 2566.99
internal_count=1312469 238059 1074410 181876 95997 51953 371692 702718 56183 631990 85879 76305 617044 258972 31531 247064 600399 112720 193209 42647 26483 53855 66367 44044 63933 105164 63398 24652 16164 11908
is_linear=0
shrinkage=0.1


Tree=25
num_leaves=31
num_cat=0
split_feature=13 10 16 14 14 0 14 10 10 20 0 13 14 15 7 19 17 15 21 0 11 15 8 22 1 0 18 0 22 0
split_gain=1804.97 618.633 318.03 179.428 300.843 155.961 139.246 148.67 137.98 87.3282 137.085 83.7668 115.507 76.7184 73.8851 72.2748 64.2479 60.7002 58.8793 72.4594 51.7102 50.0288 44.5432 44.5406 44.3267 43.1935 43.186 39.1895 37.7408 37.8565
threshold=20.500000000000004 52.500000000000007 1379.5000000000002 20.500000000000004 38.500000000000007 10.500000000000002 39.500000000000007 168.50000000000003 1.5000000000000002 13.500000000000002 21.500000000000004 6.5000000000000009 6.5000000000000009 5.5000000000000009 599.50000000000011 97.500000000000014 7631.5000000000009 14.500000000000002 57.500000000000007 1.5000000000000002 5863.5000000000009 76.500000000000014 24.500000000000004 45.500000000000007 13114.500000000002 23.500000000000004 20.500000000000004 27.500000000000004 99.500000000000014 14.500000000000002
decision_type=8 10 10 10 10 10 10 10 10 10 10 10 10 10 8 8 10 10 8 10 10 10 8 10 10 10 10 10 10 10
left_child=1 3 5 11 15 8 -3 -8 14 10 16 12 -1 25 -2 24 17 -4 23 -20 -17 -6 -13 -16 -5 -11 -19 -7 29 -24
right_child=2 6 9 4 21 27 7 -9 -10 13 -12 22 -14 -15 18 20 -18 26 19 -21 -22 -23 28 -25 -26 -27 -28 -29 -30 -31
leaf_value=0.0073505381229168531 -0.020042468105645705 0.071790719098029768 0.0041409178378486802 0.030465159329685517 0.0091667342489036626 -0.020989167260831471 0.028013762401440757 0.071114425469760031 0.011099649654518396 -0.010418846814612779 -0.020650215935056494 -0.016543267102052409 0.034385607730867358 0.0059259233575063748 -0.0063058265050429246 0.032685860240557654 -0.033400200623072994 -0.022837121904385908 -0.0063174038509870804 -0.01495429142394749 0.051711877129387032 -0.017890266245641051 0.0026880025605274527 0.0027066818620462034 0.0055605748308095891 -0.059081556546621186 -0.0018241326986709464 -0.046448872564694481 0.01078273085372599 -0.017830179409121495
leaf_weight=5441.0481957122684 3998.487482406199 1816.2596571668983 16227.352910712361 1944.3517959043384 6278.5757578834891 3694.287337243557 3214.2903282418847 1065.6324700117111 4528.6086397916079 1197.9985589832067 3608.4918778687716 1213.9475458413363 2227.2462673336267 35916.315157532692 10379.809410624206 3629.0076451078057 546.32554176449776 1512.0242506861687 89249.000592023134 10899.918486230075 2355.837628275156 766.84360830485821 3972.7037032693624 11625.02053655684 1130.0302848368883 215.15911115705967 2769.5993256121874 722.89922641217709 4250.8302735462785 1162.2976473718882
leaf_count=23915 25755 19508 74105 9263 29470 22727 24547 11840 18918 5215 16771 5390 12822 156295 58842 21072 2554 7150 546790 69677 18675 4306 16187 62132 6291 971 12184 4708 19393 4996
internal_value=-4.24465e-06 0.019232 -0.00395405 0.0140252 0.0217202 -0.00667517 0.0485905 0.0387451 -0.0060505 0.00197592 -0.00264152 0.00724145 0.0152028 0.00502669 -0.00666615 0.0337734 0.000444845 0.00134642 -0.0062283 -0.00725742 0.0401751 0.00622177 0.00148188 -0.00154457 0.0213111 -0.0178279 -0.00924472 -0.0251558 0.00381322 -0.00195625
internal_weight=237560 40468.9 197091 34372.7 16104.6 135098 6096.18 4279.92 130681 61993.3 24663.8 18268.1 7668.29 37329.5 126152 9059.23 21055.3 20509 122154 100149 5984.85 7045.42 10599.8 22004.8 3074.38 1413.16 4281.62 4417.19 9385.83 5135
internal_count=1312469 227675 1084794 171780 89077 809549 55895 36387 782114 275245 112764 82703 36737 162481 763196 55301 95993 93439 737441 616467 39747 33776 45966 120974 15554 6186 19334 27435 40576 21183
is_linear=0
shrinkage=0.1


Tree=26
num_leaves=31
num_cat=0
split_feature=10 11 12 18 14 16 13 15 0 2 0 20 15 13 18 21 11 14 22 11 15 1 0 11 15 0 10 19 15 19
split_gain=1518.34 446.901 316.234 175.719 175.702 153.215 149.814 101.728 114.648 97.3004 95.25 122.231 91.1402 73.9833 64.1331 63.4155 61.1927 60.5409 60.0948 58.124 56.1188 54.5398 51.8588 51.211 51.16 49.4088 54.5941 48.3262 48.2225 47.0437
threshold=9.5000000000000018 14319.500000000002 2344.5000000000005 34.500000000000007 39.500000000000007 20125.000000000004 2.5000000000000004 24.500000000000004 22.500000000000004 539.50000000000011 4.5000000000000009 13.500000000000002 93.500000000000014 2.5000000000000004 38.500000000000007 88.500000000000014 5109.5000000000009 39.500000000000007 104.50000000000001 734.50000000000011 74.500000000000014 16782.500000000004 32.500000000000007 39755.500000000007 5.5000000000000009 12.500000000000002 47.500000000000007 115.50000000000001 14.500000000000002 105.50000000000001
decision_type=10 10 8 10 10 8 10 10 10 8 10 10 10 10 8 8 10 10 10 10 10 10 10 10 10 10 10 8 10 10
left_child=2 4 10 9 5 13 -3 8 15 20 19 22 25 -2 -13 -5 -7 -8 21 -1 -4 29 -12 -19 -23 -6 -27 -18 -10 -11
right_child=1 6 3 7 12 16 17 -9 28 18 11 14 -14 -15 -16 -17 27 23 -20 -21 -22 24 -24 -25 -26 26 -28 -29 -30 -31
leaf_value=0.0044483130934223234 0.032386275001384406 0.068673308591694904 -0.013723404288603814 0.0045045403968596307 0.019917502750262998 0.021661540100460435 0.060447558616017666 0.0175505550788581 -0.035190335765237585 -0.0060758797029585067 -0.0053820258128159347 0.0098336465829601937 -0.013988101069656273 0.00906845781343831 -0.015314546378101007 -0.0055664049104003181 0.030042540795166318 0.023366616205401782 -0.00017285716920672524 0.018287208906209319 -0.069282503164668885 -0.032494013181704813 -0.034535720072121044 0.055539102375790572 -0.0077036981475969782 0.0027579381201119427 0.025634719781633321 0.053934755898585957 -0.0029148753225002825 -0.031112303730675167
leaf_weight=5271.7795854359865 1694.5056594237685 1748.2328546345234 14492.272112153471 18684.439137376845 3321.5887701436877 2130.4369436353445 719.55083154886961 3476.2705072462559 1287.5690519884229 98765.212259404361 8298.7047735005617 11812.981251649559 1910.4234870821238 6907.0130193755031 1109.2983112931252 9397.1535039395094 1531.8171601817012 3001.5135832503438 16415.209290064871 7152.8518211096525 184.11119601130486 1557.8360822945833 658.56878413259983 592.41054101288319 1787.8431582897902 8092.0975504815578 1197.5501141697168 1892.5102591216564 722.77810601890087 756.25724545121193
leaf_count=22038 9651 20745 88840 88432 14358 13028 7160 14594 6468 604191 35027 52358 10231 33525 4683 52296 11823 19636 80110 29517 880 10270 2883 5481 8399 35722 6473 16600 3183 3867
internal_value=-9.06874e-07 0.0193092 -0.00332461 -0.0051158 0.0140947 0.0220224 0.0439792 0.00135396 -0.000517093 -0.00673703 0.00542279 0.00145196 0.00636642 0.0136621 0.00767483 0.00113442 0.0349682 0.0339708 -0.00579168 0.0124154 -0.0144204 -0.00668831 -0.0075255 0.0286698 -0.0192467 0.00944984 0.00570704 0.043247 -0.0235864 -0.00626613
internal_weight=236571 34739.7 201831 167527 28677.9 14156.3 6061.71 33568.2 30091.9 133959 34304.2 21879.6 14521.7 8601.52 12922.3 28081.6 5554.76 4313.47 119282 12424.6 14676.4 102867 8957.27 3593.92 3345.68 12611.2 9289.65 3424.33 2010.35 99521.5
internal_count=1312469 204433 1108036 961530 151411 84627 53022 164973 150379 796557 146506 94951 66784 43176 57041 140728 41451 32277 706837 51555 89720 626727 37910 25117 18669 56553 42195 28423 9651 608058
is_linear=0
shrinkage=0.1


Tree=27
num_leaves=31
num_cat=0
split_feature=11 20 21 13 13 9 12 14 3 12 20 11 3 16 1 18 5 14 18 1 0 18 16 0 19 14 21 0 0 14
split_gain=1255.47 375.048 263.486 164.634 107.066 104.241 104.108 98.5615 87.9444 81.8878 77.2864 69.2766 58.7088 58.4793 68.6456 54.1693 52.0019 50.7951 63.819 50.0388 43.6505 43.5059 42.801 42.8001 51.5041 40.7958 39.3 37.1246 35.9723 33.6773
threshold=2787.5000000000005 177.50000000000003 57.500000000000007 5.5000000000000009 10.500000000000002 11.500000000000002 5302.0000000000009 38.500000000000007 36.500000000000007 364.50000000000006 54.500000000000007 12809.500000000002 49.500000000000007 2939.5000000000005 2964.5000000000005 32.500000000000007 10.500000000000002 97.500000000000014 57.500000000000007 1987.5000000000002 9.5000000000000018 56.500000000000007 6847.5000000000009 34.500000000000007 89.500000000000014 3.5000000000000004 2.5000000000000004 24.500000000000004 11.500000000000002 109.50000000000001
decision_type=10 10 8 10 10 10 10 8 8 10 10 10 8 8 10 10 10 8 10 10 10 10 10 10 10 10 10 10 10 10
left_child=2 3 7 10 -3 9 11 8 13 12 25 23 -4 14 -1 26 27 20 22 -11 -17 -14 -19 -5 -25 -2 -9 -15 -20 -8
right_child=1 4 5 6 -6 -7 29 15 -10 19 -12 -13 21 16 -16 17 -18 18 28 -21 -22 -23 -24 24 -26 -27 -28 -29 -30 -31
leaf_value=0.0063737991193301008 -0.012900707709089874 0.06487745262139126 -0.013756961843098763 0.013461627642431804 0.023294145030442571 -0.01881184914300818 -0.026346008402033536 0.0036859183759059481 0.024794665382711533 0.014425915319446758 0.037790085930553774 0.026283177470407416 -0.0059821158550705756 0.015056708613168698 -0.014489935045466962 0.0017890872899892216 -0.028272035222187832 0.0063201028979112594 0.0023956436991050827 -0.008536924155956133 -0.025124428845113594 0.00052895794525472696 0.020461103147661724 -0.015737652660105111 0.0073284466374616821 0.02106402409754117 -0.0042181763391114712 0.003982595854113786 -0.01284738056108602 0.014569545986325823
