{
  "features_info":
    {
      "float_features":
        [
          {
            "borders":
              [
                -3.4028234663852886e+38,
                1.5,
                2.5,
                3.5,
                4.5,
                5.5,
                6.5,
                7.5,
                8.5,
                9.5,
                10.5,
                11.5,
                12.5,
                13.5,
                14.5,
                15.5,
                16.5,
                17.5,
                18.5,
                19.5,
                20.5,
                21.5,
                22.5,
                23.5,
                25.5,
                26.5,
                27.5,
                28.5,
                29.5,
                30.5,
                31.5,
                32.5,
                33.5,
                34.5,
                35.5,
                36.5,
                37.5,
                38.5,
                51.5,
                53.5,
                54.5,
                56.5
              ],
            "feature_id":"num_products_click",
            "feature_index":0,
            "flat_feature_index":0,
            "has_nans":true,
            "nan_value_treatment":"AsFalse"
          },
          {
            "borders":
              [
                -3.4028234663852886e+38,
                78.5,
                149.5,
                378.5,
                408.5,
                1382.5,
                1932.5,
                2023.5,
                2881.5,
                3606.5,
                3840.5,
                4601.5,
                4692.5,
                4786.5,
                4970.5,
                5687.5,
                6024.5,
                6136.5,
                6250.5,
                9335.5,
                10831.5,
                11237.5,
                12292.5,
                12528.5,
                12775.5,
                13301.5,
                14685,
                14974.5,
                16502.5,
                19018.5,
                20620.5,
                26803.5,
                74570
              ],
            "feature_id":"sum_discount_price_click",
            "feature_index":1,
            "flat_feature_index":1,
            "has_nans":true,
            "nan_value_treatment":"AsFalse"
          },
          {
            "borders":
              [
                -3.4028234663852886e+38,
                60.5,
                78.5,
                163.5,
                174.5,
                241.5,
                263.5,
                499.5,
                544.5,
                829.5,
                889.5,
                1198.5,
                1236.5,
                1272,
                1280.5,
                1470.5,
                1485.5,
                2490.5,
                7601.5,
                7823,
                12481.5
              ],
            "feature_id":"max_discount_price_click",
            "feature_index":2,
            "flat_feature_index":2,
            "has_nans":true,
            "nan_value_treatment":"AsFalse"
          },
          {
            "borders":
              [
                -3.4028234663852886e+38,
                0.5,
                1.5,
                2.5,
                3.5,
                4.5,
                5.5,
                6.5,
                7.5,
                9.5,
                10.5,
                11.5,
                12.5,
                13.5,
                16.5,
                17.5,
                18.5,
                21.5,
                22.5,
                23.5,
                24.5,
                25.5,
                26.5,
                27.5,
                28.5,
                29.5,
                30.5,
                31.5,
                32.5,
                33.5,
                34.5,
                35.5,
                36.5,
                37.5,
                38.5,
                61.5
              ],
            "feature_id":"days_since_last_click",
            "feature_index":3,
            "flat_feature_index":3,
            "has_nans":true,
            "nan_value_treatment":"AsFalse"
          },
          {
            "borders":
              [
                1.5,
                2.5,
                3.5,
                4.5,
                5.5,
                7.5,
                8.5,
                11.5,
                12.5,
                13.5,
                19.5,
                22.5,
                37.5,
                39.5,
                55.5,
                69.5,
                80.5,
                81.5,
                89.5,
                90.5,
                98.5,
                99.5,
                100.5,
                101.5,
                102.5
              ],
            "feature_id":"days_since_first_click",
            "feature_index":4,
            "flat_feature_index":4,
            "has_nans":true,
            "nan_value_treatment":"AsFalse"
          },
          {
            "borders":
              [
                1.5,
                2.5,
                3.5,
                4.5,
                5.5,
                6.5,
                7.5,
                8.5,
                9.5,
                10.5,
                11.5,
                12.5,
                13.5,
                19.5,
                20.5,
                22.5,
                89.5
              ],
            "feature_id":"num_products_favorite",
            "feature_index":5,
            "flat_feature_index":5,
            "has_nans":true,
            "nan_value_treatment":"AsFalse"
          },
          {
            "borders":
              [
                -3.4028234663852886e+38,
                45.5,
                48.5,
                56.5,
                59.5,
                78.5,
                90.5,
                159.5,
                198.5,
                247.5,
                250.5,
                6862.5
              ],
            "feature_id":"sum_discount_price_favorite",
            "feature_index":6,
            "flat_feature_index":6,
            "has_nans":true,
            "nan_value_treatment":"AsFalse"
          },
          {
            "borders":
              [
                -3.4028234663852886e+38,
                47.5,
                48.5,
                56.5,
                59.5,
                69.5,
                75.5,
                78.5,
                80.5,
                88.5,
                90.5,
                99.5,
                102.5,
                114.5,
                163.5,
                279.5
              ],
            "feature_id":"max_discount_price_favorite",
            "feature_index":7,
            "flat_feature_index":7,
            "has_nans":true,
            "nan_value_treatment":"AsFalse"
          },
          {
            "borders":
              [
                -3.4028234663852886e+38,
                0.5,
                1.5,
                2.5,
                4.5,
                5.5,
                7.5,
                8.5,
                9.5,
                19.5
              ],
            "feature_id":"days_since_last_favorite",
            "feature_index":8,
            "flat_feature_index":8,
            "has_nans":true,
            "nan_value_treatment":"AsFalse"
          },
          {
            "borders":
              [
                -3.4028234663852886e+38,
                0.5,
                1.5,
                2.5,
                3.5,
                4.5,
                9.5,
                10.5,
                11.5,
                13.5,
                17.5,
                19.5,
                21.5,
                25.5,
                28.5,
                31.5,
                32.5,
                40.5,
                56.5,
                62.5,
                78.5,
                91.5
              ],
            "feature_id":"days_since_first_favorite",
            "feature_index":9,
            "flat_feature_index":9,
            "has_nans":true,
            "nan_value_treatment":"AsFalse"
          },
          {
            "borders":
              [
                -3.4028234663852886e+38,
                1.5,
                2.5,
                3.5,
                4.5,
                5.5,
                6.5,
                7.5,
                8.5,
                9.5,
                10.5,
                11.5,
                12.5,
                13.5,
                14.5,
                16.5,
                17.5,
                18.5,
                19.5,
                20.5,
                21.5,
                22.5,
                23.5,
                24.5,
                25.5,
                26.5,
                27.5,
                28.5,
                29.5,
                30.5,
                31.5,
                32.5,
                33.5,
                34.5,
                36.5,
                38.5,
                41.5,
                42.5,
                43.5,
                44.5,
                46.5,
                47.5,
                48.5,
                50.5,
                51.5,
                52.5,
                53.5,
                55.5,
                56.5,
                57.5,
                58.5,
                60.5,
                61.5,
                63.5,
                64.5,
                65.5,
                68.5,
                70.5,
                72.5,
                73.5,
                75.5,
                78.5,
                79.5,
                80.5,
                82.5,
                83.5,
                84.5,
                85.5,
                86.5,
                88.5,
                91.5,
                92.5,
                93.5,
                94.5,
                95.5,
                107.5,
                119.5,
                120.5,
                121.5,
                126.5,
                133.5,
                139.5,
                143.5,
                147.5,
                148.5,
                154.5,
                158.5,
                160.5,
                162.5,
                166.5,
                167.5,
                170.5,
                172.5,
                180.5,
                183.5,
                184.5,
                188.5,
                189.5,
                195.5
              ],
            "feature_id":"num_products_order",
            "feature_index":10,
            "flat_feature_index":10,
            "has_nans":true,
            "nan_value_treatment":"AsFalse"
          },
          {
            "borders":
              [
                88.5,
                147.5,
                187.5,
                219.5,
                245.5,
                276.5,
                298.5,
                319.5,
                347.5,
                369.5,
                388.5,
                415.5,
                442.5,
                482.5,
                500.5,
                553.5,
                567.5,
                582.5,
                598.5,
                640.5,
                671.5,
                688.5,
                704.5,
                738.5,
                757.5,
                775.5,
                824.5,
                842.5,
                858.5,
                875.5,
                949.5,
                990.5,
                1026.5,
                1046.5,
                1066.5,
                1084.5,
                1102.5,
                1124.5,
                1145.5,
                1166.5,
                1207.5,
                1265.5,
                1286.5,
                1304.5,
                1323.5,
                1343.5,
                1364.5,
                1410.5,
                1432.5,
                1495.5,
                1579.5,
                1600.5,
                1622.5,
                1670.5,
                1695.5,
                1718.5,
                1746.5,
                1803.5,
                1829.5,
                1856.5,
                1883.5,
                1908.5,
                1939.5,
                1965.5,
                1998.5,
                2027.5,
                2057.5,
                2138.5,
                2170.5,
                2260.5,
                2289.5,
                2321.5,
                2357.5,
                2391.5,
                2457.5,
                2525.5,
                2559.5,
                2593.5,
                2628.5,
                2671.5,
                2712.5,
                2783.5,
                2865.5,
                2908.5,
                2987.5,
                3069.5,
                3190.5,
                3237.5,
                3328.5,
                3377.5,
                3422.5,
                3465.5,
                3511.5,
                3605.5,
                3751.5,
                3859.5,
                3912.5,
                3962.5,
                4015.5,
                4070.5,
                4129.5,
                4195.5,
                4259.5,
                4444.5,
                4634.5,
                4777.5,
                5068.5,
                5305.5,
                5398.5,
                5565.5,
                5648.5,
                5731.5,
                5828.5,
                5995.5,
                6098.5,
                6294.5,
                6397.5,
                6595.5,
                6708.5,
                6934.5,
                7049,
                7169.5,
                7406.5,
                7537.5,
                8165.5,
                8298.5,
                8579,
                8861.5,
                9012.5,
                9485.5,
                9633.5,
                9975.5,
                10157,
                10350.5,
                10559.5,
                11011.5,
                11263.5,
                11479.5,
                11967,
                12208,
                12483.5,
                12757.5,
                13615,
                14188.5,
                14510,
                14832.5,
                15212.5,
                15591.5,
                15937.5,
                16303.5,
                17634.5,
                18560.5,
                20240,
                20828.5,
                26458.5,
                27537,
                29981.5,
                31297,
                41965.5
              ],
            "feature_id":"sum_discount_price_order",
            "feature_index":11,
            "flat_feature_index":11,
            "has_nans":true,
            "nan_value_treatment":"AsFalse"
          },
          {
            "borders":
              [
                -3.4028234663852886e+38,
                74.5,
                96.5,
                108.5,
                119.5,
                131,
                141.5,
                151.5,
                167.5,
                178.5,
                187.5,
                194.5,
                223.5,
                269.5,
                289.5,
                308.5,
                311.5,
                329.5,
                348.5,
                359.5,
                369.5,
                399.5,
                416.5,
                428.5,
                458.5,
                471.5,
                473.5,
                507.5,
                580.5,
                609.5,
                628.5,
                638.5,
                678.5,
                699.5,
                700.5,
                723.5,
                739.5,
                783.5,
                976.5,
                998.5,
                1790.5,
                2298.5,
                2349,
                2437.5,
                2766.5,
                4021.5,
                4378.5,
                4969.5,
                5713.5,
                6524.5,
                7916.5
              ],
            "feature_id":"max_discount_price_order",
            "feature_index":12,
            "flat_feature_index":12,
            "has_nans":true,
            "nan_value_treatment":"AsFalse"
          },
          {
            "borders":
              [
                -3.4028234663852886e+38,
                0.5,
                1.5,
                2.5,
                3.5,
                4.5,
                5.5,
                6.5,
                7.5,
                8.5,
                9.5,
                10.5,
                11.5,
                12.5,
                13.5,
                14.5,
                15.5,
                16.5,
                17.5,
                18.5,
                19.5,
                20.5,
                21.5,
                22.5,
                23.5,
                24.5,
                25.5,
                26.5,
                27.5,
                29.5,
                30.5,
                31.5,
                32.5,
                33.5,
                34.5,
                35.5,
                36.5,
                37.5,
                38.5,
                39.5,
                40.5,
                41.5,
                42.5,
                43.5,
                44.5,
                45.5,
                46.5,
                47.5,
                48.5,
                49.5,
                50.5,
                51.5,
                53.5,
                54.5,
                55.5,
                56.5,
                59.5,
                62.5,
                63.5,
                69.5,
                74.5,
                75.5,
                76.5,
                77.5,
                78.5,
                79.5,
                80.5,
                84.5,
                86.5,
                88.5,
                93.5,
                104.5,
                105.5
              ],
            "feature_id":"days_since_last_order",
            "feature_index":13,
            "flat_feature_index":13,
            "has_nans":true,
            "nan_value_treatment":"AsFalse"
          },
          {
            "borders":
              [
                -3.4028234663852886e+38,
                0.5,
                1.5,
                2.5,
                3.5,
                4.5,
                5.5,
                9.5,
                10.5,
                11.5,
                12.5,
                13.5,
                14.5,
                15.5,
                16.5,
                17.5,
                18.5,
                19.5,
                20.5,
                21.5,
                22.5,
                24.5,
                25.5,
                36.5,
                37.5,
                38.5,
                39.5,
                40.5,
                41.5,
                42.5,
                43.5,
                44.5,
                45.5,
                46.5,
                47.5,
                49.5,
                50.5,
                51.5,
                52.5,
                53.5,
                54.5,
                57.5,
                85.5,
                89.5
              ],
            "feature_id":"days_since_first_order",
            "feature_index":14,
            "flat_feature_index":14,
            "has_nans":true,
            "nan_value_treatment":"AsFalse"
          },
          {
            "borders":
              [
                -3.4028234663852886e+38,
                1.5,
                2.5,
                3.5,
                4.5,
                5.5,
                6.5,
                7.5,
                8.5,
                9.5,
                10.5,
                11.5,
                12.5,
                13.5,
                14.5,
                15.5,
                16.5,
                17.5,
                18.5,
                19.5,
                20.5,
                21.5,
                22.5,
                23.5,
                24.5,
                25.5,
                26.5,
                27.5,
                28.5,
                29.5,
                30.5,
                31.5,
                32.5,
                35.5,
                36.5,
                40.5,
                41.5,
                42.5,
                43.5,
                44.5,
                47.5,
                48.5,
                51.5,
                53.5,
                58.5,
                59.5,
                62.5,
                63.5,
                71.5,
                74.5,
                78.5,
                79.5,
                80.5,
                81.5,
                83.5,
                89.5,
                92.5,
                95.5,
                100.5,
                101.5,
                102.5,
                104.5,
                107.5,
                108.5,
                120.5,
                122.5,
                133.5,
                135.5,
                137.5,
                139.5,
                140.5,
                141.5,
                214.5
              ],
            "feature_id":"num_products_to_cart",
            "feature_index":15,
            "flat_feature_index":15,
            "has_nans":true,
            "nan_value_treatment":"AsFalse"
          },
          {
            "borders":
              [
                135.5,
                187.5,
                216.5,
                229.5,
                241.5,
                268.5,
                279.5,
                294.5,
                318.5,
                333.5,
                348.5,
                360.5,
                392.5,
                408.5,
                448.5,
                465.5,
                487.5,
                502.5,
                545.5,
                588.5,
                645.5,
                668.5,
                689.5,
                708.5,
                732.5,
                755.5,
                798.5,
                824.5,
                848.5,
                957.5,
                983.5,
                1012.5,
                1041.5,
                1127.5,
                1185.5,
                1214.5,
                1302.5,
                1370.5,
                1405.5,
                1471.5,
                1506.5,
                1576.5,
                1649.5,
                1688.5,
                1725.5,
                1767.5,
                1805.5,
                1848.5,
                1892.5,
                1933.5,
                1978.5,
                2114.5,
                2162.5,
                2207.5,
                2254.5,
                2352.5,
                2451.5,
                2556.5,
                2721.5,
                2778.5,
                2837.5,
                2894.5,
                3007.5,
                3328.5,
                3470.5,
                3534.5,
                3750.5,
                3816.5,
                3889.5,
                3968.5,
                4048.5,
                4125.5,
                4207.5,
                4288.5,
                4372.5,
                4541.5,
                4713.5,
                4903.5,
                4998.5,
                5285.5,
                5497.5,
                5592.5,
                5704.5,
                5815.5,
                6154.5,
                6275.5,
                6388.5,
                6501.5,
                6621.5,
                6746.5,
                6877.5,
                6999.5,
                7129.5,
                7261.5,
                7685.5,
                7837,
                7987.5,
                8130.5,
                8456.5,
                8621.5,
                8785.5,
                9136.5,
                9294.5,
                9455.5,
                9624.5,
                9811.5,
                9996.5,
                10193.5,
                10401.5,
                10605.5,
                10809.5,
                11014.5,
                11398.5,
                12046.5,
                12281.5,
                13010.5,
                13529,
                13795.5,
                14660.5,
                14968.5,
                15245,
                16198,
                16536,
                16849.5,
                17889.5,
                18244.5,
                19498.5,
                20383.5,
                21655.5,
                22107.5,
                22583.5,
                24121,
                25229.5,
                25815,
                26402.5,
                27034,
                28334.5,
                29812.5,
                32903.5,
                33770.5,
                35628.5,
                38667,
                41030,
                44980.5
              ],
            "feature_id":"sum_discount_price_to_cart",
            "feature_index":16,
            "flat_feature_index":16,
            "has_nans":true,
            "nan_value_treatment":"AsFalse"
          },
          {
            "borders":
              [
                50.5,
                65.5,
                83.5,
                89.5,
                100.5,
                109.5,
                135.5,
                152.5,
                180.5,
                188.5,
                199.5,
                209.5,
                217.5,
                222.5,
                229.5,
                237.5,
                239.5,
                246.5,
                249.5,
                269.5,
                276.5,
                288.5,
                293.5,
                298.5,
                299.5,
                306.5,
                309.5,
                318.5,
                324.5,
                329.5,
                344.5,
                348.5,
                349.5,
                360.5,
                368.5,
                369.5,
                378.5,
                408.5,
                415.5,
                419.5,
                473.5,
                488.5,
                521.5,
                559.5,
                581.5,
                591.5,
                609.5,
                632.5,
                649.5,
                698.5,
                725.5,
                769.5,
                781.5,
                798.5,
                799.5,
                822.5,
                829.5,
                861.5,
                882.5,
                902.5,
                973.5,
                980.5,
                989.5,
                1019.5,
                1053.5,
                1090.5,
                1098.5,
                1103.5,
                1138.5,
                1199.5,
                1268.5,
                1280.5,
                6430.5,
                7200,
                9537
              ],
            "feature_id":"max_discount_price_to_cart",
            "feature_index":17,
            "flat_feature_index":17,
            "has_nans":true,
            "nan_value_treatment":"AsFalse"
          },
          {
            "borders":
              [
                -3.4028234663852886e+38,
                0.5,
                2.5,
                3.5,
                4.5,
                5.5,
                6.5,
                7.5,
                8.5,
                9.5,
                10.5,
                11.5,
                12.5,
                13.5,
                14.5,
                15.5,
                16.5,
                17.5,
                18.5,
                19.5,
                20.5,
                21.5,
                22.5,
                23.5,
                24.5,
                25.5,
                26.5,
                27.5,
                28.5,
                29.5,
                30.5,
                31.5,
                32.5,
                33.5,
                34.5,
                35.5,
                36.5,
                37.5,
                38.5,
                39.5,
                81.5
              ],
            "feature_id":"days_since_last_to_cart",
            "feature_index":18,
            "flat_feature_index":18,
            "has_nans":true,
            "nan_value_treatment":"AsFalse"
          },
          {
            "borders":
              [
                -3.4028234663852886e+38,
                7.5,
                9.5,
                23.5,
                27.5,
                34.5,
                36.5,
                37.5,
                38.5,
                41.5,
                42.5,
                51.5,
                64.5,
                65.5,
                66.5,
                67.5,
                68.5,
                69.5,
                70.5,
                71.5,
                72.5,
                73.5,
                75.5,
                76.5,
                77.5,
                78.5,
                79.5,
                80.5,
                81.5,
                82.5,
                83.5,
                84.5,
                86.5,
                88.5,
                89.5,
                91.5,
                92.5,
                93.5,
                94.5,
                101.5,
                103.5,
                105.5,
                106.5,
                108.5,
                111.5
              ],
            "feature_id":"days_since_first_to_cart",
            "feature_index":19,
            "flat_feature_index":19,
            "has_nans":true,
            "nan_value_treatment":"AsFalse"
          },
          {
            "borders":
              [
                -3.4028234663852886e+38,
                0.5,
                1.5,
                2.5,
                3.5,
                4.5,
                5.5,
                6.5,
                7.5,
                8.5,
                9.5,
                10.5,
                11.5,
                12.5,
                13.5,
                14.5,
                15.5,
                16.5,
                17.5,
                19.5,
                20.5,
                22.5,
                23.5,
                24.5,
                25.5,
                26.5,
                27.5,
                28.5,
                29.5,
                31.5,
                34.5,
                37.5,
                38.5,
                39.5,
                41.5,
                43.5,
                46.5,
                50.5,
                52.5,
                54.5,
                57.5,
                59.5,
                61.5,
                65.5,
                67.5,
                68.5,
                69.5,
                70.5,
                71.5,
                76.5,
                82.5,
                87.5,
                89.5,
                97.5,
                100.5,
                107.5,
                110.5,
                111.5,
                125.5,
                128.5,
                134.5,
                140.5,
                142.5,
                157.5,
                162.5,
                169.5,
                170.5,
                175.5,
                176.5,
                178.5,
                182.5,
                199.5
              ],
            "feature_id":"num_search",
            "feature_index":20,
            "flat_feature_index":20,
            "has_nans":true,
            "nan_value_treatment":"AsFalse"
          },
          {
            "borders":
              [
                -3.4028234663852886e+38,
                0.5,
                1.5,
                2.5,
                3.5,
                4.5,
                7.5,
                12.5,
                16.5,
                20.5,
                28.5,
                31.5,
                53.5,
                54.5,
                56.5,
                57.5,
                58.5,
                59.5,
                60.5,
                61.5,
                62.5,
                63.5,
                64.5,
                65.5,
                66.5,
                68.5,
                70.5,
                71.5,
                72.5,
                73.5,
                74.5,
                83.5,
                84.5,
                89.5,
                90.5,
                94.5
              ],
            "feature_id":"days_since_last_search",
            "feature_index":21,
            "flat_feature_index":21,
            "has_nans":true,
            "nan_value_treatment":"AsFalse"
          },
          {
            "borders":
              [
                -3.4028234663852886e+38,
                0.5,
                1.5,
                2.5,
                3.5,
                4.5,
                5.5,
                8.5,
                10.5,
                14.5,
                24.5,
                25.5,
                28.5,
                29.5,
                30.5,
                31.5,
                32.5,
                35.5,
                36.5,
                37.5,
                38.5,
                39.5,
                41.5,
                42.5,
                43.5,
                44.5,
                47.5,
                48.5,
                52.5,
                54.5,
                55.5,
                56.5,
                62.5,
                64.5,
                65.5,
                67.5,
                68.5,
                69.5,
                70.5,
                71.5,
                72.5,
                73.5,
                74.5,
                75.5,
                76.5,
                77.5,
                79.5,
                81.5,
                82.5,
                83.5,
                84.5,
                86.5,
                87.5,
                88.5,
                89.5,
                92.5,
                94.5,
                95.5,
                96.5,
                97.5,
                98.5,
                99.5,
                100.5,
                101.5,
                102.5,
                103.5,
                104.5,
                105.5,
                106.5,
                107.5,
                109.5,
                110.5,
                111.5,
                112.5,
                113.5,
                114.5
              ],
            "feature_id":"days_since_first_search",
            "feature_index":22,
            "flat_feature_index":22,
            "has_nans":true,
            "nan_value_treatment":"AsFalse"
          }
        ]
    },
  "model_info":
    {
      "catboost_version_info":"Git info:\n    Commit: f903943a8cd903a117c3d3c8421cc72d3910562c\n    Branch: tags/v1.2.7\n    Author: akhropov <akhropov@yandex-team.com>\n    Summary: CatBoost Release 1.2.7. e8fed88cb7baa390f4cfb62bcb925f84a3f073a7\n    git-svn info:\n    Last Changed Rev: 9293085\n\nOther info:\n    Build by: runneradmin\n    Top src dir: D:/a/catboost/catboost/catboost\n",
      "class_params":
        {
          "class_label_type":"Integer",
          "class_names":
            [
              0,
              1
            ],
          "class_to_label":
            [
              0,
              1
            ],
          "classes_count":0
        },
      "model_guid":"16c44450-e460f28f-f22f1d08-e436a66c",
      "output_options":"{\"name\":\"experiment\",\"verbose\":500,\"test_error_log\":\"test_error.tsv\",\"json_log\":\"catboost_training.json\",\"result_model_file\":\"model\",\"roc_file\":\"\",\"eval_file_name\":\"\",\"use_best_model\":true,\"allow_writing_files\":true,\"prediction_type\":[\"RawFormulaVal\"],\"fstr_internal_file\":\"\",\"output_columns\":[\"SampleId\",\"RawFormulaVal\",\"Label\"],\"snapshot_interval\":600,\"time_left_log\":\"time_left.tsv\",\"fstr_type\":\"FeatureImportance\",\"profile_log\":\"catboost_profile.log\",\"train_dir\":\"catboost_info\",\"learn_error_log\":\"learn_error.tsv\",\"training_options_file\":\"\",\"snapshot_file\":\"experiment.cbsnapshot\",\"save_snapshot\":false,\"model_format\":[\"CatboostBinary\"],\"final_feature_calcer_computation_mode\":\"Default\",\"metric_period\":1,\"output_borders\":\"\",\"final_ctr_computation_mode\":\"Default\",\"best_model_min_trees\":1,\"fstr_regular_file\":\"\"}",
      "params":
        {
          "boosting_options":
            {
              "approx_on_full_history":false,
              "boost_from_average":false,
              "boosting_type":"Plain",
              "fold_len_multiplier":2,
              "fold_permutation_block":0,
              "iterations":500,
              "learning_rate":0.0099999997764825821,
              "model_shrink_mode":"Constant",
              "model_shrink_rate":0,
              "od_config":
                {
                  "stop_pvalue":0,
                  "type":"Iter",
                  "wait_iterations":20
                },
              "permutation_count":4,
              "posterior_sampling":false
            },
          "cat_feature_params":
            {
              "combinations_ctrs":
                [
                  {
                    "ctr_binarization":
                      {
                        "border_count":15,
                        "border_type":"Uniform"
                      },
                    "ctr_type":"Borders",
                    "prior_estimation":"No",
                    "priors":
                      [
                        [
                          0,
                          1
                        ],
                        [
                          0.5,
                          1
                        ],
                        [
                          1,
                          1
                        ]
                      ],
                    "target_binarization":
                      {
                        "border_count":1,
                        "border_type":"MinEntropy"
                      }
                  },
                  {
                    "ctr_binarization":
                      {
                        "border_count":15,
                        "border_type":"Uniform"
                      },
                    "ctr_type":"Counter",
                    "prior_estimation":"No",
                    "priors":
                      [
                        [
                          0,
                          1
                        ]
                      ]
                  }
                ],
              "counter_calc_method":"SkipTest",
              "ctr_leaf_count_limit":18446744073709551615,
              "max_ctr_complexity":4,
              "one_hot_max_size":2,
              "per_feature_ctrs":
                {
                },
              "simple_ctrs":
                [
                  {
                    "ctr_binarization":
                      {
                        "border_count":15,
                        "border_type":"Uniform"
                      },
                    "ctr_type":"Borders",
                    "prior_estimation":"No",
                    "priors":
                      [
                        [
                          0,
                          1
                        ],
                        [
                          0.5,
                          1
                        ],
                        [
                          1,
                          1
                        ]
                      ],
                    "target_binarization":
                      {
                        "border_count":1,
                        "border_type":"MinEntropy"
                      }
                  },
                  {
                    "ctr_binarization":
                      {
                        "border_count":15,
                        "border_type":"Uniform"
                      },
                    "ctr_type":"Counter",
                    "prior_estimation":"No",
                    "priors":
                      [
                        [
                          0,
                          1
                        ]
                      ]
                  }
                ],
              "store_all_simple_ctr":false,
              "target_binarization":
                {
                  "border_count":1,
                  "border_type":"MinEntropy"
                }
            },
          "data_processing_options":
            {
              "allow_const_label":false,
              "auto_class_weights":"None",
              "class_names":
                [
                  0,
                  1
                ],
              "class_weights":
                [
                ],
              "classes_count":0,
              "dev_default_value_fraction_for_sparse":0.82999998331069946,
              "dev_group_features":false,
              "dev_leafwise_scoring":false,
              "dev_sparse_array_indexing":"Indices",
              "embedding_processing_options":
                {
                  "embedding_processing":
                    {
                      "default":
                        [
                          "LDA",
                          "KNN"
                        ]
                    }
                },
              "eval_fraction":0,
              "float_features_binarization":
                {
                  "border_count":254,
                  "border_type":"GreedyLogSum",
                  "dev_max_subset_size_for_build_borders":200000,
                  "nan_mode":"Min"
                },
              "force_unit_auto_pair_weights":false,
              "has_time":false,
              "ignored_features":
                [
                ],
              "per_float_feature_quantization":
                {
                },
              "target_border":null,
              "text_processing_options":
                {
                  "dictionaries":
                    [
                      {
                        "dictionary_id":"BiGram",
                        "end_of_sentence_token_policy":"Skip",
                        "end_of_word_token_policy":"Insert",
                        "gram_order":"2",
                        "max_dictionary_size":"50000",
                        "occurrence_lower_bound":"5",
                        "skip_step":"0",
                        "start_token_id":"0",
                        "token_level_type":"Word"
                      },
                      {
                        "dictionary_id":"Word",
                        "end_of_sentence_token_policy":"Skip",
                        "end_of_word_token_policy":"Insert",
                        "gram_order":"1",
                        "max_dictionary_size":"50000",
                        "occurrence_lower_bound":"5",
                        "skip_step":"0",
                        "start_token_id":"0",
                        "token_level_type":"Word"
                      }
                    ],
                  "feature_processing":
                    {
                      "default":
                        [
                          {
                            "dictionaries_names":
                              [
                                "BiGram",
                                "Word"
                              ],
                            "feature_calcers":
                              [
                                "BoW"
                              ],
                            "tokenizers_names":
                              [
                                "Space"
                              ]
                          },
                          {
                            "dictionaries_names":
                              [
                                "Word"
                              ],
                            "feature_calcers":
                              [
                                "NaiveBayes"
                              ],
                            "tokenizers_names":
                              [
                                "Space"
                              ]
                          }
                        ]
                    },
                  "tokenizers":
                    [
                      {
                        "delimiter":" ",
                        "languages":
                          [
                          ],
                        "lemmatizing":"0",
                        "lowercasing":"0",
                        "number_process_policy":"LeaveAsIs",
                        "number_token":"🔢",
                        "separator_type":"ByDelimiter",
                        "skip_empty":"1",
                        "split_by_set":"0",
                        "subtokens_policy":"SingleToken",
                        "token_types":
                          [
                            "Number",
                            "Unknown",
                            "Word"
                          ],
                        "tokenizer_id":"Space"
                      }
                    ]
                }
            },
          "detailed_profile":false,
          "flat_params":
            {
              "eval_metric":"AUC",
              "iterations":500,
              "learning_rate":0.01,
              "loss_function":"Logloss",
              "od_wait":20,
              "thread_count":16,
              "verbose":500
            },
          "logging_level":"Verbose",
          "loss_function":
            {
              "params":
                {
                },
              "type":"Logloss"
            },
          "metadata":
            {
            },
          "metrics":
            {
              "custom_metrics":
                [
                ],
              "eval_metric":
                {
                  "params":
                    {
                    },
                  "type":"AUC"
                },
              "objective_metric":
                {
                  "params":
                    {
                    },
                  "type":"Logloss"
                }
            },
          "pool_metainfo_options":
            {
              "tags":
                {
                }
            },
          "random_seed":0,
          "system_options":
            {
              "file_with_hosts":"hosts.txt",
              "node_port":0,
              "node_type":"SingleHost",
              "thread_count":16,
              "used_ram_limit":""
            },
          "task_type":"CPU",
          "tree_learner_options":
            {
              "bayesian_matrix_reg":0.10000000149011612,
              "bootstrap":
                {
                  "mvs_reg":null,
                  "subsample":0.80000001192092896,
                  "type":"MVS"
                },
              "depth":6,
              "dev_efb_max_buckets":1024,
              "dev_leafwise_approxes":false,
              "dev_score_calc_obj_block_size":5000000,
              "grow_policy":"SymmetricTree",
              "l2_leaf_reg":3,
              "leaf_estimation_backtracking":"AnyImprovement",
              "leaf_estimation_iterations":10,
              "leaf_estimation_method":"Newton",
              "max_leaves":64,
              "min_data_in_leaf":1,
              "model_size_reg":0.5,
              "monotone_constraints":
                {
                },
              "penalties":
                {
                  "feature_weights":
                    {
                    },
                  "first_feature_use_penalties":
                    {
                    },
                  "penalties_coefficient":1,
                  "per_object_feature_penalties":
                    {
                    }
                },
              "random_score_type":"NormalWithModelSizeDecrease",
              "random_strength":1,
              "rsm":1,
              "sampling_frequency":"PerTree",
              "score_function":"Cosine",
              "sparse_features_conflict_fraction":0
            }
        },
      "train_finish_time":"2025-03-27T19:55:18Z",
      "training":"{\"metrics\":{\"best_iteration\":498,\"learn_best_error\":{\"Logloss\":0.5228932119283486},\"test_metrics_history\":[[{\"Logloss\":0.6896430286417935,\"AUC\":0.7446684993407777}],[{\"Logloss\":0.6862297059894423,\"AUC\":0.7469632271276269}],[{\"Logloss\":0.6829118291960936,\"AUC\":0.7471108410683063}],[{\"Logloss\":0.6796244945203741,\"AUC\":0.7474035263595176}],[{\"Logloss\":0.6763902274939236,\"AUC\":0.7475670095600941}],[{\"Logloss\":0.6732448396024848,\"AUC\":0.7478293932707123}],[{\"Logloss\":0.6701756536172823,\"AUC\":0.7478412281502199}],[{\"Logloss\":0.6671886284462092,\"AUC\":0.7480077955486352}],[{\"Logloss\":0.6642476594643762,\"AUC\":0.7483659882631128}],[{\"Logloss\":0.6613957491459339,\"AUC\":0.7490779483747532}],[{\"Logloss\":0.6585635898868025,\"AUC\":0.7494746464496242}],[{\"Logloss\":0.6558154594385994,\"AUC\":0.7494856592838706}],[{\"Logloss\":0.6531385830427582,\"AUC\":0.7512403783895887}],[{\"Logloss\":0.6504949164160959,\"AUC\":0.7510668260122599}],[{\"Logloss\":0.6479339728227674,\"AUC\":0.7510933692790154}],[{\"Logloss\":0.64540042563209,\"AUC\":0.751099884167099}],[{\"Logloss\":0.6429316353955333,\"AUC\":0.7511016536114465}],[{\"Logloss\":0.6405173797166034,\"AUC\":0.7510860282264223}],[{\"Logloss\":0.6381662285933364,\"AUC\":0.7510816095250816}],[{\"Logloss\":0.6358456538735631,\"AUC\":0.750954096948597}],[{\"Logloss\":0.6335885667964168,\"AUC\":0.7509442484208726}],[{\"Logloss\":0.631404389532102,\"AUC\":0.7509827205265551}],[{\"Logloss\":0.6292484897993876,\"AUC\":0.7512991018938114}],[{\"Logloss\":0.627139807420453,\"AUC\":0.7514185559831595}],[{\"Logloss\":0.6250708715310941,\"AUC\":0.7513867904609597}],[{\"Logloss\":0.6230203568138954,\"AUC\":0.7513791720549867}],[{\"Logloss\":0.6210121437392465,\"AUC\":0.7513710375890534}],[{\"Logloss\":0.6190588887811633,\"AUC\":0.7513765654031876}],[{\"Logloss\":0.6171578302051697,\"AUC\":0.7513991935938884}],[{\"Logloss\":0.6152722591570354,\"AUC\":0.7513898305499735}],[{\"Logloss\":0.6134531814380527,\"AUC\":0.7513911253226635}],[{\"Logloss\":0.6116705382073484,\"AUC\":0.7514085968651633}],[{\"Logloss\":0.609917734785162,\"AUC\":0.7514093934326305}],[{\"Logloss\":0.6081760396496801,\"AUC\":0.751424316342486}],[{\"Logloss\":0.606492282871243,\"AUC\":0.7514200101406779}],[{\"Logloss\":0.6048260579375913,\"AUC\":0.7514207632077664}],[{\"Logloss\":0.6032195947806436,\"AUC\":0.7514205853457674}],[{\"Logloss\":0.6016622879381871,\"AUC\":0.7514132155913166}],[{\"Logloss\":0.6001183715287448,\"AUC\":0.7514540186599024}],[{\"Logloss\":0.5985980173294847,\"AUC\":0.7515070460482841}],[{\"Logloss\":0.5971186899055942,\"AUC\":0.751508572163262}],[{\"Logloss\":0.5956792472231951,\"AUC\":0.751514212588827}],[{\"Logloss\":0.5942535835938202,\"AUC\":0.7515246264116671}],[{\"Logloss\":0.5928632747035991,\"AUC\":0.7515322794920578}],[{\"Logloss\":0.5915182170088988,\"AUC\":0.7515317190365342}],[{\"Logloss\":0.5901805221050108,\"AUC\":0.7515380650634205}],[{\"Logloss\":0.5888771881760047,\"AUC\":0.7518207946145588}],[{\"Logloss\":0.5875984523087286,\"AUC\":0.7518254905713685}],[{\"Logloss\":0.5863469919727711,\"AUC\":0.7518349837597447}],[{\"Logloss\":0.5851050647990759,\"AUC\":0.7518383488917018}],[{\"Logloss\":0.5839149389431445,\"AUC\":0.7518333963665804}],[{\"Logloss\":0.5827439112462345,\"AUC\":0.7518349052352666}],[{\"Logloss\":0.5816218088202811,\"AUC\":0.7518348572100092}],[{\"Logloss\":0.5805332021827629,\"AUC\":0.7518277186649673}],[{\"Logloss\":0.5794324777476417,\"AUC\":0.7518249515233464}],[{\"Logloss\":0.5783744654870752,\"AUC\":0.75181823982752}],[{\"Logloss\":0.5773367554412596,\"AUC\":0.7518732813323962}],[{\"Logloss\":0.5763243582932133,\"AUC\":0.7518409034479505}],[{\"Logloss\":0.5753184025833588,\"AUC\":0.7518799985322093}],[{\"Logloss\":0.5743391045997458,\"AUC\":0.7519273571288627}],[{\"Logloss\":0.5733922443674652,\"AUC\":0.7520622457890331}],[{\"Logloss\":0.5724434655462521,\"AUC\":0.7520283593995701}],[{\"Logloss\":0.5715292755127972,\"AUC\":0.7520447608817065}],[{\"Logloss\":0.570612480658039,\"AUC\":0.7520416369950175}],[{\"Logloss\":0.5697182026950184,\"AUC\":0.7520457121272892}],[{\"Logloss\":0.5688367958741307,\"AUC\":0.7521243028070116}],[{\"Logloss\":0.5679650217061499,\"AUC\":0.7521355160437264}],[{\"Logloss\":0.5671136337212404,\"AUC\":0.7521528970257109}],[{\"Logloss\":0.5663025179797925,\"AUC\":0.7522027699582468}],[{\"Logloss\":0.5655029526487241,\"AUC\":0.7522169944702197}],[{\"Logloss\":0.5647061894923342,\"AUC\":0.752287151916134}],[{\"Logloss\":0.5639444982616482,\"AUC\":0.752268641085243}],[{\"Logloss\":0.5632034903228565,\"AUC\":0.7522706840924231}],[{\"Logloss\":0.5624681470673739,\"AUC\":0.7522780793666298}],[{\"Logloss\":0.5617681490114615,\"AUC\":0.7522484494892334}],[{\"Logloss\":0.5610700133894904,\"AUC\":0.7522933509509043}],[{\"Logloss\":0.5603660808505428,\"AUC\":0.7522802196132419}],[{\"Logloss\":0.5596775313121876,\"AUC\":0.7522851044749925}],[{\"Logloss\":0.5590183323992807,\"AUC\":0.7523053843515941}],[{\"Logloss\":0.5583760286485427,\"AUC\":0.7523054870810257}],[{\"Logloss\":0.5577323101281766,\"AUC\":0.7523030793140776}],[{\"Logloss\":0.5571168167057109,\"AUC\":0.7523661171537002}],[{\"Logloss\":0.5565055627708242,\"AUC\":0.7524285940552385}],[{\"Logloss\":0.5559023879696586,\"AUC\":0.7525132456455381}],[{\"Logloss\":0.5553155622726076,\"AUC\":0.7525662261905859}],[{\"Logloss\":0.5547331484096895,\"AUC\":0.7525057926249281}],[{\"Logloss\":0.554155568258355,\"AUC\":0.7525082941834487}],[{\"Logloss\":0.553585228406691,\"AUC\":0.7525096100419331}],[{\"Logloss\":0.5530510851074357,\"AUC\":0.7524818184681656}],[{\"Logloss\":0.5525149049726169,\"AUC\":0.7524837701245501}],[{\"Logloss\":0.5520020179633152,\"AUC\":0.7525395166292954}],[{\"Logloss\":0.5515082205488374,\"AUC\":0.7525812031681952}],[{\"Logloss\":0.551014071237099,\"AUC\":0.7526668918998416}],[{\"Logloss\":0.5505284223597843,\"AUC\":0.752749950180366}],[{\"Logloss\":0.5500679089962585,\"AUC\":0.7529115981824854}],[{\"Logloss\":0.5496079047532232,\"AUC\":0.7529911615852283}],[{\"Logloss\":0.5491472164062156,\"AUC\":0.7529863696898017}],[{\"Logloss\":0.5486914781318577,\"AUC\":0.7529746662136088}],[{\"Logloss\":0.5482510747626334,\"AUC\":0.7529782087389916}],[{\"Logloss\":0.5478109723772717,\"AUC\":0.752982620964231}],[{\"Logloss\":0.5473890800025208,\"AUC\":0.7529693141284164}],[{\"Logloss\":0.546971386458221,\"AUC\":0.7529602736516996}],[{\"Logloss\":0.5465679478037953,\"AUC\":0.7529571484991635}],[{\"Logloss\":0.5461656774782255,\"AUC\":0.7529738851510193}],[{\"Logloss\":0.5457678100434893,\"AUC\":0.7529753432529451}],[{\"Logloss\":0.5453829661161473,\"AUC\":0.7530670030060418}],[{\"Logloss\":0.5450127666369597,\"AUC\":0.7530238695270498}],[{\"Logloss\":0.5446419235314395,\"AUC\":0.7530249874168489}],[{\"Logloss\":0.5442660181072017,\"AUC\":0.753142912614748}],[{\"Logloss\":0.5439043857199656,\"AUC\":0.7531377182568938}],[{\"Logloss\":0.5435569616223475,\"AUC\":0.7531964205844048}],[{\"Logloss\":0.5432132746383064,\"AUC\":0.7532014839865366}],[{\"Logloss\":0.5428690682837801,\"AUC\":0.753201021392878}],[{\"Logloss\":0.5425223029167938,\"AUC\":0.7532012073884689}],[{\"Logloss\":0.5421964848359857,\"AUC\":0.7532785002252977}],[{\"Logloss\":0.5418788341043922,\"AUC\":0.7532163993013099}],[{\"Logloss\":0.5415600905423419,\"AUC\":0.7532153468579006}],[{\"Logloss\":0.5412559093878685,\"AUC\":0.753215182297786}],[{\"Logloss\":0.5409628856636991,\"AUC\":0.7532372444240718}],[{\"Logloss\":0.5406704461708516,\"AUC\":0.7532603399431186}],[{\"Logloss\":0.5403844950710436,\"AUC\":0.7532650812466255}],[{\"Logloss\":0.5401073280514496,\"AUC\":0.753291206671961}],[{\"Logloss\":0.5398180883551378,\"AUC\":0.7533615872076798}],[{\"Logloss\":0.5395456163488139,\"AUC\":0.7534175734400753}],[{\"Logloss\":0.5392720738975197,\"AUC\":0.7535043251405442}],[{\"Logloss\":0.5389987391427639,\"AUC\":0.753505327082951}],[{\"Logloss\":0.5387369581826823,\"AUC\":0.7535092931425686}],[{\"Logloss\":0.5384847295952535,\"AUC\":0.7535520479164943}],[{\"Logloss\":0.5382376271289657,\"AUC\":0.7536223028675985}],[{\"Logloss\":0.5379989311145766,\"AUC\":0.7536454004008107}],[{\"Logloss\":0.5377623345413367,\"AUC\":0.7536814104340082}],[{\"Logloss\":0.5375211088295072,\"AUC\":0.7537026611803183}],[{\"Logloss\":0.5372918553718621,\"AUC\":0.7537299269519989}],[{\"Logloss\":0.5370706812092882,\"AUC\":0.7537248093842026}],[{\"Logloss\":0.536840119760964,\"AUC\":0.7538163890952034}],[{\"Logloss\":0.5366273469063934,\"AUC\":0.7538734402336571}],[{\"Logloss\":0.5364186822984142,\"AUC\":0.7538965262413672}],[{\"Logloss\":0.5362103826529097,\"AUC\":0.753918255589755}],[{\"Logloss\":0.5360023540879599,\"AUC\":0.7539484066674298}],[{\"Logloss\":0.5357936232136035,\"AUC\":0.7540365898520685}],[{\"Logloss\":0.5355991463365691,\"AUC\":0.7540761178769945}],[{\"Logloss\":0.5354052859782643,\"AUC\":0.7540982978739209}],[{\"Logloss\":0.5352080170456125,\"AUC\":0.7541372370911471}],[{\"Logloss\":0.5350232912570563,\"AUC\":0.754215087921742}],[{\"Logloss\":0.534847611634776,\"AUC\":0.754232743347756}],[{\"Logloss\":0.5346662337493298,\"AUC\":0.7542242262533301}],[{\"Logloss\":0.5344890233489543,\"AUC\":0.7542248667859177}],[{\"Logloss\":0.5343222058172491,\"AUC\":0.7542209566543594}],[{\"Logloss\":0.5341425657097524,\"AUC\":0.7542045493535228}],[{\"Logloss\":0.533968470533886,\"AUC\":0.75420166965642}],[{\"Logloss\":0.5338060734872836,\"AUC\":0.7542393231017582}],[{\"Logloss\":0.5336335353658954,\"AUC\":0.7542739584810234}],[{\"Logloss\":0.5334730700106748,\"AUC\":0.7543122893713284}],[{\"Logloss\":0.5333213658693342,\"AUC\":0.7543454768873422}],[{\"Logloss\":0.5331705683985064,\"AUC\":0.7543524022595469}],[{\"Logloss\":0.5330252019753918,\"AUC\":0.7543815592626486}],[{\"Logloss\":0.532873649554679,\"AUC\":0.7543852363244925}],[{\"Logloss\":0.5327264145951526,\"AUC\":0.7543831638951108}],[{\"Logloss\":0.5325890505901911,\"AUC\":0.7544120697499644}],[{\"Logloss\":0.532452459820575,\"AUC\":0.7544615763771401}],[{\"Logloss\":0.5323136016507376,\"AUC\":0.7544767675276755}],[{\"Logloss\":0.53217786895626,\"AUC\":0.7544827387099793}],[{\"Logloss\":0.5320474043189104,\"AUC\":0.7544879342917188}],[{\"Logloss\":0.5319176540554916,\"AUC\":0.754510383305618}],[{\"Logloss\":0.5317790864573676,\"AUC\":0.7545354947874776}],[{\"Logloss\":0.5316516213635599,\"AUC\":0.7545868022673933}],[{\"Logloss\":0.5315271204517047,\"AUC\":0.754602136039026}],[{\"Logloss\":0.531411807268297,\"AUC\":0.7546195745785855}],[{\"Logloss\":0.5312956860231063,\"AUC\":0.7546306972268105}],[{\"Logloss\":0.5311769023033155,\"AUC\":0.7546586174064408}],[{\"Logloss\":0.5310624132531837,\"AUC\":0.7546604946506017}],[{\"Logloss\":0.53094955471923,\"AUC\":0.7546968462946517}],[{\"Logloss\":0.5308453263282293,\"AUC\":0.7547452227442202}],[{\"Logloss\":0.530747577394101,\"AUC\":0.7547633701860945}],[{\"Logloss\":0.5306447052793902,\"AUC\":0.7547800067800854}],[{\"Logloss\":0.5305402272426494,\"AUC\":0.7547973690890777}],[{\"Logloss\":0.530431968654287,\"AUC\":0.7548058606777348}],[{\"Logloss\":0.5303277111902209,\"AUC\":0.7548299417880815}],[{\"Logloss\":0.5302198868638974,\"AUC\":0.7548231950891369}],[{\"Logloss\":0.5301291744387843,\"AUC\":0.7548461722689699}],[{\"Logloss\":0.5300281242977717,\"AUC\":0.7548955836429044}],[{\"Logloss\":0.5299379627920546,\"AUC\":0.754894076103008}],[{\"Logloss\":0.5298414333325238,\"AUC\":0.75493062335889}],[{\"Logloss\":0.5297475604959694,\"AUC\":0.7549527556242914}],[{\"Logloss\":0.529659659509088,\"AUC\":0.75496359015594}],[{\"Logloss\":0.5295679503913527,\"AUC\":0.7549812470226419}],[{\"Logloss\":0.5294729795844705,\"AUC\":0.7549765158738858}],[{\"Logloss\":0.5293834595712635,\"AUC\":0.7549929226152319}],[{\"Logloss\":0.5292990832350776,\"AUC\":0.7550221255245212}],[{\"Logloss\":0.52921803881992,\"AUC\":0.7550546540237832}],[{\"Logloss\":0.5291407355100057,\"AUC\":0.7550776750536766}],[{\"Logloss\":0.5290622454368784,\"AUC\":0.7551374079205476}],[{\"Logloss\":0.5289734491690671,\"AUC\":0.7551551339262761}],[{\"Logloss\":0.528897348977183,\"AUC\":0.7551610933103261}],[{\"Logloss\":0.5288205462259781,\"AUC\":0.7551742047511111}],[{\"Logloss\":0.5287397591594744,\"AUC\":0.7551595730699975}],[{\"Logloss\":0.52866202625039,\"AUC\":0.7551620403946989}],[{\"Logloss\":0.528585798921683,\"AUC\":0.755165935615838}],[{\"Logloss\":0.5285061665224184,\"AUC\":0.7551896674712943}],[{\"Logloss\":0.5284325665633507,\"AUC\":0.7552000068399491}],[{\"Logloss\":0.5283517167544941,\"AUC\":0.7552121410957777}],[{\"Logloss\":0.5282748118333634,\"AUC\":0.7552115283139141}],[{\"Logloss\":0.5282053853196603,\"AUC\":0.7552001141991639}],[{\"Logloss\":0.5281282616778861,\"AUC\":0.7552079575972086}],[{\"Logloss\":0.5280548872709855,\"AUC\":0.7552090682486007}],[{\"Logloss\":0.5279937533257599,\"AUC\":0.7552169418241591}],[{\"Logloss\":0.5279286306825803,\"AUC\":0.7552318905824712}],[{\"Logloss\":0.5278673210397336,\"AUC\":0.7552380341507617}],[{\"Logloss\":0.5278053722852923,\"AUC\":0.7552407611209718}],[{\"Logloss\":0.5277426376090211,\"AUC\":0.7552605968251362}],[{\"Logloss\":0.5276735390711312,\"AUC\":0.7552971690342903}],[{\"Logloss\":0.5276061117781458,\"AUC\":0.7552921198292275}],[{\"Logloss\":0.5275427373507857,\"AUC\":0.7553008677344255}],[{\"Logloss\":0.5274883538333193,\"AUC\":0.7553183341855625}],[{\"Logloss\":0.5274236673271613,\"AUC\":0.7553294669745511}],[{\"Logloss\":0.5273655538636682,\"AUC\":0.7553345990471362}],[{\"Logloss\":0.5273089395249282,\"AUC\":0.7553415941388387}],[{\"Logloss\":0.52725728889321,\"AUC\":0.7553428888345988}],[{\"Logloss\":0.5272048015897106,\"AUC\":0.7553459366935357}],[{\"Logloss\":0.5271510464023822,\"AUC\":0.7553441839779511}],[{\"Logloss\":0.5270994929293039,\"AUC\":0.7553567431457595}],[{\"Logloss\":0.5270501765859976,\"AUC\":0.755363456030503}],[{\"Logloss\":0.5270017555442501,\"AUC\":0.7553984067385592}],[{\"Logloss\":0.5269525597813917,\"AUC\":0.7554030004904597}],[{\"Logloss\":0.526903770693479,\"AUC\":0.7554238509073994}],[{\"Logloss\":0.526853542273752,\"AUC\":0.7554416333097604}],[{\"Logloss\":0.5268013514488546,\"AUC\":0.75544955884799}],[{\"Logloss\":0.5267542124806546,\"AUC\":0.7554640493626814}],[{\"Logloss\":0.5267061287110206,\"AUC\":0.7554695516290851}],[{\"Logloss\":0.526659995610881,\"AUC\":0.7554780029134525}],[{\"Logloss\":0.5266138070903602,\"AUC\":0.7554778484381522}],[{\"Logloss\":0.5265687967014656,\"AUC\":0.7555029136641428}],[{\"Logloss\":0.526520588513841,\"AUC\":0.7555074756299948}],[{\"Logloss\":0.5264775456280463,\"AUC\":0.7555241850206806}],[{\"Logloss\":0.5264361682982928,\"AUC\":0.7555463296018645}],[{\"Logloss\":0.5263932250875828,\"AUC\":0.7555698096516715}],[{\"Logloss\":0.526353910726919,\"AUC\":0.755569134829316}],[{\"Logloss\":0.5263124365852182,\"AUC\":0.7556023841969938}],[{\"Logloss\":0.5262746548656893,\"AUC\":0.7556303642281098}],[{\"Logloss\":0.5262317484147233,\"AUC\":0.7556299840473875}],[{\"Logloss\":0.5261870408725242,\"AUC\":0.7556354239445986}],[{\"Logloss\":0.5261448695294695,\"AUC\":0.7556337250100289}],[{\"Logloss\":0.5261062107038879,\"AUC\":0.7556359826377275}],[{\"Logloss\":0.5260673758172999,\"AUC\":0.7556604444113568}],[{\"Logloss\":0.5260338734685825,\"AUC\":0.755665219284288}],[{\"Logloss\":0.5259931408802956,\"AUC\":0.7556798836116666}],[{\"Logloss\":0.525959632068755,\"AUC\":0.7557050653375461}],[{\"Logloss\":0.5259182549747086,\"AUC\":0.7557132417722532}],[{\"Logloss\":0.5258780880077486,\"AUC\":0.7557212979864599}],[{\"Logloss\":0.5258430696778791,\"AUC\":0.7557302059758493}],[{\"Logloss\":0.5258099932926853,\"AUC\":0.755749287731728}],[{\"Logloss\":0.525773491119012,\"AUC\":0.7557504904472658}],[{\"Logloss\":0.5257434245644356,\"AUC\":0.7557796349107889}],[{\"Logloss\":0.5257083225836483,\"AUC\":0.7557856920448058}],[{\"Logloss\":0.5256732906825218,\"AUC\":0.7558053233251645}],[{\"Logloss\":0.5256369072763333,\"AUC\":0.7558022968247736}],[{\"Logloss\":0.5256067139332892,\"AUC\":0.7558041362963388}],[{\"Logloss\":0.5255727292223082,\"AUC\":0.7558087803883883}],[{\"Logloss\":0.5255402194812092,\"AUC\":0.7558106682908414}],[{\"Logloss\":0.5255045175598236,\"AUC\":0.7558392651811073}],[{\"Logloss\":0.5254753325677176,\"AUC\":0.7558337058326953}],[{\"Logloss\":0.5254449923692155,\"AUC\":0.7558618254356859}],[{\"Logloss\":0.525414431311698,\"AUC\":0.755880641629445}],[{\"Logloss\":0.5253889578276599,\"AUC\":0.7558857972635696}],[{\"Logloss\":0.5253630135704601,\"AUC\":0.7559203983530668}],[{\"Logloss\":0.525330726620456,\"AUC\":0.7559012569555111}],[{\"Logloss\":0.5253031725282938,\"AUC\":0.7559023250366772}],[{\"Logloss\":0.5252761497910469,\"AUC\":0.7559076482521647}],[{\"Logloss\":0.5252510772069426,\"AUC\":0.7559198159165639}],[{\"Logloss\":0.5252182858751314,\"AUC\":0.7559254992480492}],[{\"Logloss\":0.5251906709711573,\"AUC\":0.75593426097266}],[{\"Logloss\":0.5251626915497194,\"AUC\":0.7559363685380389}],[{\"Logloss\":0.5251353775680561,\"AUC\":0.7559473206465956}],[{\"Logloss\":0.5251109802446854,\"AUC\":0.7559723784733255}],[{\"Logloss\":0.5250879157209116,\"AUC\":0.7559768964562382}],[{\"Logloss\":0.5250661410838287,\"AUC\":0.7559878824279515}],[{\"Logloss\":0.5250414812124004,\"AUC\":0.7560057010503225}],[{\"Logloss\":0.525016384014267,\"AUC\":0.7560071234917287}],[{\"Logloss\":0.5249938164762896,\"AUC\":0.7560142772479159}],[{\"Logloss\":0.5249647429893183,\"AUC\":0.7560194560589305}],[{\"Logloss\":0.5249399267602226,\"AUC\":0.7560360923591889}],[{\"Logloss\":0.5249164632312882,\"AUC\":0.7560462381022026}],[{\"Logloss\":0.5248920155634172,\"AUC\":0.7560427202363593}],[{\"Logloss\":0.5248709112726874,\"AUC\":0.7560511716046502}],[{\"Logloss\":0.5248463194088837,\"AUC\":0.7560589593333998}],[{\"Logloss\":0.5248202933859155,\"AUC\":0.7560656356554455}],[{\"Logloss\":0.524800605122592,\"AUC\":0.7560678957239209}],[{\"Logloss\":0.5247763099395896,\"AUC\":0.7560731112724741}],[{\"Logloss\":0.5247568122937551,\"AUC\":0.7560805019448722}],[{\"Logloss\":0.5247311548239252,\"AUC\":0.7560937097578792}],[{\"Logloss\":0.5247113988313787,\"AUC\":0.7560938835216109}],[{\"Logloss\":0.5246918700112175,\"AUC\":0.7561030039425126}],[{\"Logloss\":0.5246658426991555,\"AUC\":0.7561094852961402}],[{\"Logloss\":0.5246426608435825,\"AUC\":0.7561175834581398}],[{\"Logloss\":0.5246214617576065,\"AUC\":0.756125939321419}],[{\"Logloss\":0.5245986735495956,\"AUC\":0.7561230636876153}],[{\"Logloss\":0.5245756053337037,\"AUC\":0.756135873360258}],[{\"Logloss\":0.5245573677076132,\"AUC\":0.7561668502387735}],[{\"Logloss\":0.5245372141782564,\"AUC\":0.7561679030458515}],[{\"Logloss\":0.5245140152945672,\"AUC\":0.7562068561104652}],[{\"Logloss\":0.5244958246507979,\"AUC\":0.7562024828817069}],[{\"Logloss\":0.5244751754846786,\"AUC\":0.756207893384691}],[{\"Logloss\":0.5244560031403488,\"AUC\":0.756218187798292}],[{\"Logloss\":0.5244393695525815,\"AUC\":0.756227846281114}],[{\"Logloss\":0.5244197115685105,\"AUC\":0.7562342623352178}],[{\"Logloss\":0.5244027197871217,\"AUC\":0.7562445369498523}],[{\"Logloss\":0.5243828565889334,\"AUC\":0.7562627392077987}],[{\"Logloss\":0.5243662462197825,\"AUC\":0.7562616495233095}],[{\"Logloss\":0.5243482959238558,\"AUC\":0.7562658233636755}],[{\"Logloss\":0.524334172690069,\"AUC\":0.756262904040665}],[{\"Logloss\":0.5243158800553752,\"AUC\":0.7562719871715313}],[{\"Logloss\":0.5242986614214493,\"AUC\":0.7562914328059808}],[{\"Logloss\":0.5242779295384993,\"AUC\":0.7563027289801542}],[{\"Logloss\":0.5242547187265464,\"AUC\":0.7562987514859514}],[{\"Logloss\":0.5242399395754882,\"AUC\":0.7563014670285699}],[{\"Logloss\":0.5242256424952974,\"AUC\":0.7563065253952881}],[{\"Logloss\":0.5242055784930036,\"AUC\":0.7563109251788597}],[{\"Logloss\":0.524189225791057,\"AUC\":0.7563145017352462}],[{\"Logloss\":0.5241702945369511,\"AUC\":0.7563225847280624}],[{\"Logloss\":0.5241511683327829,\"AUC\":0.7563270483984442}],[{\"Logloss\":0.5241315570470434,\"AUC\":0.7563384076971224}],[{\"Logloss\":0.5241128651654213,\"AUC\":0.7563450583315648}],[{\"Logloss\":0.524097349401882,\"AUC\":0.7563558325921097}],[{\"Logloss\":0.5240830986058378,\"AUC\":0.756363939475166}],[{\"Logloss\":0.5240652052787206,\"AUC\":0.7563803643789694}],[{\"Logloss\":0.5240513609112726,\"AUC\":0.7564079582218349}],[{\"Logloss\":0.5240337081549451,\"AUC\":0.7564416381313649}],[{\"Logloss\":0.5240199196186426,\"AUC\":0.7564330668293126}],[{\"Logloss\":0.5240017014970447,\"AUC\":0.756428242133761}],[{\"Logloss\":0.5239837966883172,\"AUC\":0.7564502716907118}],[{\"Logloss\":0.5239671553786057,\"AUC\":0.7564624805615792}],[{\"Logloss\":0.5239538953462906,\"AUC\":0.7564757567722877}],[{\"Logloss\":0.5239387908680427,\"AUC\":0.7564792144089892}],[{\"Logloss\":0.5239222046257681,\"AUC\":0.7564864649430287}],[{\"Logloss\":0.5239072349220046,\"AUC\":0.7564839451661021}],[{\"Logloss\":0.5238968591806132,\"AUC\":0.7564891593858656}],[{\"Logloss\":0.5238829820601012,\"AUC\":0.7564898144931781}],[{\"Logloss\":0.5238664547121188,\"AUC\":0.7564973826639065}],[{\"Logloss\":0.5238475287440378,\"AUC\":0.7565027795922546}],[{\"Logloss\":0.5238313853974341,\"AUC\":0.7565097501992585}],[{\"Logloss\":0.523814360196049,\"AUC\":0.7565135579930284}],[{\"Logloss\":0.5238012436111623,\"AUC\":0.7565240259465651}],[{\"Logloss\":0.5237882494263644,\"AUC\":0.7565362235926563}],[{\"Logloss\":0.5237764922816508,\"AUC\":0.7565353562076913}],[{\"Logloss\":0.5237621735460932,\"AUC\":0.7565624330744312}],[{\"Logloss\":0.5237490948415795,\"AUC\":0.756560989875931}],[{\"Logloss\":0.5237385748112452,\"AUC\":0.7565607147185509}],[{\"Logloss\":0.5237237716255988,\"AUC\":0.7565511510973267}],[{\"Logloss\":0.5237104335983546,\"AUC\":0.7565444750340454}],[{\"Logloss\":0.5236961402394829,\"AUC\":0.7565549672135166}],[{\"Logloss\":0.5236865003265423,\"AUC\":0.7565730925205518}],[{\"Logloss\":0.5236748062088566,\"AUC\":0.7565799816937275}],[{\"Logloss\":0.5236618555657325,\"AUC\":0.75658360891197}],[{\"Logloss\":0.5236488601959273,\"AUC\":0.7565872186531312}],[{\"Logloss\":0.5236368548444069,\"AUC\":0.7565892679056228}],[{\"Logloss\":0.5236244766420548,\"AUC\":0.756611179438073}],[{\"Logloss\":0.5236130487822914,\"AUC\":0.7566268154883831}],[{\"Logloss\":0.5236013666280331,\"AUC\":0.7566206232514212}],[{\"Logloss\":0.5235886703909008,\"AUC\":0.7566405314725355}],[{\"Logloss\":0.5235752785399099,\"AUC\":0.756657571962648}],[{\"Logloss\":0.5235648197515143,\"AUC\":0.7566605508154374}],[{\"Logloss\":0.5235557921638223,\"AUC\":0.7566645723555222}],[{\"Logloss\":0.5235467268754137,\"AUC\":0.7566729580326461}],[{\"Logloss\":0.5235308890666873,\"AUC\":0.7566812964887801}],[{\"Logloss\":0.5235195609595207,\"AUC\":0.7566870387485921}],[{\"Logloss\":0.5235076667226343,\"AUC\":0.7566896228389406}],[{\"Logloss\":0.5234966888648859,\"AUC\":0.756688682118771}],[{\"Logloss\":0.5234841273363124,\"AUC\":0.756692036837213}],[{\"Logloss\":0.523472825359765,\"AUC\":0.7567173856618951}],[{\"Logloss\":0.5234609268593915,\"AUC\":0.7567167206795768}],[{\"Logloss\":0.5234509981333209,\"AUC\":0.7567151394198262}],[{\"Logloss\":0.5234419470350427,\"AUC\":0.7567188805782893}],[{\"Logloss\":0.5234326260068908,\"AUC\":0.7567192502335983}],[{\"Logloss\":0.5234185146385625,\"AUC\":0.7567334954187418}],[{\"Logloss\":0.5234053317332745,\"AUC\":0.7567376716789038}],[{\"Logloss\":0.5233921494348489,\"AUC\":0.7567274031137594}],[{\"Logloss\":0.523382222616486,\"AUC\":0.7567495744525718}],[{\"Logloss\":0.5233699043412237,\"AUC\":0.7567510283583195}],[{\"Logloss\":0.5233585459597545,\"AUC\":0.7567845231045007}],[{\"Logloss\":0.5233485413749513,\"AUC\":0.7567877816885042}],[{\"Logloss\":0.5233353922178049,\"AUC\":0.7567800521047946}],[{\"Logloss\":0.5233268236599155,\"AUC\":0.7567924139892934}],[{\"Logloss\":0.5233170062286495,\"AUC\":0.7567995955241791}],[{\"Logloss\":0.5233106723938011,\"AUC\":0.7568085176057331}],[{\"Logloss\":0.5233017786959189,\"AUC\":0.7568126374342943}],[{\"Logloss\":0.5232926025161357,\"AUC\":0.75681158345928}],[{\"Logloss\":0.523285763259535,\"AUC\":0.7568341702686718}],[{\"Logloss\":0.5232761438334943,\"AUC\":0.7568418578906013}],[{\"Logloss\":0.5232665497033337,\"AUC\":0.756852627598293}],[{\"Logloss\":0.5232568984293685,\"AUC\":0.756865540874571}],[{\"Logloss\":0.5232486923080174,\"AUC\":0.7568690060853738}],[{\"Logloss\":0.5232396308180792,\"AUC\":0.7568828198684486}],[{\"Logloss\":0.5232271941062002,\"AUC\":0.7568873841631794}],[{\"Logloss\":0.5232185838952538,\"AUC\":0.7568928073665956}],[{\"Logloss\":0.5232115793662403,\"AUC\":0.7568932304602317}],[{\"Logloss\":0.5232027048303616,\"AUC\":0.7568970574095544}],[{\"Logloss\":0.5231961336263848,\"AUC\":0.7568933474356877}],[{\"Logloss\":0.5231859201396447,\"AUC\":0.7568808802830695}],[{\"Logloss\":0.5231748469052575,\"AUC\":0.7568841853047764}],[{\"Logloss\":0.5231659470467699,\"AUC\":0.756882100056071}],[{\"Logloss\":0.5231565627920217,\"AUC\":0.7568841417554422}],[{\"Logloss\":0.5231457971599218,\"AUC\":0.7568895548041076}],[{\"Logloss\":0.5231386653374459,\"AUC\":0.7568855917447571}],[{\"Logloss\":0.5231306157434691,\"AUC\":0.7568822363059713}],[{\"Logloss\":0.5231205602316944,\"AUC\":0.7568874952360116}],[{\"Logloss\":0.5231119696199327,\"AUC\":0.7568884004355342}],[{\"Logloss\":0.5231052741642447,\"AUC\":0.7568962044734291}],[{\"Logloss\":0.523094756244667,\"AUC\":0.7568968433834945}],[{\"Logloss\":0.523087349839411,\"AUC\":0.756900842886651}],[{\"Logloss\":0.5230782637143467,\"AUC\":0.7569184351112306}],[{\"Logloss\":0.5230695329682806,\"AUC\":0.7569245881279153}],[{\"Logloss\":0.5230611012634117,\"AUC\":0.756927851754326}],[{\"Logloss\":0.5230533507268756,\"AUC\":0.7569347350108907}],[{\"Logloss\":0.5230465047152293,\"AUC\":0.7569476714640586}],[{\"Logloss\":0.5230386672504118,\"AUC\":0.7569818653914088}],[{\"Logloss\":0.5230293681556062,\"AUC\":0.7569901540738778}],[{\"Logloss\":0.5230204258805197,\"AUC\":0.7570082650579588}],[{\"Logloss\":0.5230120878092748,\"AUC\":0.7570063098627975}],[{\"Logloss\":0.5230023029494114,\"AUC\":0.7570041788897389}],[{\"Logloss\":0.5229951258050729,\"AUC\":0.75701730068809}],[{\"Logloss\":0.5229844704872729,\"AUC\":0.7570134122437784}],[{\"Logloss\":0.5229754711836786,\"AUC\":0.7570177317194963}],[{\"Logloss\":0.5229633039521627,\"AUC\":0.7570219277856185}],[{\"Logloss\":0.5229555080841656,\"AUC\":0.757048485759978}],[{\"Logloss\":0.5229480814012769,\"AUC\":0.7570776056898468}],[{\"Logloss\":0.5229425682118631,\"AUC\":0.7570813810611481}],[{\"Logloss\":0.5229357350662589,\"AUC\":0.7570742706934417}],[{\"Logloss\":0.5229285215944242,\"AUC\":0.7571088238136303}],[{\"Logloss\":0.5229203577703609,\"AUC\":0.7571163217823005}],[{\"Logloss\":0.5229144632829857,\"AUC\":0.757114010772224}],[{\"Logloss\":0.5229084274881549,\"AUC\":0.7571152170055577}],[{\"Logloss\":0.5229002262192448,\"AUC\":0.7571180278993281}],[{\"Logloss\":0.5228926709338674,\"AUC\":0.7571213335854299}],[{\"Logloss\":0.5228859867040504,\"AUC\":0.7571183345560178}],[{\"Logloss\":0.5228786448792121,\"AUC\":0.7571167486175288}],[{\"Logloss\":0.5228717854178125,\"AUC\":0.7571229234893073}],[{\"Logloss\":0.5228657923461804,\"AUC\":0.7571252056926218}],[{\"Logloss\":0.5228576525106781,\"AUC\":0.757127073404465}],[{\"Logloss\":0.5228520053126519,\"AUC\":0.7571271247866648}],[{\"Logloss\":0.5228440627703494,\"AUC\":0.7571523317875234}],[{\"Logloss\":0.5228372147750869,\"AUC\":0.7571486100573646}],[{\"Logloss\":0.5228303708775116,\"AUC\":0.7571411982082545}],[{\"Logloss\":0.5228235637085148,\"AUC\":0.7571424999186256}],[{\"Logloss\":0.5228167555630113,\"AUC\":0.7571531716945159}],[{\"Logloss\":0.5228093816513008,\"AUC\":0.7571605620871689}],[{\"Logloss\":0.5228017107970436,\"AUC\":0.757167666580226}],[{\"Logloss\":0.5227950547101332,\"AUC\":0.7571788089714686}],[{\"Logloss\":0.5227867792988076,\"AUC\":0.7571616175798008}],[{\"Logloss\":0.5227777544959663,\"AUC\":0.7571647012531172}],[{\"Logloss\":0.5227731918536384,\"AUC\":0.7571638036346896}],[{\"Logloss\":0.5227657455538369,\"AUC\":0.7571738366263999}],[{\"Logloss\":0.5227596426713969,\"AUC\":0.7571741042726213}],[{\"Logloss\":0.52275464625284,\"AUC\":0.7571665988837097}],[{\"Logloss\":0.5227491858133458,\"AUC\":0.7571930034877625}],[{\"Logloss\":0.5227413523858464,\"AUC\":0.7571921897859016}],[{\"Logloss\":0.5227337385304713,\"AUC\":0.7571956449608455}],[{\"Logloss\":0.5227264182346558,\"AUC\":0.7571979169114982}],[{\"Logloss\":0.5227207374314894,\"AUC\":0.7572251150827509}],[{\"Logloss\":0.5227134876679458,\"AUC\":0.757226855125878}],[{\"Logloss\":0.5227085956516326,\"AUC\":0.7572313633316958}],[{\"Logloss\":0.522704548184014,\"AUC\":0.757236159318396}],[{\"Logloss\":0.5226984611185147,\"AUC\":0.7572512153589929}],[{\"Logloss\":0.5226912891904462,\"AUC\":0.7572546671979751}],[{\"Logloss\":0.5226860454490974,\"AUC\":0.7572537987849465}],[{\"Logloss\":0.5226807011333248,\"AUC\":0.7572578379699598}],[{\"Logloss\":0.5226733231413564,\"AUC\":0.7572665623415927}],[{\"Logloss\":0.522666699609336,\"AUC\":0.7572635270711898}],[{\"Logloss\":0.5226607741678252,\"AUC\":0.7572725178651589}],[{\"Logloss\":0.5226552060930316,\"AUC\":0.7572785758034433}],[{\"Logloss\":0.5226487785450281,\"AUC\":0.7572804128482188}],[{\"Logloss\":0.5226441006391398,\"AUC\":0.7572839984683499}],[{\"Logloss\":0.5226396201457322,\"AUC\":0.7572796642640472}],[{\"Logloss\":0.5226349060732485,\"AUC\":0.7572858302469221}],[{\"Logloss\":0.5226306382586777,\"AUC\":0.7572884618380057}],[{\"Logloss\":0.5226249680308639,\"AUC\":0.7573093526361653}],[{\"Logloss\":0.5226187669460546,\"AUC\":0.757308646181621}],[{\"Logloss\":0.5226117382483297,\"AUC\":0.7573129736300771}],[{\"Logloss\":0.522605022378656,\"AUC\":0.7573236738770354}],[{\"Logloss\":0.5225982800751542,\"AUC\":0.7573264695037114}],[{\"Logloss\":0.5225931686450096,\"AUC\":0.757326187037988}],[{\"Logloss\":0.5225854434520988,\"AUC\":0.7573314905594134}],[{\"Logloss\":0.522581036134075,\"AUC\":0.7573331902772695}],[{\"Logloss\":0.5225740790231277,\"AUC\":0.7573347973295278}],[{\"Logloss\":0.5225683987473847,\"AUC\":0.7573317707102453}],[{\"Logloss\":0.5225615117209985,\"AUC\":0.757338925949082}],[{\"Logloss\":0.5225548769082955,\"AUC\":0.7573414264795388}],[{\"Logloss\":0.5225493700465016,\"AUC\":0.7573441271886682}],[{\"Logloss\":0.522542828823936,\"AUC\":0.757339581804713}],[{\"Logloss\":0.52253764313597,\"AUC\":0.7573434354137534}],[{\"Logloss\":0.5225319132249104,\"AUC\":0.7573445061804733}],[{\"Logloss\":0.5225268450172429,\"AUC\":0.7573455870879569}],[{\"Logloss\":0.5225189249304526,\"AUC\":0.7573496325672372}],[{\"Logloss\":0.5225149188389238,\"AUC\":0.7573556420956145}],[{\"Logloss\":0.5225089472475002,\"AUC\":0.7573572484485097}],[{\"Logloss\":0.5225055097778746,\"AUC\":0.7573612728769636}],[{\"Logloss\":0.5224991291183259,\"AUC\":0.7573658502777572}],[{\"Logloss\":0.5224957969294666,\"AUC\":0.7573755426027549}],[{\"Logloss\":0.5224910489872873,\"AUC\":0.7573852274235876}],[{\"Logloss\":0.5224850366695097,\"AUC\":0.7573915724503849}],[{\"Logloss\":0.5224817352430883,\"AUC\":0.757390446426994}]],\"learn_metrics_history\":[{\"Logloss\":0.6896081287563088},{\"Logloss\":0.6862194472182858},{\"Logloss\":0.6829004277578921},{\"Logloss\":0.6795779737512105},{\"Logloss\":0.676379551393658},{\"Logloss\":0.6731975120994337},{\"Logloss\":0.6701976777518501},{\"Logloss\":0.6671493515020824},{\"Logloss\":0.6642882305679781},{\"Logloss\":0.6613659143004742},{\"Logloss\":0.6585591449647399},{\"Logloss\":0.6558252395529784},{\"Logloss\":0.653162097388245},{\"Logloss\":0.6505212212111758},{\"Logloss\":0.6479433423249532},{\"Logloss\":0.6453753933567893},{\"Logloss\":0.6428965044317136},{\"Logloss\":0.6405294449192923},{\"Logloss\":0.638199761295393},{\"Logloss\":0.6358255611778838},{\"Logloss\":0.6336261267053227},{\"Logloss\":0.6314533906094868},{\"Logloss\":0.6292839457027869},{\"Logloss\":0.6271748477964346},{\"Logloss\":0.6251157720105894},{\"Logloss\":0.6230386572182568},{\"Logloss\":0.621007058165045},{\"Logloss\":0.6191131398481253},{\"Logloss\":0.6171681366726389},{\"Logloss\":0.6153473160923584},{\"Logloss\":0.6134857836486912},{\"Logloss\":0.6117464592395511},{\"Logloss\":0.6100030484608603},{\"Logloss\":0.6082279884089062},{\"Logloss\":0.6065360932539644},{\"Logloss\":0.6048857867803462},{\"Logloss\":0.6033165031780513},{\"Logloss\":0.6017626282183863},{\"Logloss\":0.6002255518456274},{\"Logloss\":0.5986915717245875},{\"Logloss\":0.5972619230809918},{\"Logloss\":0.5958285708030892},{\"Logloss\":0.5943575572259395},{\"Logloss\":0.5930243805318509},{\"Logloss\":0.5916492125864125},{\"Logloss\":0.5902881542945304},{\"Logloss\":0.5890107285568736},{\"Logloss\":0.587762323564574},{\"Logloss\":0.5864534303690653},{\"Logloss\":0.58528261406921},{\"Logloss\":0.5840561290540732},{\"Logloss\":0.5829228926178367},{\"Logloss\":0.5817642926272166},{\"Logloss\":0.5806458818096087},{\"Logloss\":0.5795802320386346},{\"Logloss\":0.5785145731950403},{\"Logloss\":0.577473793753805},{\"Logloss\":0.5765218680091316},{\"Logloss\":0.5755059516711905},{\"Logloss\":0.574527858995796},{\"Logloss\":0.5735631655446306},{\"Logloss\":0.5726515529977012},{\"Logloss\":0.5717415055156326},{\"Logloss\":0.5707689388153872},{\"Logloss\":0.5699256819281401},{\"Logloss\":0.5690149130131035},{\"Logloss\":0.5682006447332764},{\"Logloss\":0.5673338908293541},{\"Logloss\":0.5664884510915061},{\"Logloss\":0.5657169694829577},{\"Logloss\":0.5649472818851644},{\"Logloss\":0.5641547141241748},{\"Logloss\":0.5634390383322996},{\"Logloss\":0.5627212888088868},{\"Logloss\":0.5619778030010238},{\"Logloss\":0.5612982158304682},{\"Logloss\":0.5605976107742607},{\"Logloss\":0.559919232160133},{\"Logloss\":0.5592845820673036},{\"Logloss\":0.558633058078193},{\"Logloss\":0.5580118022378121},{\"Logloss\":0.5573875482549702},{\"Logloss\":0.5568004206412045},{\"Logloss\":0.5561904597970834},{\"Logloss\":0.555591325397214},{\"Logloss\":0.5550197850841058},{\"Logloss\":0.5544222105829896},{\"Logloss\":0.5538505185878274},{\"Logloss\":0.5532958406394886},{\"Logloss\":0.5528268197087973},{\"Logloss\":0.5523174266291019},{\"Logloss\":0.5517913240560418},{\"Logloss\":0.5512885242787613},{\"Logloss\":0.5508284471411903},{\"Logloss\":0.5503451224515011},{\"Logloss\":0.5498664574001692},{\"Logloss\":0.5494744178948566},{\"Logloss\":0.5489660440061118},{\"Logloss\":0.5485720096523885},{\"Logloss\":0.5481038841460272},{\"Logloss\":0.5476651075014809},{\"Logloss\":0.5472945477542714},{\"Logloss\":0.5468667936569138},{\"Logloss\":0.5464690122732363},{\"Logloss\":0.5461020004185173},{\"Logloss\":0.5456783946542105},{\"Logloss\":0.5453706072362631},{\"Logloss\":0.5449538447248029},{\"Logloss\":0.5446038355669156},{\"Logloss\":0.544236215377433},{\"Logloss\":0.5438830977808642},{\"Logloss\":0.543543680708401},{\"Logloss\":0.5432075766281275},{\"Logloss\":0.5428363777730596},{\"Logloss\":0.542499929377935},{\"Logloss\":0.542239708759478},{\"Logloss\":0.5419172257314118},{\"Logloss\":0.541598527518814},{\"Logloss\":0.541288300661173},{\"Logloss\":0.541028119793754},{\"Logloss\":0.5407353105619624},{\"Logloss\":0.5404783973288888},{\"Logloss\":0.5401499314927948},{\"Logloss\":0.539882417386344},{\"Logloss\":0.5396271522970245},{\"Logloss\":0.5393385705155433},{\"Logloss\":0.5390694296897973},{\"Logloss\":0.5388477889284237},{\"Logloss\":0.5386070982923936},{\"Logloss\":0.5383828802356286},{\"Logloss\":0.5381466633470459},{\"Logloss\":0.5378974774466521},{\"Logloss\":0.5376742296023059},{\"Logloss\":0.5374565204022332},{\"Logloss\":0.5372288651924858},{\"Logloss\":0.5370122918800254},{\"Logloss\":0.5367880793267952},{\"Logloss\":0.5365640889383569},{\"Logloss\":0.5363615273304732},{\"Logloss\":0.5361391493393013},{\"Logloss\":0.5359676861846036},{\"Logloss\":0.5357621005518574},{\"Logloss\":0.5356056242560985},{\"Logloss\":0.5354372108672449},{\"Logloss\":0.5352472844988945},{\"Logloss\":0.5350250098102799},{\"Logloss\":0.5348801058035416},{\"Logloss\":0.5346800553312144},{\"Logloss\":0.5345402668386205},{\"Logloss\":0.5343479782248427},{\"Logloss\":0.5342128314900049},{\"Logloss\":0.5339889356231531},{\"Logloss\":0.5338585081965432},{\"Logloss\":0.5337228953436456},{\"Logloss\":0.5335702888951813},{\"Logloss\":0.5333836657260301},{\"Logloss\":0.5332542491776313},{\"Logloss\":0.5331312290066922},{\"Logloss\":0.5330015052898548},{\"Logloss\":0.5328551995050178},{\"Logloss\":0.5327355855037896},{\"Logloss\":0.5325921504918966},{\"Logloss\":0.5324241849306052},{\"Logloss\":0.5323620747815465},{\"Logloss\":0.5322094667302472},{\"Logloss\":0.5320392282531665},{\"Logloss\":0.5319042955799901},{\"Logloss\":0.5318361299391808},{\"Logloss\":0.5316676669167646},{\"Logloss\":0.5315999659186349},{\"Logloss\":0.5314727631807884},{\"Logloss\":0.5313476709186363},{\"Logloss\":0.5312840437342294},{\"Logloss\":0.5311752250743835},{\"Logloss\":0.5310784096376412},{\"Logloss\":0.5309518395165653},{\"Logloss\":0.5308839849343128},{\"Logloss\":0.5307486665123582},{\"Logloss\":0.5306128281738621},{\"Logloss\":0.5305689637553734},{\"Logloss\":0.5304444378491562},{\"Logloss\":0.5304020586301957},{\"Logloss\":0.5302279520199202},{\"Logloss\":0.5301700698965691},{\"Logloss\":0.5300484098396997},{\"Logloss\":0.5300066065562978},{\"Logloss\":0.5298825764259097},{\"Logloss\":0.5298283291894469},{\"Logloss\":0.5297099060581684},{\"Logloss\":0.5296616954499911},{\"Logloss\":0.5295582109208409},{\"Logloss\":0.5294950960408286},{\"Logloss\":0.5293727548165827},{\"Logloss\":0.5293245597129275},{\"Logloss\":0.529211214788785},{\"Logloss\":0.5291747835189383},{\"Logloss\":0.5290973225669878},{\"Logloss\":0.5290468078191569},{\"Logloss\":0.528939918716421},{\"Logloss\":0.5288791222924937},{\"Logloss\":0.5287618364747632},{\"Logloss\":0.5287052428751383},{\"Logloss\":0.5286640958089389},{\"Logloss\":0.5285578216896639},{\"Logloss\":0.5285009185349288},{\"Logloss\":0.5284356412287323},{\"Logloss\":0.5283904171934586},{\"Logloss\":0.5282886367381134},{\"Logloss\":0.5282353674957134},{\"Logloss\":0.5281884735798227},{\"Logloss\":0.5281078500888639},{\"Logloss\":0.5280743778039689},{\"Logloss\":0.5280069590715616},{\"Logloss\":0.5279034985304643},{\"Logloss\":0.5279100390338947},{\"Logloss\":0.5277873899627684},{\"Logloss\":0.5277372952215054},{\"Logloss\":0.5277157382062035},{\"Logloss\":0.5276115195951134},{\"Logloss\":0.5276251541112834},{\"Logloss\":0.527512338384288},{\"Logloss\":0.5274755035878345},{\"Logloss\":0.5274681669056278},{\"Logloss\":0.5273829251680378},{\"Logloss\":0.5273344720476171},{\"Logloss\":0.52731947525269},{\"Logloss\":0.5272685701267457},{\"Logloss\":0.5271732050199341},{\"Logloss\":0.5271861190468078},{\"Logloss\":0.5271376247511164},{\"Logloss\":0.527061960292496},{\"Logloss\":0.5270255840158975},{\"Logloss\":0.5269776374543246},{\"Logloss\":0.5269123823656655},{\"Logloss\":0.5268778880940124},{\"Logloss\":0.5268831070122031},{\"Logloss\":0.5267781639011694},{\"Logloss\":0.5267317453418339},{\"Logloss\":0.5267347119360489},{\"Logloss\":0.5266886751983041},{\"Logloss\":0.5266426337131132},{\"Logloss\":0.5265837959141922},{\"Logloss\":0.5266038691675728},{\"Logloss\":0.5265021185569329},{\"Logloss\":0.5264608620028164},{\"Logloss\":0.5264643979040676},{\"Logloss\":0.5264132276405692},{\"Logloss\":0.5263542436610059},{\"Logloss\":0.5263045935650571},{\"Logloss\":0.5263130109152044},{\"Logloss\":0.5262587872670025},{\"Logloss\":0.5262619858062045},{\"Logloss\":0.5261953763445718},{\"Logloss\":0.5261557959571039},{\"Logloss\":0.5261601988790386},{\"Logloss\":0.5261171889052303},{\"Logloss\":0.5260676032397118},{\"Logloss\":0.5260137618936389},{\"Logloss\":0.5260052698224567},{\"Logloss\":0.5259652565965662},{\"Logloss\":0.5259249532369318},{\"Logloss\":0.5258705925128495},{\"Logloss\":0.5258797483282752},{\"Logloss\":0.5258833040717796},{\"Logloss\":0.5258330506532212},{\"Logloss\":0.5257784098159785},{\"Logloss\":0.5257443880662778},{\"Logloss\":0.5257469882479522},{\"Logloss\":0.525722385881242},{\"Logloss\":0.5256666591883905},{\"Logloss\":0.5256176795200563},{\"Logloss\":0.5256105664978339},{\"Logloss\":0.5256128730182668},{\"Logloss\":0.5255879789656368},{\"Logloss\":0.5255319215408253},{\"Logloss\":0.5254865981189416},{\"Logloss\":0.525486776207862},{\"Logloss\":0.5254994930717649},{\"Logloss\":0.5254787678210974},{\"Logloss\":0.5253959327575948},{\"Logloss\":0.5253948833489527},{\"Logloss\":0.5253607645968048},{\"Logloss\":0.5253742631068244},{\"Logloss\":0.5253151264305306},{\"Logloss\":0.5253254588211823},{\"Logloss\":0.525258757022644},{\"Logloss\":0.5252622413541351},{\"Logloss\":0.525213368683502},{\"Logloss\":0.5252150534936185},{\"Logloss\":0.5252234550442337},{\"Logloss\":0.5251709788683792},{\"Logloss\":0.5251769370545545},{\"Logloss\":0.5251089525297903},{\"Logloss\":0.5250583843091993},{\"Logloss\":0.5250644664479094},{\"Logloss\":0.5250734554091111},{\"Logloss\":0.5250738824118626},{\"Logloss\":0.5250287269019549},{\"Logloss\":0.5249642748244927},{\"Logloss\":0.5249635425033155},{\"Logloss\":0.5249143123162826},{\"Logloss\":0.5249156772280379},{\"Logloss\":0.5249165600256372},{\"Logloss\":0.5249219229220664},{\"Logloss\":0.5248751229692706},{\"Logloss\":0.5248769587271059},{\"Logloss\":0.5248279051000926},{\"Logloss\":0.5248330247434603},{\"Logloss\":0.5247770360307237},{\"Logloss\":0.5247928109661597},{\"Logloss\":0.5247855314023783},{\"Logloss\":0.5247526233904196},{\"Logloss\":0.5247545659752442},{\"Logloss\":0.5246894441893342},{\"Logloss\":0.5246820721905413},{\"Logloss\":0.5246499308815642},{\"Logloss\":0.524637460304455},{\"Logloss\":0.524654148516018},{\"Logloss\":0.5246418384920464},{\"Logloss\":0.5246524033993585},{\"Logloss\":0.5246033774256025},{\"Logloss\":0.5246050867302985},{\"Logloss\":0.5245334024587909},{\"Logloss\":0.5245371179882065},{\"Logloss\":0.5244917181088331},{\"Logloss\":0.5244832594314252},{\"Logloss\":0.5244978351444233},{\"Logloss\":0.5245001256468704},{\"Logloss\":0.5245026772197295},{\"Logloss\":0.5244410024058944},{\"Logloss\":0.5244462058102759},{\"Logloss\":0.524388662028273},{\"Logloss\":0.5243804724983625},{\"Logloss\":0.5243435666885523},{\"Logloss\":0.5243468575765697},{\"Logloss\":0.5243578120563144},{\"Logloss\":0.524350288411674},{\"Logloss\":0.5243536635487142},{\"Logloss\":0.5243030791343962},{\"Logloss\":0.5243014379476334},{\"Logloss\":0.5242927945343901},{\"Logloss\":0.5242329971391608},{\"Logloss\":0.5242336413975839},{\"Logloss\":0.524232790250174},{\"Logloss\":0.5241852433662578},{\"Logloss\":0.5241926513113834},{\"Logloss\":0.5241965091121017},{\"Logloss\":0.5241892633453155},{\"Logloss\":0.5241936374763799},{\"Logloss\":0.5241969815593479},{\"Logloss\":0.5241402762373398},{\"Logloss\":0.5241483620198956},{\"Logloss\":0.5241485076411948},{\"Logloss\":0.5240800687884138},{\"Logloss\":0.5240867175765818},{\"Logloss\":0.5240885355146484},{\"Logloss\":0.5240361792237777},{\"Logloss\":0.5240415640347865},{\"Logloss\":0.5240455117302767},{\"Logloss\":0.524047433425882},{\"Logloss\":0.5240469860912333},{\"Logloss\":0.5240508250350604},{\"Logloss\":0.5239969254832344},{\"Logloss\":0.5239957545505216},{\"Logloss\":0.5239914610980091},{\"Logloss\":0.5239318512506812},{\"Logloss\":0.52393743140436},{\"Logloss\":0.5239324913210808},{\"Logloss\":0.5239351989332303},{\"Logloss\":0.5238774705281779},{\"Logloss\":0.5238804852445844},{\"Logloss\":0.5238777924573572},{\"Logloss\":0.523881245939696},{\"Logloss\":0.5238729107887589},{\"Logloss\":0.5238729856614998},{\"Logloss\":0.5238667460283281},{\"Logloss\":0.523821208546736},{\"Logloss\":0.5238227417748346},{\"Logloss\":0.5238220408532743},{\"Logloss\":0.5238255087963141},{\"Logloss\":0.5238145936161797},{\"Logloss\":0.5237610820681138},{\"Logloss\":0.5237580845380169},{\"Logloss\":0.5237653247321936},{\"Logloss\":0.5237573613499855},{\"Logloss\":0.5237143055711512},{\"Logloss\":0.5237231209658743},{\"Logloss\":0.5237062520006144},{\"Logloss\":0.5237092935605216},{\"Logloss\":0.5237005659730414},{\"Logloss\":0.5237097365197226},{\"Logloss\":0.523716754484994},{\"Logloss\":0.5236966501849777},{\"Logloss\":0.5237012072660122},{\"Logloss\":0.523694230148905},{\"Logloss\":0.523639435565025},{\"Logloss\":0.5236446143271289},{\"Logloss\":0.5236492498714139},{\"Logloss\":0.5236419589566873},{\"Logloss\":0.5236367956822907},{\"Logloss\":0.5236277625334078},{\"Logloss\":0.5235713177272936},{\"Logloss\":0.5235775252598129},{\"Logloss\":0.5235730091887871},{\"Logloss\":0.5235667299876645},{\"Logloss\":0.5235565234707472},{\"Logloss\":0.5235533053605846},{\"Logloss\":0.5235089370478543},{\"Logloss\":0.523515588982904},{\"Logloss\":0.5235087512641331},{\"Logloss\":0.5235030399896388},{\"Logloss\":0.523492463637045},{\"Logloss\":0.5234999102687353},{\"Logloss\":0.5234965233106},{\"Logloss\":0.5235015400421198},{\"Logloss\":0.5234959030995975},{\"Logloss\":0.5234909399560081},{\"Logloss\":0.5234845713094639},{\"Logloss\":0.5234411698097454},{\"Logloss\":0.523448708457865},{\"Logloss\":0.5234401450094792},{\"Logloss\":0.5234345912705007},{\"Logloss\":0.5234233062157814},{\"Logloss\":0.5234289459917256},{\"Logloss\":0.5233642898814623},{\"Logloss\":0.5233738004518017},{\"Logloss\":0.5233794116392753},{\"Logloss\":0.5233643745242028},{\"Logloss\":0.5233571354854639},{\"Logloss\":0.5233639981976771},{\"Logloss\":0.5233120978560282},{\"Logloss\":0.5233183343076445},{\"Logloss\":0.5233111646100684},{\"Logloss\":0.5233175030437011},{\"Logloss\":0.5233033365487796},{\"Logloss\":0.523297411194288},{\"Logloss\":0.523303952285627},{\"Logloss\":0.523299543856479},{\"Logloss\":0.5232943366554077},{\"Logloss\":0.5233036718912962},{\"Logloss\":0.5233066122012061},{\"Logloss\":0.5233030125671766},{\"Logloss\":0.5232838781991809},{\"Logloss\":0.5232896201892758},{\"Logloss\":0.523282901592679},{\"Logloss\":0.5232281897132528},{\"Logloss\":0.523240115508026},{\"Logloss\":0.5232420488083166},{\"Logloss\":0.5232361973044867},{\"Logloss\":0.5232200035682054},{\"Logloss\":0.5232247114348983},{\"Logloss\":0.5232221539704975},{\"Logloss\":0.5231703834817243},{\"Logloss\":0.5231784808917974},{\"Logloss\":0.5231737600145793},{\"Logloss\":0.5231554289483853},{\"Logloss\":0.5231514084608597},{\"Logloss\":0.5231579110272402},{\"Logloss\":0.5231507285432804},{\"Logloss\":0.5231601779215806},{\"Logloss\":0.5231099113367718},{\"Logloss\":0.5231150148554761},{\"Logloss\":0.5231087618779171},{\"Logloss\":0.5231032112674276},{\"Logloss\":0.5230896512113997},{\"Logloss\":0.523094642518304},{\"Logloss\":0.5230884231680843},{\"Logloss\":0.5230830413387972},{\"Logloss\":0.5230924430964937},{\"Logloss\":0.5230895577318405},{\"Logloss\":0.5230952184616057},{\"Logloss\":0.5230887530160923},{\"Logloss\":0.5230870554432867},{\"Logloss\":0.5230821450236124},{\"Logloss\":0.5230687616007889},{\"Logloss\":0.523062994844027},{\"Logloss\":0.5230677835573155},{\"Logloss\":0.5230615442297583},{\"Logloss\":0.5230687161641848},{\"Logloss\":0.5230637786140607},{\"Logloss\":0.5230106010059186},{\"Logloss\":0.5230181748959578},{\"Logloss\":0.5230116305725913},{\"Logloss\":0.5230069312404577},{\"Logloss\":0.523003020986833},{\"Logloss\":0.5229852623621307},{\"Logloss\":0.5229793832367822},{\"Logloss\":0.522984804356131},{\"Logloss\":0.5229829073206738},{\"Logloss\":0.5229748428448862},{\"Logloss\":0.5229830768221785},{\"Logloss\":0.5229757517122712},{\"Logloss\":0.5229746639468278},{\"Logloss\":0.5229073340120094},{\"Logloss\":0.5229155844912033},{\"Logloss\":0.5229091350340656},{\"Logloss\":0.5229057507968559},{\"Logloss\":0.5229041062948441},{\"Logloss\":0.5228963393475444},{\"Logloss\":0.5228932119283486}],\"test_best_error\":[{\"Logloss\":0.5224817352430883,\"AUC\":0.7573915724503849}]}}"
    },
  "oblivious_trees":
    [
      {
        "leaf_values":
          [
            -0.014526871418455543,
            0.0048254459690429043,
            0,
            0,
            0,
            0,
            0,
            0,
            -0.0097933394163728215,
            0.0064751916154888048,
            -0.011625981181844587,
            0.016768896284920891,
            0,
            0,
            0,
            0,
            -0.017387504198810778,
            0,
            0,
            0,
            0,
            0,
            0,
            0,
            -0.0063714552563312338,
            0.011239188180447635,
            -0.0052872545829607993,
            0.025518871772933965,
            0,
            0,
            0,
            0,
            -0.0017051276409877894,
            0.0028817310451924555,
            0,
            0,
            -0.0048484445491729202,
            -0.0017165544662303908,
            0,
            0,
            -0.00057560362010690674,
            0.0034252888522692858,
            -0.00062517054563058052,
            0.01026579237727808,
            -0.0061564808312444437,
            -0.0030701761753899981,
            -0.0085045181451860966,
            -0.00036367643210311903,
            -0.0069283858183614763,
            -0.0029375699099448496,
            0,
            0,
            -0.011243850682856058,
            -0.0052999118482499694,
            0,
            0,
            0.0023474909187060143,
            0.0068313224030836584,
            0.0083695345855604921,
            0.017186475123972957,
            -0.0027229714649761798,
            -0.00023673032059049005,
            0.0045630402601049454,
            0.0042582799696829965
          ],
        "leaf_weights":
          [
            681698,
            545,
            0,
            0,
            0,
            0,
            0,
            0,
            135435,
            3883,
            3325,
            527,
            0,
            0,
            0,
            0,
            9935,
            20,
            0,
            0,
            0,
            0,
            0,
            0,
            84191,
            9067,
            35716,
            29756,
            0,
            0,
            0,
            0,
            4562,
            4752,
            0,
            0,
            7305,
            5910,
            0,
            0,
            4553,
            29338,
            128,
            2855,
            5830,
            29275,
            147,
            1485,
            84,
            192,
            0,
            0,
            155,
            251,
            0,
            0,
            2328,
            62054,
            781,
            99661,
            1818,
            35992,
            379,
            18536
          ],
        "splits":
          [
            {
              "border":1.5,
              "float_feature_index":10,
              "split_index":235,
              "split_type":"FloatFeature"
            },
            {
              "border":13010.5,
              "float_feature_index":16,
              "split_index":848,
              "split_type":"FloatFeature"
            },
            {
              "border":26.5,
              "float_feature_index":13,
              "split_index":570,
              "split_type":"FloatFeature"
            },
            {
              "border":333.5,
              "float_feature_index":16,
              "split_index":742,
              "split_type":"FloatFeature"
            },
            {
              "border":10.5,
              "float_feature_index":20,
              "split_index":1049,
              "split_type":"FloatFeature"
            },
            {
              "border":1.5,
              "float_feature_index":13,
              "split_index":545,
              "split_type":"FloatFeature"
            }
          ]
      },
      {
        "leaf_values":
          [
            -0.014407485289760822,
            0.0040116008704950716,
            -0.012499961601759334,
            0.015276000950448105,
            0,
            0,
            0,
            0,
            -0.011429451668678934,
            0.0029440850654520738,
            -0.0089219978727864187,
            0.0038754924903446784,
            0,
            0,
            0,
            0,
